%YAML:1.0
---
opencv_ml_svm:
   format: 3
   svmType: C_SVC
   kernel:
      type: LINEAR
   C: 1.0000000000000001e-01
   term_criteria: { iterations:100 }
   var_count: 400
   class_count: 17
   class_labels: !!opencv-matrix
      rows: 17
      cols: 1
      dt: i
      data: [ 40, 41, 43, 45, 48, 49, 50, 51, 52, 53, 54, 55, 56, 57, 68,
          88, 105 ]
   sv_total: 136
   support_vectors:
      - [ -1.12395188e-04, -2.53192760e-04, -2.81002693e-04,
          -1.67847887e-04, -3.31833762e-05, -1.02645252e-04,
          -7.38752060e-05, -7.38065501e-05, -4.09751046e-05,
          -3.62700594e-05, -2.99827188e-05, 3.68383808e-05,
          8.18263070e-05, 4.43644512e-06, 3.42635285e-05, 4.49990039e-05,
          8.08841069e-05, 1.81137759e-04, 2.71732453e-04, 2.08526428e-04,
          0., 0., 0., -9.27216115e-06, -1.14536553e-04, -2.03084666e-04,
          -1.73788605e-04, -1.23102718e-05, -4.59601215e-05,
          3.24792272e-05, 5.96950922e-05, 2.94432703e-05,
          -5.93264631e-05, 3.60297490e-05, 3.91076464e-05,
          4.74911940e-05, 0., 0., 0., 0., 0., 0., 0., 0., 0.,
          5.15216670e-05, 8.26937030e-05, -7.73020874e-05,
          -1.07024840e-04, -4.11320507e-05, -1.64411176e-05,
          3.95456336e-05, 3.92186485e-05, 8.45326867e-05,
          -7.28393934e-05, -1.21001147e-04, -9.24086853e-05, 0., 0., 0.,
          0., 0., 0., 0., 9.19658705e-05, 4.22928060e-05, 1.07234642e-04,
          2.54837705e-05, 4.59697185e-05, -2.95419995e-05,
          -2.00128143e-05, 8.26622563e-05, -7.27371807e-05,
          -1.39750860e-04, -1.03725353e-04, -6.20280334e-05,
          -8.80585940e-05, -9.24086853e-05, -5.61386260e-05, 0., 0., 0.,
          0., 9.19658705e-05, 5.52811725e-05, 9.04256085e-05,
          6.25786779e-05, 7.82785210e-05, 1.58754643e-04, 9.27776928e-05,
          -9.27216115e-06, -1.31462599e-04, -1.78028044e-04,
          -3.33008466e-05, -7.27371807e-05, -1.40491029e-04,
          -1.03725353e-04, -1.73783337e-04, -1.13270566e-04,
          -4.26706583e-06, 0., 0., 9.19658705e-05, 1.07234642e-04,
          9.22465770e-05, 4.80940289e-05, 1.38351563e-04, 1.00846548e-04,
          0., 0., 0., 0., -2.74211361e-05, -1.27893960e-04,
          -1.39638767e-04, -4.68905891e-05, -1.06547595e-04,
          -1.14651513e-04, -1.74047367e-04, -9.24086853e-05, 0.,
          9.19658705e-05, 1.07234642e-04, 1.21382109e-04, 9.55027572e-05,
          7.99635163e-05, 9.27776928e-05, 0., 0., 0., 0., 0., 0.,
          -6.94503024e-06, -6.50310612e-05, -1.43573357e-04,
          -5.56268533e-05, -1.05101586e-04, -2.90504453e-04,
          -1.72031170e-04, 3.50912997e-05, 1.61346703e-04,
          1.09389744e-04, 9.19908562e-05, 9.32031835e-05, 6.25794637e-05,
          0., 0., 0., 0., 0., 0., 0., 0., 0., -6.50310612e-05,
          -1.35031238e-04, -7.97837783e-05, -2.92892742e-04,
          -1.79294118e-04, 9.19658705e-05, 1.63674908e-04,
          9.23596526e-05, 6.55098629e-05, 4.58430950e-05, 0., 0., 0., 0.,
          0., 0., 0., 0., 0., 0., 0., -6.50310612e-05, -1.67621998e-04,
          -2.72629026e-04, -2.77167564e-04, 2.20154951e-04,
          1.88693710e-04, 7.31868713e-05, 9.27776928e-05, 0., 0., 0., 0.,
          0., 0., 0., 0., 0., 0., 0., 0., -2.32713046e-06,
          -1.57439747e-04, -3.63277504e-04, -2.71983357e-04,
          2.55640771e-04, 1.56778013e-04, 1.01557453e-04, 0., 0., 0., 0.,
          0., 0., 0., 0., 0., 0., 0., 0., 0., -9.24086853e-05,
          -1.10279150e-04, -3.12021672e-04, -2.66525400e-04,
          3.44827160e-04, 1.61714037e-04, 0., 0., 0., 0., 0., 0., 0., 0.,
          0., 0., 0., 0., 0., -9.24086853e-05, -9.76554293e-05,
          -8.68854258e-05, -2.66902440e-04, -2.59286549e-04,
          2.78016087e-04, 1.86355566e-04, 0., 0., 0., 0., 0., 0., 0., 0.,
          0., 0., 0., 0., -9.24086853e-05, -9.76554293e-05,
          -8.26714386e-05, -9.95826704e-05, -2.59582856e-04,
          -1.62119628e-04, 2.80512206e-04, 1.59742442e-04,
          6.49418362e-05, 0., 0., 0., 0., 0., 0., 0., 0., 0.,
          -4.68002036e-05, -9.24086853e-05, -9.75712392e-05,
          -8.48452328e-05, -1.19306882e-04, -1.91859741e-04,
          -1.90658087e-04, -1.28086205e-04, 2.50022073e-04,
          4.09399654e-05, 1.59742442e-04, 6.49418362e-05, 6.01030333e-05,
          0., 0., 0., 0., 0., 0., -9.24086853e-05, -9.76554293e-05,
          -7.02579491e-05, -7.95984888e-05, -1.47009327e-04,
          -1.34413232e-04, -1.05526567e-04, -1.35031238e-04,
          -4.74497283e-05, 1.64798883e-04, 1.14368137e-04,
          2.99114963e-05, 1.59742442e-04, 0., 6.49418362e-05,
          2.24112991e-05, 0., 0., -8.82258100e-05, -9.76554293e-05,
          -9.96226154e-05, -7.95984888e-05, -8.32157457e-05,
          -1.43405836e-04, -1.62482957e-05, -1.18071926e-04,
          -1.30849672e-04, -5.57588974e-05, 0., 9.64628998e-05,
          8.02332797e-05, 7.14034031e-05, 1.08236518e-05, 8.96589991e-05,
          1.08609362e-04, 0., 2.86717750e-05, -3.27135931e-05,
          -1.26396582e-04, -7.95984888e-05, -8.32157457e-05,
          -1.41365643e-04, -2.34919808e-05, -5.93377081e-05,
          -1.28777829e-04, -6.83863836e-05, -5.57588974e-05, 0., 0.,
          5.34836108e-05, 1.19530432e-05, 9.79163378e-05, 6.75181363e-05,
          1.99285623e-05, -1.45095419e-05, -1.57159102e-05,
          -6.72518354e-06, -1.31804773e-04, -9.80798541e-06,
          -7.79534730e-06, -1.28009451e-05, -2.22927756e-05,
          -1.20169738e-04, -1.21911326e-05, -5.57588974e-05,
          -5.57588974e-05, 0., 0., 0., 0., 9.27776928e-05,
          9.59509780e-05, -5.21975671e-05, -9.47512817e-05,
          -1.08911947e-04, -1.24029100e-06, -6.64589243e-05,
          -3.95805619e-05, 1.50470281e-04, 7.38392691e-06,
          -1.21545869e-04, 1.33961457e-05, 9.18293699e-06,
          9.18293699e-06, 0., 0., 0., 0., 0., -1.64219848e-04,
          -2.52003723e-04, -2.61275913e-04, -8.20055357e-05,
          7.07432700e-05, 5.10194950e-05, -2.32099301e-05,
          -3.31039482e-05, -4.27968280e-06, 1.49128646e-05,
          3.35116529e-05, 8.55332328e-05, 7.49481042e-05, 1.04903993e-04,
          1.68522209e-04, 1.07350374e-04, 1.08812892e-04, 1.08812892e-04,
          1.00033132e-04, 9.54919087e-05 ]
      - [ 0., 0., 0., 0., 0., 0., 0., -1.08827342e-04, -1.39030875e-04,
          -7.82794596e-05, 8.83635948e-06, 1.49009706e-04,
          2.73595419e-04, 6.90667948e-05, 1.50513588e-04, 1.93946529e-04,
          1.69291816e-04, 3.67522589e-04, 5.79847780e-04, 4.35552851e-04,
          0., 0., 0., 0., 0., 0., 0., 2.57038073e-06, -1.84070650e-05,
          1.97760644e-04, -2.06159602e-05, 6.76743593e-06,
          8.80740918e-05, 1.62755154e-04, 2.11509294e-04, 2.63356196e-04,
          0., 0., 0., 0., 0., 0., 0., 0., 0., 1.29354565e-04,
          2.02655065e-04, -2.97145925e-05, 1.29579905e-06,
          2.70995934e-05, 1.94815311e-05, 9.60928810e-05, 3.01304215e-04,
          1.68792627e-04, 0., 0., 0., 0., 0., 0., 0., 0., 0., 0.,
          2.02655065e-04, 1.04877894e-04, 2.21266921e-04,
          -7.71435734e-05, 1.33282347e-05, 1.34498696e-04,
          2.04627111e-04, 1.21655030e-04, -2.24044634e-05,
          -9.11920724e-05, 0., 0., 0., 0., 0., 0., 0., 0., 0.,
          2.02655065e-04, 1.27546227e-04, 2.25551106e-04, 1.54512818e-04,
          -1.56300553e-06, 1.88986160e-04, 1.81705240e-04,
          -1.12364549e-04, -1.00399178e-04, -2.24044634e-05,
          -9.11920724e-05, 0., 0., 0., 0., 0., 0., 0., 0.,
          2.02655065e-04, 2.18219575e-04, 2.54268060e-04, 1.01482699e-04,
          2.63720198e-04, 1.39988770e-04, -1.05733161e-04,
          -8.80175212e-05, -1.12364549e-04, -1.00399178e-04,
          -2.24044634e-05, -9.11920724e-05, 0., 0., 0., 0., 0., 0., 0.,
          2.02655065e-04, 2.18219575e-04, 2.87329924e-04, 2.44697731e-04,
          1.63768200e-04, 2.59984692e-04, -1.88799866e-04,
          -9.13282784e-05, -9.98725445e-05, -1.12364549e-04,
          -1.04496969e-04, -2.24044634e-05, -9.11920724e-05, 0., 0., 0.,
          0., 0., 0., 5.98610677e-05, 4.03780316e-04, 2.30569174e-04,
          2.24651405e-04, 2.05146993e-04, 1.61600707e-04, 0.,
          -1.25549224e-04, -8.90907395e-05, -9.98725445e-05,
          -1.12364549e-04, -1.05068044e-04, -2.24044634e-05,
          -9.11920724e-05, 0., 0., 0., 0., 0., 0., 1.74894478e-04,
          3.42784217e-04, 2.32414488e-04, 9.90266708e-05, 8.61314184e-05,
          -2.77605868e-05, -2.77605868e-05, -1.88799866e-04,
          -1.13122085e-04, -1.27633131e-04, -1.42403893e-04,
          -1.29896973e-04, -5.01650502e-05, -1.18952659e-04,
          -2.77605868e-05, -4.27240484e-05, -4.27240484e-05,
          -4.27240484e-05, -4.27240484e-05, -8.32739024e-05,
          3.44632281e-04, 4.01374826e-04, 1.43429323e-04, 2.17028544e-04,
          -2.84306498e-05, -4.02318001e-05, -3.86827596e-05,
          -1.40264325e-04, -2.21544746e-04, -2.26722448e-04,
          -2.56030035e-04, -3.18034145e-04, -4.32592860e-05,
          -1.03884748e-04, -7.90646591e-05, -1.36711940e-04,
          -2.75858009e-04, -2.75858009e-04, -2.75858009e-04,
          -2.75858009e-04, 1.78457383e-04, 2.50459198e-05,
          1.84480650e-05, -1.53778703e-04, -1.50165753e-04,
          -1.25613966e-04, -1.25613966e-04, -1.23224498e-04,
          -1.59702002e-04, -1.79857467e-04, -8.33321319e-05,
          -1.94595879e-04, -8.57204650e-05, -6.33160016e-05,
          -6.33160016e-05, -6.33160016e-05, -6.33160016e-05,
          -6.33160016e-05, -6.33160016e-05, -6.33160016e-05,
          6.29524118e-04, 1.92025953e-04, -2.15425112e-04,
          -1.84735516e-04, -1.68229642e-04, -1.33178226e-04,
          -1.33178226e-04, -1.33178226e-04, -2.01421048e-04,
          -4.24067584e-05, -2.40781828e-05, -1.56718525e-04,
          -4.32181369e-05, -1.12005750e-04, -2.19144986e-05,
          -8.93656033e-06, -2.94288220e-05, -8.83519024e-05,
          -9.19381200e-05, -1.29431166e-04, 5.98616898e-04,
          4.57278016e-04, -2.67896376e-05, -2.67896376e-05,
          -2.67896376e-05, -2.67896376e-05, -2.67896376e-05,
          -1.00468758e-04, -6.27876580e-05, -6.90180095e-05,
          -3.00950251e-05, -1.85241399e-04, -2.24044634e-05,
          -9.11920724e-05, 0., 0., -6.72367332e-06, -2.67896376e-05,
          -2.67896376e-05, -2.67896376e-05, 6.29963586e-04,
          4.39213880e-04, 1.48176579e-04, 0., 0., 0., 0.,
          -7.36791189e-05, -6.29209462e-05, -2.15930850e-05,
          -8.77877610e-05, -1.85241399e-04, -2.24044634e-05,
          -9.11920724e-05, 0., 0., 0., 0., 0., 0., 6.02735614e-04,
          1.23603051e-04, 4.07930755e-04, 1.48176579e-04, 1.11726979e-04,
          0., 0., -7.36791189e-05, -6.82282334e-05, -5.50821278e-05,
          -8.77877610e-05, -1.44689562e-04, -2.24044634e-05,
          -9.11920724e-05, 0., 0., 0., 0., 0., 0., 3.23256798e-04,
          3.22160544e-04, 8.10307029e-05, 4.07930755e-04, 3.11465010e-05,
          1.48176579e-04, 3.91139911e-05, -7.36791189e-05,
          -1.10000001e-04, -1.33957641e-04, -8.54962054e-05,
          -1.44689562e-04, -2.24044634e-05, -9.11920724e-05, 0., 0., 0.,
          0., 0., 0., 2.52464000e-04, 1.29671869e-04, 1.97907269e-04,
          3.37517595e-05, 2.43191796e-04, 2.43135670e-04, 3.49140487e-06,
          7.44974604e-05, -2.08065449e-05, -1.34930582e-04,
          -1.01075027e-04, -1.44689562e-04, -2.24044634e-05,
          -9.11920724e-05, 0., 0., 0., 0., 0., 0., 1.32874004e-04,
          6.94744595e-05, 1.10020788e-04, 2.18394489e-04, 1.17820317e-04,
          1.06972926e-04, 1.48157706e-04, 2.27393277e-04,
          -1.56588780e-04, 1.09544353e-05, 2.66876996e-05,
          -1.44689562e-04, -2.24044634e-05, -9.11920724e-05, 0., 0., 0.,
          0., 0., 0., 0., 2.30495731e-04, 2.49854405e-04, 7.69065955e-05,
          1.21996381e-04, 1.30423970e-04, 7.96586537e-05, 1.31795332e-05,
          -8.29856654e-05, 2.70708610e-04, 6.40637591e-05,
          -1.44689562e-04, 1.25772116e-04, 1.48176579e-04,
          1.17986332e-04, 0., 0., 0., 0., 0., 0., 0., 0., 0.,
          2.49854405e-04, 2.61965703e-04, 2.75698840e-05, 4.96313041e-05,
          -9.28607988e-05, -6.79961086e-05, 1.52361565e-04,
          1.23563441e-04, 2.35466985e-04, 3.34528799e-04, 4.87535493e-04,
          3.27811693e-04, 2.57606996e-04, 2.58153421e-04, 2.08037643e-04,
          1.79526585e-04 ]
      - [ -7.43782439e-05, -4.24579739e-05, 0., -1.32758487e-06,
          -8.94774257e-06, -1.88407375e-05, -1.88407375e-05,
          -4.36559094e-06, -6.69919336e-06, -3.50539182e-07,
          2.68762797e-05, 6.24499735e-05, 4.44059115e-05, 2.97351198e-05,
          2.56983658e-05, 2.06267050e-05, 4.49260515e-05, 6.25012253e-05,
          6.90604284e-05, 1.56134993e-05, -8.45546019e-05,
          -6.10729185e-05, -4.99440466e-05, -1.08172844e-05,
          -1.15183630e-05, -1.88407375e-05, -1.88407375e-05,
          8.03554394e-06, 1.36964047e-06, 3.13289856e-05, 2.98139457e-05,
          2.36530414e-05, 1.43709922e-05, 4.23894671e-05, 4.06124454e-05,
          6.13911398e-05, -2.69144566e-05, -3.94310373e-05,
          -8.32552250e-05, -1.11707865e-04, -9.22664622e-05,
          -7.04337726e-05, -5.68238393e-05, -6.78500146e-05,
          -2.51082256e-05, 5.50601135e-06, 1.86545240e-05,
          1.33353569e-05, 2.64941627e-05, 2.75053230e-06, 1.45666145e-05,
          6.48620335e-06, 5.52152815e-05, 4.51300803e-05, 4.07866310e-06,
          -3.86196989e-05, -4.13782509e-05, -8.32552250e-05,
          -9.57417287e-05, -1.11707865e-04, -9.22664622e-05,
          -7.04337726e-05, -6.57209675e-05, -7.04337726e-05,
          -3.19825158e-05, -4.65347512e-05, 2.46832624e-05,
          4.09649192e-06, 8.18603803e-06, 1.60495674e-05, 3.51933413e-05,
          2.64568498e-05, -4.85670489e-06, -9.93194317e-06,
          -4.65973899e-05, -4.13782509e-05, -8.32552250e-05,
          -8.32552250e-05, -1.08210465e-04, -1.11707865e-04,
          -9.22664622e-05, -8.84136316e-05, -7.04337726e-05,
          -3.29385148e-05, -4.79273658e-05, -1.82479962e-05,
          -9.76232786e-06, 1.41029168e-05, 3.33299067e-05,
          3.00284300e-05, -1.49504576e-05, -1.88407375e-05,
          -1.88407375e-05, -5.44195354e-05, -5.44195354e-05,
          -8.96428246e-05, -8.32552250e-05, -7.51173357e-05,
          -8.59073116e-05, -1.11707865e-04, -6.07331604e-05,
          -4.23224155e-05, -2.92171935e-05, -2.91751840e-05,
          -2.59572007e-05, -3.90320711e-05, -3.76844182e-05,
          3.57625031e-05, -1.76772883e-05, -1.88407375e-05,
          -1.88407375e-05, -1.88407375e-05, -6.02189866e-05,
          -6.02189866e-05, -1.02095961e-04, -1.04504565e-04,
          -9.44031926e-05, -7.03296173e-05, -2.84526395e-05,
          -5.79853513e-05, -4.06734252e-05, -4.62022263e-06,
          1.64879439e-05, 3.72119357e-05, -2.09726022e-05,
          -3.15551224e-05, -2.15646087e-05, -7.04337726e-05,
          -7.04337726e-05, -1.90476694e-05, -2.40333011e-05,
          -6.02189866e-05, -6.02189866e-05, -1.02095961e-04,
          -1.02095961e-04, -1.13243936e-04, -7.67026577e-05,
          -3.81508908e-05, -2.84526395e-05, -2.84526395e-05,
          -3.01266427e-05, 2.51354231e-05, 2.19386038e-05,
          2.63674319e-05, 1.56607894e-05, -4.14886454e-05,
          -7.04337726e-05, -6.69514775e-05, -7.04337726e-05,
          -7.31923283e-05, -7.30319443e-05, -6.08397822e-05,
          -1.02095961e-04, -1.02095961e-04, -8.67943090e-05,
          -7.70231563e-05, -4.72933752e-05, -4.72933752e-05,
          -2.96990020e-05, -2.84526395e-05, 2.53868202e-05,
          2.07766625e-05, 1.10728060e-05, 1.36072424e-06, 3.96741325e-06,
          -1.15809362e-05, -6.55426702e-05, -5.15930369e-05,
          -1.11812027e-04, -1.11812027e-04, -1.11812027e-04,
          -1.03744955e-04, -1.09340799e-04, -8.27125114e-05,
          -7.18656811e-05, -4.72933752e-05, -4.72933752e-05,
          -4.72933752e-05, -2.74714021e-05, -3.11790573e-05,
          6.65250773e-05, 4.14651986e-05, 5.27521024e-06, 6.50572383e-06,
          -3.17646300e-05, -2.77650925e-05, -9.00121449e-06,
          -9.29712842e-05, -1.00024343e-04, -1.00024343e-04,
          -1.53689005e-04, -1.59284842e-04, -1.07851491e-04,
          -7.56862428e-05, -4.83282674e-05, -4.72933752e-05,
          -4.72933752e-05, -4.51949345e-05, -1.75131518e-05,
          -1.75131518e-05, 7.61290939e-05, 4.00326680e-05,
          1.57844406e-05, -3.17646300e-05, -2.60391571e-05,
          -2.70252513e-05, -6.32109368e-05, -6.30262439e-05,
          -7.98376641e-05, -1.34848262e-04, -1.60011987e-04,
          -1.39331503e-04, -1.34132773e-04, -9.88864122e-05,
          -4.89423692e-05, -4.89423692e-05, -4.33902424e-05,
          -3.61454076e-05, -1.88407375e-05, -1.88407375e-05,
          1.03775317e-04, 7.82142015e-05, -2.38969733e-05,
          -2.45591018e-05, -3.74103802e-05, -6.32109368e-05,
          -6.32109368e-05, -6.32109368e-05, -1.00207661e-04,
          -8.89559742e-05, -1.48956678e-04, -1.20238074e-04,
          -8.50439392e-05, -9.48687230e-05, -9.88864122e-05,
          -4.82428877e-05, -3.77943979e-05, -3.74421688e-05,
          -1.93322012e-05, -1.88407375e-05, 7.13167829e-05,
          8.63048626e-05, -2.18326859e-05, -6.97256328e-05,
          -6.97256328e-05, -8.05156014e-05, -6.97256328e-05,
          -1.05087907e-04, -1.28644184e-04, -9.21622996e-05,
          -9.21622996e-05, -1.00850171e-04, -1.00850943e-04,
          -1.03124723e-04, -9.71412956e-05, -1.09571127e-04,
          -6.52446324e-05, -4.23224155e-05, -3.55585653e-05,
          -4.06734252e-05, 5.23103809e-05, 4.26573461e-05,
          -3.35120494e-05, -8.05156014e-05, -8.12150829e-05,
          -8.61114459e-05, -1.33540554e-04, -1.33540554e-04,
          -9.21622996e-05, -9.21622996e-05, -5.02853254e-05,
          -5.02853254e-05, -1.00229372e-04, -1.01878366e-04,
          -9.07303911e-05, -9.51673210e-05, -9.22664622e-05,
          -9.22664622e-05, -5.60325461e-05, -4.21154837e-05,
          2.88378651e-05, -2.30214318e-05, -6.24549648e-06,
          -4.88326004e-05, -1.11846850e-04, -1.33540554e-04,
          -9.21622996e-05, -9.21622996e-05, -9.21622996e-05,
          -5.02853254e-05, -5.02853254e-05, -5.02853254e-05,
          -4.47331986e-05, -8.90814044e-05, -8.96569327e-05,
          -7.55972942e-05, -8.74044199e-05, -9.05137640e-05,
          -9.22664622e-05, -8.85451373e-05, 1.57553916e-06,
          -1.52257589e-05, -8.35094761e-05, -5.49179058e-05,
          -9.90241751e-05, -5.90081872e-05, -8.40731227e-05,
          -9.21622996e-05, -5.02853254e-05, -5.02853254e-05,
          -5.02853254e-05, -3.91373542e-05, -3.91373542e-05,
          -2.83473855e-05, -4.95001586e-05, -7.17767325e-05,
          -7.28049272e-05, -7.65350705e-05, -9.22664622e-05,
          -9.22664622e-05, -6.22989828e-05, -8.91575255e-05,
          -7.49674218e-05, -6.76927593e-05, -2.77099280e-05,
          -3.79810372e-05, -5.77842620e-05, -1.95990924e-05,
          -2.68450967e-05, -4.37706258e-05, -4.47331986e-05,
          -2.18326859e-05, -3.26226582e-05, -2.18326859e-05,
          -2.18326859e-05, -2.18326859e-05, -7.17767325e-05,
          -7.17767325e-05, -9.22664622e-05, -9.22664622e-05,
          -8.88808136e-05, -9.33946430e-05, -9.17025682e-05,
          -3.35464902e-05, -3.16711375e-05, -1.26228297e-05,
          2.01932326e-05, 1.81159794e-05, -2.25016975e-05,
          8.41203655e-06, 8.33983813e-06, -2.18326859e-05,
          -2.18326859e-05, -2.18326859e-05, -2.18326859e-05,
          -2.18326859e-05, -2.18326859e-05, -7.17767325e-05,
          -7.57227463e-05, -9.22664622e-05, -1.11707865e-04,
          -6.69173605e-05, -1.32281220e-05, -3.52040552e-05,
          6.68576013e-06, 6.41520182e-06, 2.55924715e-05, 1.90186765e-05,
          1.73645894e-05, 5.09017045e-05, 6.96246616e-06,
          -4.18943316e-08, 3.53533505e-05, 2.42514361e-05,
          2.41792386e-05, -5.99328632e-06, -5.56519444e-06,
          -3.76720868e-06, 0., -9.22664622e-05, -9.05780471e-05,
          -4.18769741e-05, -5.59584396e-06, -5.59584396e-06,
          5.07016521e-05, 5.14011299e-05, 2.23530951e-05, 3.18084894e-05,
          4.98649897e-05, 3.84980922e-05, 2.33684350e-05, 3.23619097e-05,
          2.35600764e-05, 4.61264972e-05, 5.74117330e-05, 2.88852534e-05,
          4.64484292e-05, 5.31807236e-05, 4.66706988e-05,
          -1.90869232e-05 ]
      - [ 0., 0., 0., 0., -7.23815356e-06, -2.16105695e-06,
          -7.23815356e-06, -9.95482551e-05, -1.68934246e-04,
          -2.84827081e-04, -1.53510933e-04, -1.09728193e-04,
          -8.20619971e-05, -9.28593872e-05, -6.40708386e-05,
          -5.76778584e-05, 1.76560367e-04, 3.84244195e-04,
          5.02289564e-04, 4.87821875e-04, 0., 0., 0., 0.,
          -2.16105695e-06, -4.08280102e-05, -1.00516430e-04,
          -1.72460714e-04, -1.36517090e-04, -4.27662126e-05,
          -2.02844851e-04, -1.40888515e-04, -6.55280928e-06,
          2.38678240e-06, 1.45150887e-04, -8.87016577e-05,
          4.78464335e-06, -1.23789534e-04, 0., 0., 0., 0., 0.,
          -2.16105695e-06, -3.97742115e-05, -3.59517580e-05,
          8.39885906e-05, -1.77115508e-05, 2.51519930e-04,
          2.43574156e-08, 1.28689135e-04, 1.61035772e-04,
          -3.15369216e-05, -2.20444053e-05, -2.46685173e-04,
          -2.94386205e-04, -1.45351471e-04, -1.25788487e-04,
          -1.23789534e-04, 0., 0., 0., -1.05914523e-05, -6.38215643e-05,
          -7.65930527e-05, -9.52635164e-05, 1.61274205e-04,
          -3.21297121e-05, 7.17901567e-05, 1.75964364e-04,
          1.10152811e-04, 1.11936039e-04, 2.85619572e-05, 0.,
          -1.41689728e-04, -1.15942836e-04, -1.44533071e-04,
          -2.58037762e-04, -1.58403869e-04, 0., 0., 0., -9.74114228e-05,
          2.18582227e-05, 1.36069420e-05, 1.36714778e-04,
          -3.92023867e-06, 1.54431764e-04, 1.05840358e-04,
          1.20201577e-04, 1.19848210e-05, 0., 0., 0., 0.,
          -1.41689728e-04, -1.20012759e-04, -1.68367158e-04,
          -1.56306458e-04, -1.59540446e-04, 0., -7.04679842e-05,
          5.02225521e-05, -3.83450133e-05, 2.67422874e-05,
          -1.05335617e-04, 1.76410031e-04, 1.20201577e-04,
          3.58424541e-06, 0., 0., 0., 0., 0., 0., 0., -1.41689728e-04,
          -2.32122533e-04, -1.58076611e-04, -3.89947993e-04, 0.,
          2.32371240e-05, -6.53907728e-06, 4.17452502e-05,
          -5.51284647e-05, 1.84373173e-04, 1.20201577e-04, 0., 0., 0.,
          0., 0., 0., 0., 0., 0., 0., -1.59576710e-04, -3.05752270e-04,
          -4.93218540e-04, -5.87444665e-05, 2.01749426e-05,
          1.45901038e-04, 1.49427913e-04, 1.06097890e-04, 6.18118211e-05,
          0., 0., 0., 0., 0., 0., 0., 0., 0., 0., 0., -1.41689728e-04,
          -1.11287802e-04, -5.79833984e-04, 8.66945411e-05,
          1.22529716e-04, 2.69233024e-05, -3.07718365e-05,
          4.52807508e-05, 0., 0., 0., 0., 0., 0., 0., 0., 0., 0., 0., 0.,
          0., -1.59576710e-04, -7.84700445e-04, -1.48005856e-04,
          1.10125722e-04, 3.83514307e-05, 9.16396166e-05, 0., 0., 0., 0.,
          0., 0., 0., 0., 0., 0., 0., 0., 0., 0., -1.84261400e-04,
          -7.49951927e-04, -8.23860319e-05, 2.52057449e-04,
          1.46542385e-04, 0., 0., 0., 0., 0., 0., 0., 0., 0., 0., 0., 0.,
          0., 0., 0., -1.22382771e-04, -6.10511401e-04, 7.54181237e-05,
          2.07209916e-04, 0., 0., 0., 0., 0., 0., 0., 0., 0., 0., 0., 0.,
          0., 0., 0., 0., -2.61568464e-04, -5.94863202e-04,
          5.02757175e-05, 2.61187291e-04, 0., 0., 0., 0., 0., 0., 0., 0.,
          0., 0., 0., 0., 0., 0., 0., -1.00516430e-04, -2.25889205e-04,
          -5.18155750e-04, -1.17050120e-04, 1.40393066e-04, 0., 0., 0.,
          0., 0., 0., 0., 0., 0., 0., 0., 0., 0., 0., -1.00516430e-04,
          -2.15056745e-04, -1.41825672e-04, -4.02841077e-04,
          -1.14351606e-04, -9.60191319e-05, 2.58668559e-04, 0., 0., 0.,
          0., 0., 0., 0., 0., 0., 0., 0., 0., -1.00516430e-04,
          -1.03229562e-04, -7.24958518e-05, -2.20616566e-04,
          -2.65411509e-04, -2.04507205e-06, 1.23095990e-04,
          3.26352783e-05, 2.02752097e-04, 6.39403370e-05, 0., 0., 0., 0.,
          0., 0., 0., 0., 0., -1.45847371e-05, -1.40129807e-04,
          -1.42988865e-04, -7.79755137e-05, -1.98670488e-04,
          -3.33387607e-06, 8.63245732e-05, 1.41383161e-05,
          -4.25695798e-05, 6.94699702e-05, 1.79578652e-04,
          1.77682101e-04, 6.39403370e-05, 0., 0., 0., 0., 0., 0., 0.,
          -1.67722552e-04, -1.37595111e-04, -1.90723309e-04,
          -9.21964966e-05, -2.76277016e-04, 0., 5.28275450e-05,
          -3.78830191e-05, 3.58093457e-05, -4.03377671e-05,
          7.04977792e-05, 7.12926703e-05, 1.79578652e-04, 1.94728214e-04,
          6.39403370e-05, 6.39403370e-05, 0., 0., -1.00516430e-04,
          -8.88223731e-05, -1.68594881e-04, -1.89426675e-04,
          -1.34928952e-04, -2.08600803e-04, 0., 0., 0., 9.16396166e-05,
          -9.09746668e-05, 2.12378745e-05, 2.65078652e-05,
          3.12776388e-06, 1.08503118e-04, 1.27081192e-04, 0.,
          1.94728214e-04, 1.51495606e-05, -1.25398481e-04,
          -1.16688781e-04, -1.24642291e-04, -8.16518514e-05,
          -3.42724175e-04, -1.16700299e-04, 0., 0., 0., 0., 0., 0., 0.,
          -1.26107363e-04, -4.07969899e-04, -2.17631081e-04,
          -2.53864855e-04, -2.16251981e-04, -2.61134090e-04,
          -2.20220638e-04, -1.00259247e-04, -1.68762519e-04,
          1.58530209e-04, 3.27749032e-04, 2.89017858e-04, 3.37808626e-04,
          3.37808626e-04, 2.82905879e-04, 2.82905879e-04 ]
      - [ 0., 0., 0., 0., 0., 0., 0., -8.27202311e-05, -2.52919108e-05,
          -7.50731779e-05, -8.49922872e-05, 1.13243681e-04,
          3.38472237e-05, 7.77075475e-05, 1.75162480e-04, 1.06845313e-04,
          1.26581421e-04, 1.62740966e-04, 2.93382618e-04, 2.90558266e-04,
          0., 0., 0., 0., 0., 0., -8.27202311e-05, -3.44378641e-05,
          2.15288019e-05, 2.04666921e-05, -2.02648094e-04,
          -1.68586063e-04, -4.38064235e-05, 1.16960888e-04,
          1.16960888e-04, 1.33789639e-04, 0., 0., 0., 0., 0., 0., 0., 0.,
          0., -8.46032490e-05, 8.76279082e-05, -5.33957609e-05,
          1.96956698e-05, -1.53004381e-04, 8.92936368e-05,
          -5.69407784e-05, 9.57366283e-05, 1.33789639e-04, 0., 0., 0.,
          0., 0., 0., 0., 0., 0., -1.51775130e-05, 2.44422499e-05,
          1.36547424e-05, 4.58133254e-05, -2.51136982e-04,
          5.52541496e-05, 4.91619867e-05, 4.64490768e-05, 3.84382474e-05,
          -3.80530146e-05, 0., 0., 0., 0., 0., 0., 0., 0.,
          -1.51775130e-05, -2.61587193e-05, 2.68707845e-05,
          -1.15217656e-04, 7.59353061e-05, -1.58708252e-04,
          7.29028834e-05, 9.65571671e-05, 6.06869617e-05,
          -1.28313666e-04, -6.46951376e-05, -3.80530146e-05, 0.,
          -2.07768244e-04, 0., 0., 0., 0., 0., -2.61886498e-06,
          -8.27202311e-05, -9.94956936e-05, 6.80306548e-05,
          -1.17415097e-04, 5.10814498e-05, 1.34528396e-04,
          3.58919024e-05, -7.58434326e-05, -1.34129601e-04,
          -1.08568180e-04, -1.18387521e-04, -3.80530146e-05, 0., 0., 0.,
          0., 0., 0., 0., -1.07138803e-04, 4.71769381e-05,
          -1.63797537e-04, -2.37511608e-06, 1.49059619e-04,
          1.12469934e-04, 1.33789639e-04, -9.78977405e-05,
          -6.07714464e-05, -1.35144044e-04, -1.08568180e-04,
          -1.18387521e-04, -4.10522762e-06, 0., 0., 0., 0., 0., 0., 0.,
          -8.01269925e-05, -1.20229968e-04, 2.53178616e-04,
          1.82843898e-04, 4.76629757e-05, 9.02424290e-05, 0.,
          -9.67073502e-05, -6.94427872e-05, -1.34619724e-04,
          -1.08568180e-04, -1.56440539e-04, 0., 0., 0., 0., 0., 0., 0.,
          0., 4.79953706e-05, 3.67195578e-04, 2.30376594e-04,
          2.58100936e-05, 6.61078229e-05, 0., 0., -9.78977405e-05,
          -7.86548117e-05, -1.34619724e-04, -1.08568180e-04,
          -1.56440539e-04, 0., 0., 0., 0., 0., 0., 0., 0.,
          4.37900744e-04, 2.79172382e-04, 1.34528396e-04, 1.33789639e-04,
          0., 0., 0., -9.23624175e-05, -7.79438851e-05, -1.11775524e-04,
          -1.08568180e-04, -1.38377029e-04, 0., -1.22315178e-04, 0., 0.,
          0., 0., 0., 0., 5.16305212e-04, 2.43933217e-04, 1.51357148e-04,
          0., 0., 0., 0., -8.27202311e-05, -1.05637257e-04,
          -7.49377723e-05, -1.08568180e-04, -1.63573175e-04, 0.,
          -2.13632666e-04, 0., 0., 0., 0., 0., 0., 5.75161248e-04,
          2.40636829e-04, 0., 0., 0., 0., 0., -1.16160038e-04,
          -8.62543020e-05, -3.92610891e-05, -1.08568180e-04,
          -1.56087641e-04, 0., -2.13632666e-04, 0., 0., 0., 0., 0., 0.,
          3.77990713e-04, 3.08564078e-04, 0., 0., 0., 0., 0.,
          -1.20958575e-04, -7.20837634e-05, -6.48787463e-05,
          -1.08568180e-04, -1.06896150e-04, 0., -2.13632666e-04, 0., 0.,
          0., 0., 0., 0., 4.27608611e-04, 2.71430617e-04, 1.44440070e-04,
          0., 0., 0., 0., -1.20958575e-04, -1.02542705e-04,
          -6.48787463e-05, -1.08568180e-04, -1.06896150e-04, 0.,
          -2.13632666e-04, 0., 0., 0., 0., 0., 0., 3.84976505e-04,
          1.30052111e-04, 2.71430617e-04, 1.44440070e-04, 1.33677866e-04,
          0., 0., -1.20958575e-04, -1.10157445e-04, -3.78954937e-05,
          -1.77411304e-04, -3.80530146e-05, 0., -2.13632666e-04, 0., 0.,
          0., 0., 0., 0., 2.61649460e-04, 1.25049366e-04, 8.46572366e-05,
          2.71430617e-04, 0., 1.44440070e-04, 4.98459813e-05,
          -1.20958575e-04, -1.10157445e-04, -3.40234546e-05,
          -1.77411304e-04, -3.80530146e-05, 0., -2.13632666e-04, 0., 0.,
          0., 0., 0., 0., 2.19018635e-04, 7.53699642e-05, 7.27782462e-05,
          9.27174115e-05, 7.17108560e-05, 2.08286656e-04, 0.,
          2.34814852e-05, 5.06965225e-05, -4.92009713e-05,
          -1.02902370e-04, -7.33908892e-05, 0., -2.13632666e-04, 0., 0.,
          0., 0., 0., 0., 7.71257983e-05, 1.27859807e-04, 7.53699642e-05,
          2.84295147e-05, 1.08156702e-04, 1.23490798e-04, 9.99826443e-05,
          9.43651685e-05, -4.90289531e-05, 8.34414677e-05,
          -4.94540545e-05, -1.26513900e-04, 0., -2.13632666e-04, 0., 0.,
          0., 0., 0., 0., 0., 1.33789639e-04, 2.44081937e-04,
          1.05801344e-04, 7.53699642e-05, 5.92667384e-05,
          -1.55561283e-04, -2.24068077e-04, -1.37584328e-04,
          2.35117841e-05, -2.13442501e-04, -3.94689356e-04,
          7.36376387e-05, -1.40435484e-04, 4.26427796e-05,
          -1.05266343e-04, -1.05266343e-04, -1.81610580e-04,
          -2.08476340e-04, -2.18331363e-04, -3.17993079e-04,
          -4.71303618e-04, -5.13095234e-04, -6.29846589e-04,
          -3.85764666e-04, -3.12711345e-04, -3.17393598e-04,
          -1.95199915e-04, -1.37810275e-04, -2.45775096e-04,
          -9.02337051e-05, -5.19433415e-05, -7.84188742e-05,
          1.55657781e-05, 1.90752253e-04, 1.65687103e-04, 1.97267364e-04,
          6.68167049e-05, -2.56900257e-05, -3.30655384e-05 ]
      - [ 0., -2.42800361e-05, -1.10053290e-04, -2.53766484e-04,
          -2.74614838e-04, -4.56971931e-04, -4.32691886e-04,
          -1.37512776e-04, -8.36689505e-05, -2.21561768e-05,
          -3.39330909e-05, 1.88051315e-04, 1.61472941e-04,
          1.28195403e-04, 7.21440811e-05, 5.60093285e-05, 8.27665353e-05,
          1.47545972e-04, 2.65778246e-04, 2.57315231e-04,
          -9.95491209e-05, -5.53302416e-05, -1.03859835e-04,
          -1.28226720e-05, 0., 0., 0., -1.76813119e-04, -1.86196012e-05,
          2.58567507e-05, 4.95209970e-05, -5.53916470e-05,
          1.23076707e-05, 1.17795833e-04, 1.30187575e-04, 1.22656100e-04,
          8.32466685e-06, 0., 0., 0., -6.42796003e-05, -9.77777454e-05,
          0., 0., 0., 6.12889853e-05, 1.30610832e-04, 9.00285304e-05,
          -1.61988210e-04, 3.56664968e-05, -5.93374243e-05,
          9.23009065e-05, 3.44685250e-05, 9.87244930e-05, 8.32466685e-06,
          0., 0., 0., 0., 0., -8.17036562e-05, 0., 0., 0.,
          1.30610832e-04, 2.45336105e-05, 9.38665617e-05, 6.23811648e-05,
          5.47408526e-05, -8.95886405e-05, 1.01496276e-04,
          -6.10391071e-05, -1.02536360e-05, -1.01589758e-04,
          -2.21561768e-05, 0., 0., 0., 0., 0., 0., 0., 0.,
          1.30610832e-04, 3.76325952e-05, 1.18374774e-04, 7.19502714e-05,
          1.12559566e-04, 1.32866771e-04, 1.20880664e-04,
          -2.40976689e-04, -8.17036562e-05, -7.62831041e-05,
          -1.20168064e-04, 0., -2.21561768e-05, 0., 0., 0., 0., 0., 0.,
          1.30610832e-04, 9.00285304e-05, 1.18805328e-04, 5.87042487e-05,
          1.14555070e-04, 1.41119832e-04, 1.04466403e-06, 0., 0.,
          -6.21127037e-05, -1.21188277e-04, -1.25920225e-04, 0., 0.,
          -2.21561768e-05, 0., 0., 0., 0., 1.30610832e-04,
          9.00285304e-05, 1.25694191e-04, 1.29854307e-04, 1.18022108e-04,
          1.20880664e-04, 0., 0., 0., 0., -1.82357078e-04,
          -8.79808722e-05, -1.08642314e-04, -1.01589758e-04, 0.,
          -2.21561768e-05, -5.56076611e-06, 0., 0., 6.29541610e-05,
          1.70123487e-04, 1.06292464e-04, 1.27093168e-04, 6.06978429e-05,
          7.59201284e-05, 0., 0., 0., 0., 0., 0., -8.13370934e-05,
          -3.94846174e-05, -1.16816678e-04, 0., 0., -2.21561768e-05, 0.,
          0., 1.30610832e-04, 1.50227803e-04, 1.43840429e-04,
          2.36954857e-05, 5.56159066e-05, 0., 0., 0., 0., 0., 0., 0.,
          -2.02346360e-04, 0., -1.81431518e-04, 0., 0., -2.21561768e-05,
          0., 0., 2.68829521e-04, 1.45572107e-04, 1.19015865e-04,
          1.12556001e-04, 0., 0., 0., 0., 0., 0., 0., 0.,
          -2.02346360e-04, 0., -2.10232072e-04, 0., 0., -2.21561768e-05,
          0., 0., 2.80838634e-04, 1.65167061e-04, 1.19458826e-04, 0., 0.,
          0., 0., 0., 0., 0., 0., 0., -1.97251051e-04, -4.21234217e-05,
          -2.10232072e-04, 0., 0., -2.21561768e-05, 0., 0.,
          3.35475197e-04, 2.08075959e-04, 0., 0., 0., 0., 0., 0., 0., 0.,
          0., 0., -2.02346360e-04, -4.21234217e-05, -2.10232072e-04, 0.,
          0., -2.21561768e-05, 0., 0., 2.81865272e-04, 2.21851864e-04,
          0., 0., 0., 0., 0., 0., 0., 0., 0., 0., -3.92136717e-05,
          -4.21234217e-05, -2.10232072e-04, 0., 0., -2.21561768e-05, 0.,
          0., 2.85042479e-04, 2.08024285e-04, 6.54949181e-05, 0.,
          -5.93554432e-05, -1.82357078e-04, -1.82357078e-04,
          -4.43378012e-05, 0., 0., 0., -1.82357078e-04, -8.37417829e-05,
          0., -7.42701595e-05, 0., -2.21561768e-05, 0., 0., 0.,
          2.80392502e-04, 2.79749656e-05, 2.56672101e-05, 4.55056361e-05,
          1.14100430e-06, -9.00640080e-05, -9.00640080e-05,
          -1.08563894e-04, -8.43495800e-05, -1.10053290e-04,
          -9.00640080e-05, -9.75109942e-05, -1.23827078e-04,
          -1.28064989e-04, 0., -2.21561768e-05, 0., 0., 0., 0.,
          4.08566339e-05, 6.44081811e-05, 1.08918048e-05, 1.91576728e-05,
          -1.32062007e-04, -7.60707917e-05, -1.01784579e-04,
          -2.00270500e-04, -1.03859835e-04, -1.45983257e-04,
          -1.45983257e-04, -4.21454570e-05, -3.23030457e-04,
          -9.00640080e-05, -8.10970159e-05, 0., 0., 0., 0., 0.,
          3.49587526e-06, -1.11424299e-04, -6.85484338e-05,
          -3.16041187e-05, 1.08885346e-04, 3.24239481e-05,
          1.16511783e-05, 6.50577786e-05, -1.35440467e-04,
          -1.20168064e-04, -1.21579040e-04, -2.25416836e-04,
          -9.00640080e-05, -1.65972539e-04, -3.48329631e-04,
          -1.71767664e-04, -5.25923315e-05, 0., 0., 0., -5.52828387e-05,
          -7.89703990e-05, 1.75899349e-05, 3.02713979e-05,
          1.24497292e-05, 2.93940811e-05, -5.22738846e-05,
          -9.84045982e-06, 1.16511783e-05, 4.55056361e-05,
          -2.74793147e-05, -1.12220187e-04, -4.07344778e-05,
          -1.20168064e-04, -1.12445319e-04, -1.58347888e-04,
          -3.48329631e-04, -2.13891093e-04, 0., 0., -1.20168064e-04,
          1.10047542e-04, 1.18975848e-04, 9.09213704e-05, 1.37124989e-05,
          -6.58736244e-05, 2.56535477e-05, -6.71244779e-05,
          -1.08723449e-04, 1.04335604e-05, -3.99953860e-05,
          1.16511783e-05, 7.64607321e-05, 6.54949181e-05, 6.54949181e-05,
          -1.85783028e-05, -1.20168064e-04, -3.06103029e-04,
          -1.89712606e-04, -1.74406465e-04, 0., -1.85783028e-05,
          -1.40157339e-04, -1.82280768e-04, -4.33156347e-05,
          2.29158559e-05, -1.23288846e-04, -6.31488510e-05,
          -4.97245055e-05, 1.44383785e-05, 3.60826489e-05,
          4.33182431e-05, 3.98489756e-05, 1.36135015e-04, 2.15637338e-04,
          1.52679553e-04, 1.59364485e-04, 1.59364485e-04, 2.53426297e-05,
          -2.21834809e-04 ]
      - [ -9.03237960e-05, -1.46625214e-04, -2.42629350e-04,
          -2.09073070e-04, -3.14055011e-04, -3.16050078e-04,
          -2.54185259e-04, -2.14630840e-04, -2.51168618e-04,
          -2.07236968e-04, -1.95603992e-04, -7.94618318e-05,
          -9.79886026e-05, -7.86508244e-05, 7.38509698e-05,
          7.07792351e-05, 7.44528224e-05, 1.31513632e-04, 2.22837611e-04,
          1.97536167e-04, -1.27980738e-05, 0., 0., 0., 0., 0., 0.,
          6.12394288e-05, 4.18224117e-05, 1.23318881e-04, 7.68332393e-06,
          -5.88000185e-05, -5.95822312e-05, -5.73979596e-05,
          -1.99651367e-05, -5.12200822e-05, -6.75892516e-05, 0., 0., 0.,
          0., 0., 0., 0., 0., 5.54757171e-05, 9.32515759e-05,
          9.13067270e-05, 6.89718363e-05, 3.90542773e-05, 9.38958547e-05,
          8.67478957e-05, 7.81674098e-05, 1.45818085e-05,
          -7.08665830e-05, -1.94284003e-04, -9.66965745e-05,
          -1.40076081e-04, 0., 0., 0., 0., 0., 0., 9.32515759e-05,
          4.55027148e-05, 1.02661455e-04, 2.76995488e-05, 7.16874856e-05,
          1.03779152e-04, 1.11629473e-04, 8.97053687e-05, 0., 0.,
          -7.07689687e-05, -1.16108036e-04, -1.87888727e-04,
          -1.14069735e-04, -1.03640377e-04, 0., 0., 0., 0.,
          9.32515759e-05, 5.50134937e-05, 8.50166471e-05, 3.79273770e-05,
          1.10147957e-04, 1.08461238e-04, 9.70837427e-05, 0., 0., 0., 0.,
          -3.77200085e-05, -1.44948208e-04, -1.25629158e-04,
          -1.26969317e-04, -1.23279242e-05, -1.00497964e-04, 0., 0.,
          9.32515759e-05, 9.30566093e-05, 8.59345455e-05, 3.62728497e-05,
          1.33951937e-04, 1.04748731e-04, 1.40815719e-05, 0., 0., 0., 0.,
          -2.37056247e-05, -5.32491867e-05, -1.35818555e-04,
          -1.07308457e-04, -7.74406071e-05, -3.08826093e-05,
          -1.03640377e-04, 0., 9.32515759e-05, 9.30566093e-05,
          1.04429826e-04, 1.20903918e-04, 1.06939333e-04, 9.70837427e-05,
          0., 0., 0., -1.95222788e-06, -2.37056247e-05, -5.73782600e-05,
          -7.00402379e-05, -4.90572857e-05, -1.28988308e-04,
          -3.63710751e-05, -5.47417112e-05, -4.83448019e-08,
          -1.03640377e-04, 3.20121508e-05, 1.46485123e-04,
          1.03599596e-04, 1.11520872e-04, 8.75138503e-05, 5.83532710e-05,
          0., -2.37056247e-05, -3.04653822e-05, -5.79251682e-05,
          -7.00402379e-05, -5.45110597e-05, -5.54012258e-05,
          -1.29963533e-04, -1.13104354e-04, -3.63710751e-05,
          -5.12431143e-05, -7.72750427e-05, -1.03640377e-04, 0.,
          9.32515759e-05, 1.15346884e-04, 7.75469889e-05, 4.31432127e-05,
          -1.85060271e-05, -3.82280705e-05, -7.72099593e-05,
          -1.27727923e-04, -8.66316768e-05, -8.91847594e-05,
          -1.23297999e-04, -1.44281468e-04, -6.89080116e-05,
          -2.35612042e-05, 0., -1.04270424e-04, -1.03640377e-04,
          -1.23279242e-05, 0., 0., 1.83500859e-04, 1.33705616e-04,
          9.61938058e-05, 4.84728989e-05, -3.88298067e-05,
          -7.77314708e-05, -9.85965162e-05, -1.34361879e-04,
          -1.86209931e-04, -2.03896314e-04, -1.68788421e-04,
          -1.46290826e-04, -1.45808313e-04, -1.49520740e-04,
          -1.82911710e-04, -7.34776768e-05, -9.03562905e-05,
          -4.88366895e-05, 0., 0., 2.23576528e-04, 1.78493778e-04,
          1.30711560e-04, -3.42886924e-05, -3.42886924e-05,
          -7.04881022e-05, -7.04881022e-05, -1.00985424e-04,
          -1.72188360e-04, -1.05362633e-04, -6.48629357e-05,
          -5.27384691e-05, -3.97440417e-05, -1.03945757e-04,
          -1.25800012e-04, -6.97109353e-05, -1.68518200e-05,
          -7.34776768e-05, -6.12674266e-05, 0., 2.93069024e-04,
          1.86690013e-04, -1.23279242e-05, -1.23279242e-05,
          -7.68682366e-06, -1.23279242e-05, -1.23279242e-05,
          -1.23279242e-05, -1.23279242e-05, -9.51316906e-05,
          -9.13124532e-05, -9.13124532e-05, -2.74851045e-05,
          -4.32924680e-05, -5.84185873e-05, -9.14793636e-05,
          -8.94302939e-05, -7.96812601e-05, -8.62757515e-05,
          -6.12674266e-05, 2.56805884e-04, 1.96927969e-04, 0., 0., 0.,
          0., 0., 0., 0., 0., 0., -1.23279242e-05, -1.23279242e-05,
          -9.30528622e-05, -9.13124532e-05, -2.74851045e-05,
          -7.28617379e-05, -1.00426172e-04, -7.66699523e-05,
          -1.35347364e-04, 2.80719192e-04, 1.52973793e-04,
          4.75538982e-05, 0., 0., 0., 0., 0., 0., 0., 0., 0., 0., 0.,
          -1.23279242e-05, -9.13124532e-05, 0., -9.04521366e-05,
          -1.49409025e-04, -2.14426371e-04, 2.66970310e-04,
          2.65938743e-05, 1.52973793e-04, 4.75538982e-05, 4.40106669e-05,
          0., 0., 0., 0., 0., 0., 0., 0., 0., 0., -1.23279242e-05,
          -9.13124532e-05, 0., -1.23272388e-04, -3.05063586e-04,
          1.93168875e-04, 1.03252460e-04, 2.28728186e-05, 1.52973793e-04,
          0., 4.75538982e-05, 1.64107569e-05, 0., 0., 0., 0., 0., 0., 0.,
          0., 0., -1.23279242e-05, -9.13124532e-05, -1.66240352e-04,
          -3.02444096e-04, 1.24000595e-04, 8.24000526e-05,
          6.29770511e-05, 1.31508850e-05, 8.95974081e-05, 9.76564697e-05,
          0., 4.75538982e-05, 4.75538982e-05, 0., 0., 0., 0., 0., 0., 0.,
          -7.02112156e-05, -1.72464308e-04, -1.94892098e-04,
          -1.47473052e-04, 4.71574531e-05, 9.36073047e-05,
          9.48821689e-05, 5.21975671e-05, 1.90323262e-05, 2.83682257e-05,
          9.74766153e-05, 1.25274251e-04, 0., 4.75538982e-05,
          4.75538982e-05, 0., 0., -4.11482288e-05, -6.47612542e-05,
          -6.08439514e-05, -1.53248227e-04, -1.09168723e-04,
          -8.61949084e-05, -6.54796022e-05, -5.07787845e-05,
          5.22362534e-05, 6.95207564e-05, 5.93731675e-05, 7.72717540e-05,
          4.43736826e-05, 4.01469297e-05, 1.68791685e-05,
          -3.03442562e-06, 9.38316880e-05, -3.56264754e-05,
          -5.60258522e-05, -1.71898137e-05, -7.77455716e-05,
          -9.78602329e-05, -1.06616499e-04, -1.73413850e-04,
          -3.23963504e-05, -5.82350549e-05, -2.74851045e-05,
          -1.45730359e-04, -2.21542563e-04, -1.57161820e-04,
          -1.63498829e-04, -7.93702711e-05, -3.90395580e-05,
          -1.49207466e-04, -1.79029579e-04, -1.67947263e-04,
          -1.88384089e-04, -5.83303590e-05, -8.53713354e-05,
          -6.36892219e-05, 1.50244182e-06, 1.06589170e-04,
          1.20960103e-04, 9.81826815e-05, 1.09962522e-04, 6.38111014e-05,
          8.65783732e-05 ]
      - [ -1.00202014e-04, -1.96023626e-04, 0., 0., 0., 0., 0., 0.,
          -2.94581660e-05, -1.75867637e-04, -1.28849701e-04,
          5.11084581e-05, 1.53170331e-05, -6.60606893e-05,
          2.99697713e-05, 2.19356138e-04, 1.92196385e-04, 3.16899270e-04,
          4.90852341e-04, 2.99296895e-04, -1.00202014e-04,
          -9.99769691e-05, 0., 0., 0., 0., 0., 6.72998385e-06,
          -1.16272568e-04, 8.54869431e-05, -1.81470168e-04,
          -2.35925472e-04, -2.14273663e-04, 1.12119422e-04,
          3.82328981e-05, 2.10877843e-04, 1.46921111e-05, 0., 0., 0.,
          -1.00202014e-04, -9.99769691e-05, 0., 0., 0., 9.88370302e-05,
          9.60928446e-05, 9.18397654e-06, 6.76850686e-05,
          -9.32779367e-05, -1.34388043e-04, -1.50848209e-04,
          1.05052713e-04, 5.89890578e-06, -1.73734545e-04, 0., 0., 0.,
          0., 0., -9.42057159e-05, -9.99769691e-05, 0., 0.,
          1.25551014e-04, 2.65461476e-05, -7.78519643e-06,
          7.55800647e-05, -1.94701533e-05, 5.03243718e-05,
          -1.13781796e-04, -6.33636373e-05, -1.73203953e-04,
          -2.03589138e-04, -1.88426653e-04, 0., 0., 0., 0., 0.,
          -7.65106379e-05, -1.11268113e-04, 0., 1.25551014e-04,
          6.23008018e-05, 9.58771707e-05, 6.64188919e-05, 5.39024659e-05,
          4.22810299e-05, 9.36390061e-05, -1.73958790e-04,
          -2.50370213e-04, -1.81395546e-04, -2.15731299e-04,
          -1.88426653e-04, 0., 0., 0., 0., 0., -7.82137286e-05,
          -1.01463927e-04, 1.25551014e-04, 1.54912908e-04,
          6.67602071e-05, -9.91477718e-05, 2.75612310e-05,
          3.01504442e-05, 1.84371584e-06, -2.69166776e-05,
          -2.05679782e-04, -2.04714626e-04, -1.46659848e-04,
          -2.12141807e-04, -1.88426653e-04, 0., 0., 0., 0., 0.,
          -1.28091968e-04, 5.77572137e-05, 1.91591855e-04,
          3.89984161e-05, 6.46768149e-06, -2.15019209e-05,
          -1.20607929e-05, 0., 0., -2.94581660e-05, -2.15037086e-04,
          -1.06055835e-04, -2.23760595e-04, -1.74062618e-04,
          -1.88426653e-04, 0., 0., 0., 0., 0., -1.20138749e-04,
          2.71849043e-04, 7.08000807e-05, 8.68125862e-05,
          -1.96022793e-05, -1.22300233e-04, 0., 0., 0., -1.24764001e-05,
          -2.22661547e-04, -1.46054110e-04, -1.82954784e-04,
          -1.74062618e-04, -1.88426653e-04, 0., 0., 0., 0., 0.,
          -5.10685786e-05, 1.86283898e-04, -1.19220349e-04,
          -8.59462016e-05, -4.80101835e-06, 0., 0., 0., 0., 0.,
          -2.22661547e-04, -1.81440395e-04, -1.71144173e-04,
          -1.85873228e-04, -1.88426653e-04, 0., 0., 0., 0., 0.,
          1.33035617e-04, 3.13746132e-05, -7.77131499e-05,
          9.37428049e-05, 0., 0., 0., -3.41310124e-06, -1.37074549e-05,
          -1.37074549e-05, -2.22661547e-04, -1.88716178e-04,
          -1.12941256e-04, -1.85873228e-04, -1.88426653e-04, 0., 0., 0.,
          0., 0., 1.28646616e-05, -8.18045592e-05, -1.14830746e-05,
          -1.11127738e-04, -8.55260078e-05, -7.80518458e-05,
          -7.80518458e-05, -5.39034227e-05, -7.65250370e-05,
          -3.86785068e-05, -2.22661547e-04, -1.55161906e-04,
          -3.60335514e-04, -2.36492240e-04, -2.47598335e-04,
          -5.57267376e-05, -7.09799497e-05, -9.93769791e-05,
          -1.51183325e-04, -1.64143785e-04, 4.02153149e-04,
          1.03247708e-04, -2.13951847e-04, -1.88426653e-04,
          -1.89804356e-04, -1.69375766e-04, -8.83415196e-05,
          -3.10810610e-05, -3.10810610e-05, -3.10810610e-05,
          -1.81504249e-04, -4.52994973e-05, -2.51902442e-04,
          -2.08401631e-04, -1.93239146e-04, -3.98620359e-05,
          -5.16063883e-05, -5.16063883e-05, -5.16063883e-05,
          -5.16063883e-05, 5.04849304e-04, 4.07688611e-04,
          -5.59853106e-05, -1.52031978e-04, -1.57946575e-04,
          -1.25763399e-04, -1.57946575e-04, -1.57946575e-04,
          -1.57946575e-04, -5.92432625e-05, -2.05394172e-04,
          -1.62568846e-04, -3.17422266e-04, -2.19177658e-04,
          -2.17953188e-04, -2.95265218e-05, -1.57756353e-04,
          -1.57756353e-04, -1.87473095e-04, -1.87473095e-04,
          5.02662908e-04, 3.27425689e-04, 6.56718257e-05,
          -8.92425232e-05, -7.15266069e-05, -7.15266069e-05,
          -7.15266069e-05, -7.15266069e-05, -7.15266069e-05,
          -7.15266069e-05, -1.79379538e-04, -2.09294391e-04,
          -2.60330213e-04, -2.79147469e-04, -1.88426653e-04, 0., 0., 0.,
          0., 0., 5.13265666e-04, 2.19160182e-04, 3.56394128e-04,
          1.66724960e-04, 9.96613089e-05, 0., 0., 0., 0., 0., 0.,
          -2.27058845e-04, -2.52426689e-04, -2.90261814e-04,
          -1.88426653e-04, -7.15266069e-05, -7.15266069e-05,
          -7.15266069e-05, -7.15266069e-05, -7.15266069e-05,
          2.89056828e-04, 3.07078008e-04, 1.06639738e-04, 3.07502341e-04,
          7.65661462e-05, 1.64567173e-04, 3.29238537e-05, 0., 0., 0., 0.,
          -2.26983349e-04, -3.48473346e-04, -2.90261814e-04,
          -1.88426653e-04, 0., 0., 0., 0., 0., 2.06087992e-04,
          1.40096221e-04, 2.17820925e-04, 8.42255249e-05, 2.35052823e-04,
          1.81560725e-04, 7.82654461e-05, 1.66724960e-04, 1.05439984e-04,
          0., 0., -1.98221678e-04, -3.60980834e-04, -2.78451218e-04,
          -1.88426653e-04, 0., 0., 0., 0., 0., 1.12294125e-04,
          7.57756352e-05, 1.14175702e-04, 1.90969819e-04, 1.55459391e-04,
          1.19688259e-04, 1.96527035e-04, 2.23563620e-04, 8.34457387e-05,
          1.98942973e-04, 1.66977639e-04, -2.02136216e-04,
          -3.65793327e-04, -2.60735309e-04, -2.17953188e-04, 0., 0., 0.,
          0., 0., 0., 1.94795939e-04, 1.94795939e-04, 7.85359734e-05,
          1.25901337e-04, 1.26035782e-04, 1.66920727e-04, 1.36827526e-04,
          1.77073816e-04, 2.65494018e-04, 7.24495112e-05,
          -1.46589795e-04, -9.39282399e-05, -5.74425576e-05,
          -7.44015924e-05, 0., 0., 0., 0., 0., 0., 0., 0., 0.,
          1.94795939e-04, 1.97753441e-04, 1.17348718e-04, 1.16003343e-04,
          1.10006731e-04, 9.56375879e-05, 2.38283013e-04, 7.19315431e-05,
          -6.33958698e-05, 3.76852258e-05, 1.06627202e-04,
          2.11605322e-04, 3.08342569e-04, 3.56462551e-04, 2.50111392e-04,
          1.67566410e-04 ]
      - [ -1.02447782e-04, -4.70742089e-05, -8.32584410e-05,
          -1.20882491e-04, -1.82883276e-04, -8.25097159e-05,
          -1.93027619e-04, -2.32601014e-04, -2.48031516e-04,
          -2.17634602e-04, -1.74478482e-04, -2.75812927e-05,
          -9.21928004e-05, -1.48925596e-04, -7.69071994e-05,
          -8.87727583e-06, -9.81849953e-05, -1.05289415e-04,
          -8.88107752e-06, -3.32367817e-05, -5.17472254e-05,
          -1.51682441e-04, -1.04502091e-04, -8.85607369e-05,
          -1.71247972e-04, -2.97132101e-05, -2.61522546e-05,
          6.20852079e-05, -1.18112599e-04, -6.96218485e-05,
          -4.90645944e-05, 3.85617896e-05, 1.32282075e-04,
          1.43603946e-04, 1.67171922e-04, 1.43483223e-04, 0., 0., 0., 0.,
          -4.95093482e-05, -1.05959523e-04, -5.70563461e-05,
          -3.85791318e-05, -1.74130226e-04, 5.56238592e-05,
          1.31916793e-04, 1.08678767e-04, 7.26532453e-05, 5.12509250e-05,
          1.91593819e-04, 1.37665425e-04, 1.94427877e-04, 1.26837069e-04,
          0., 0., 0., 0., 0., 0., -4.95093482e-05, -1.39885247e-04,
          -4.82682481e-05, -9.96036542e-05, -3.36717062e-06,
          -9.83931895e-05, 1.94270309e-04, 5.12509250e-05,
          4.90426391e-05, 1.68633196e-04, 2.09467675e-04, 1.15277144e-04,
          0., 0., 0., 0., 0., 0., 0., 0., -4.95093482e-05,
          -1.30284097e-04, -4.62046446e-05, 1.57774903e-05,
          -3.67090724e-05, 8.46631447e-05, 8.61558365e-05,
          1.49581756e-04, 9.72306661e-05, 1.26705476e-04, 0., 0., 0., 0.,
          0., 0., 0., 0., 0., 0., -4.95093482e-05, -1.35495560e-04,
          1.48275067e-04, 1.19777087e-05, -3.33350654e-05,
          -1.43840691e-06, 2.30828140e-04, 1.39434240e-04,
          -1.15890012e-04, 0., 0., 0., 0., 0., 0., 0., 0., 0., 0., 0.,
          -4.95093482e-05, -5.96144673e-06, 1.62294105e-04,
          6.78283905e-05, 4.66632555e-05, 2.00311784e-04, 1.26705476e-04,
          0., -1.15890012e-04, -1.15905652e-06, -3.56095666e-06,
          -3.56095666e-06, -3.56095666e-06, -3.56095666e-06,
          -1.15905652e-06, 0., 0., 0., 0., 0., 3.87544424e-06,
          9.62802733e-05, 8.72266683e-05, 8.69055875e-05,
          -8.48221680e-05, 2.72080124e-05, -5.82560751e-05,
          -5.69154799e-05, -1.94150096e-04, -8.08473706e-05,
          -8.62931338e-05, -8.62931338e-05, -3.21240477e-05,
          -2.76685078e-05, -4.38967845e-06, -5.45098328e-06,
          -7.95063534e-06, 0., 0., 0., 9.04902408e-05, 9.24359847e-05,
          7.86335731e-05, 3.62377687e-05, -1.31143810e-04,
          -5.66163326e-05, -7.07776708e-05, -3.44377040e-05,
          -1.89953324e-04, -7.69435719e-05, -7.69435719e-05,
          -3.30040348e-05, -2.07479443e-05, -2.07479443e-05,
          -7.10533859e-05, -4.19260759e-05, -4.19260759e-05,
          -7.95063534e-06, -4.38967845e-06, 0., 2.28504025e-04,
          8.56749757e-05, 8.99905644e-05, -1.82788848e-04,
          -8.98425278e-05, -6.99129814e-05, 0., 0., -1.67460559e-04,
          -2.25224154e-04, -6.78788711e-05, -6.78788711e-05,
          -5.96246318e-05, -5.61956294e-05, -1.67460559e-04,
          -2.07479443e-05, -7.10533859e-05, -4.19260759e-05,
          -7.95063534e-06, 0., 3.20229388e-04, 1.89944651e-04,
          1.54198424e-04, -1.68374929e-04, -6.13646916e-05,
          -3.39257203e-05, -3.39257203e-05, -3.39257203e-05,
          -3.39257203e-05, -3.39257203e-05, -5.31078040e-05,
          -1.32192974e-04, -1.33134527e-04, -1.20142286e-04,
          -1.12572001e-04, -1.78039583e-04, -1.67460559e-04,
          -9.72056368e-05, -3.29495597e-05, -4.38967845e-06,
          4.92512656e-04, 3.01273511e-04, 0., -2.18958448e-04,
          -1.01569844e-04, -8.22169604e-05, -7.47492741e-05,
          -7.47492741e-05, -7.47492741e-05, -2.81409029e-05, 0., 0.,
          -4.92358377e-05, -1.78134898e-04, -1.60464697e-04,
          -1.22880025e-04, -1.30995104e-04, -1.86572637e-04,
          -3.98033299e-05, -2.37244567e-05, 4.71358217e-04,
          2.43507908e-04, 0., 0., 0., 0., 0., 0., 0., 0., 0., 0.,
          -1.40704515e-05, -7.47492741e-05, -7.47492741e-05,
          -3.39257203e-05, -2.66399962e-04, -1.84581440e-04,
          -1.45463244e-04, -4.44723992e-05, 5.57769032e-04,
          1.87703467e-04, 5.92011784e-05, 0., 0., 0., 0., 0., 0., 0., 0.,
          0., 0., 0., 0., 0., -6.83003163e-05, -2.52956903e-04,
          -2.72419420e-04, -1.24746803e-04, 4.34074260e-04,
          1.89472557e-04, 1.87703467e-04, 5.92011784e-05, 5.47901109e-05,
          0., 0., 0., 0., 0., 0., 0., 0., 0., 0., 0., 0.,
          -1.84545308e-04, -3.42525629e-04, -2.81992427e-04,
          3.33902310e-04, 1.44849750e-04, 1.43298908e-04, 1.87703467e-04,
          0., 5.92011784e-05, 2.04302105e-05, 0., 0., 0., 0., 0., 0., 0.,
          0., 0., -4.38967845e-06, -1.84545308e-04, -2.28948338e-04,
          -3.85929801e-04, 1.80016650e-04, 1.88548700e-04,
          6.99422017e-05, 1.23694816e-04, 1.14410475e-04, 1.21737088e-04,
          0., 5.92011784e-05, 5.92011784e-05, 0., 0., 0., 0., 0., 0.,
          -4.38967845e-06, -1.84407603e-04, -1.49129017e-04,
          -2.23116542e-04, -2.70430231e-04, 7.30419852e-05,
          1.31467677e-04, 1.88598613e-04, 2.95064983e-05, 1.64369485e-04,
          1.37294541e-04, 1.28053900e-04, 1.61530450e-04, 0.,
          5.92011784e-05, 5.92011784e-05, 0., 0., -4.38967845e-06,
          -4.38967845e-06, -1.77505994e-04, -1.55260976e-04,
          -2.30073230e-04, -2.66351242e-04, 0., -6.28695198e-05,
          4.52478307e-05, 1.68899831e-04, 1.10350193e-04, 1.36183109e-04,
          7.96490567e-05, 1.63098113e-04, 1.76859277e-04, 2.61730092e-05,
          1.87703467e-04, 7.32929911e-05, -4.38967845e-06,
          5.48115022e-05, -8.10103520e-05, -1.60166790e-04,
          -3.41384497e-04, -2.06422672e-04, -1.32158355e-04, 0., 0.,
          -1.21244637e-04, -1.21778285e-04, -2.87733361e-04,
          -2.57789798e-04, -2.45940319e-04, -1.85611018e-04,
          -2.32738152e-04, -2.92309182e-04, -1.89907398e-04,
          -2.14819709e-04, -2.06674827e-04, -2.43270639e-04,
          -2.42445676e-04, -2.37491317e-04, 1.40229997e-04,
          9.00574232e-05, 2.10660844e-04, 2.10660844e-04, 1.35873212e-04,
          1.27535561e-04 ]
      - [ 0., 0., 0., 0., 0., 0., -3.80650599e-05, -1.22226760e-04,
          -1.32406407e-04, -1.11798887e-04, 2.14634620e-05,
          9.46216605e-05, 5.79693697e-05, -1.71390566e-04,
          7.28930900e-05, -1.39069007e-05, -1.30661225e-04,
          4.04475213e-05, 5.36410545e-04, 5.17007778e-04, 0., 0., 0., 0.,
          -3.80650599e-05, -3.80650599e-05, 0., -1.31369643e-05,
          -1.10074943e-04, 1.85150238e-05, 9.58589044e-06,
          -1.08807799e-05, 1.63158009e-04, 1.69286242e-04,
          2.86667928e-04, 4.04488150e-04, -1.28038679e-04,
          -1.98026712e-04, -1.36005270e-04, 0., 0., 0., 0.,
          -3.80650599e-05, 0., 5.89092451e-05, 8.49859280e-05,
          2.49331097e-05, 2.17861321e-04, -5.41774034e-06,
          3.22051288e-04, 8.74080797e-05, 4.01392754e-05, 2.70827382e-04,
          -6.76262061e-05, -1.59813339e-04, -1.67078673e-04,
          -1.57819639e-04, -7.14466369e-05, 0., 0., 0., -3.80650599e-05,
          0., 7.48313832e-05, -1.91475992e-05, 1.66764337e-04,
          -4.21355544e-05, 1.01723170e-04, 1.48345061e-04,
          2.72032747e-04, 3.14369245e-04, -6.53291499e-05, 0.,
          -1.34401271e-04, -1.68395985e-04, -4.31561421e-05,
          -3.26774098e-05, -9.57681841e-05, -1.17562404e-05, 0.,
          -3.80650599e-05, -3.44824657e-05, 1.05424377e-04,
          8.64200629e-05, 8.31804427e-05, -5.86016140e-05,
          2.96602608e-04, 1.44807840e-04, 3.10762873e-04,
          -8.63754613e-05, 0., 0., -9.48714805e-05, -1.34401271e-04, 0.,
          -9.41731050e-05, -5.57806197e-05, -1.00847523e-04,
          -8.90848387e-05, 0., -3.80650599e-05, 1.05424377e-04,
          1.44573773e-04, 2.31438457e-06, 7.52185733e-05, 2.19984388e-04,
          1.33614056e-04, -9.53612616e-05, 0., 0., 0., -1.34401271e-04,
          -1.34401271e-04, 0., 0., 0., -5.00084643e-05, -1.85009223e-04,
          -1.00013895e-04, -3.80650599e-05, 1.68418032e-04,
          1.44002974e-04, 7.90865961e-05, 4.28194500e-04, 2.97304330e-04,
          7.60070907e-05, -9.53612616e-05, 0., 0., -5.69228905e-05,
          -4.69086772e-05, -1.17535230e-04, 0., 0., 0., -2.26504817e-05,
          -3.26774098e-05, -1.85009223e-04, -7.54354478e-05,
          -3.80650599e-05, 2.61642155e-04, 2.61081092e-04,
          3.10159143e-04, 5.07211153e-05, 6.92364410e-05,
          -8.63754613e-05, 0., 0., 0., -1.34401271e-04, -6.74641633e-05,
          0., -3.89806301e-05, -6.25161047e-05, 0., -2.86885988e-05,
          -1.00847523e-04, -1.85009223e-04, -8.47315241e-05,
          1.61700664e-04, 2.12195097e-04, 2.87278410e-04,
          -1.20259683e-04, -1.05833773e-04, -1.23319405e-04,
          -8.72303135e-05, -1.02874568e-04, -1.76305693e-04,
          -2.55307066e-04, -1.35341019e-04, -4.60612500e-05,
          -6.87919819e-05, -2.92818968e-05, -1.25340914e-04,
          -4.47647835e-05, -7.47843224e-05, -1.89780229e-04,
          -1.93193875e-04, -8.41616929e-05, 2.32762177e-04,
          3.16058431e-04, 1.03384868e-04, -3.68660149e-05,
          -6.25161047e-05, -6.25161047e-05, -8.39733038e-05,
          -8.39733038e-05, -2.33314917e-04, -2.73125130e-04,
          -1.13986760e-04, -1.45803555e-04, -1.60993659e-04,
          -1.34535585e-04, -1.18512769e-04, -1.39808646e-04,
          -3.22095031e-04, -2.33992236e-04, -1.82331321e-04,
          -6.25161047e-05, 2.88947631e-04, 4.13269590e-04,
          1.54277950e-04, -4.00385674e-04, -4.51131666e-04,
          -3.81446211e-04, -3.67842615e-04, -5.07865334e-04,
          -4.03425191e-04, -1.01214348e-04, -1.09557783e-04,
          -9.84470244e-05, -6.13058437e-05, -7.25297359e-05,
          -3.26774098e-05, -2.40250592e-05, -2.09059304e-04,
          -1.64093144e-04, -3.19214974e-04, -2.27539233e-04,
          3.41486681e-04, 1.98189780e-04, -1.52018416e-04,
          -1.65431702e-04, -4.29860083e-04, -5.24201430e-04,
          -3.53626878e-04, -1.03616527e-04, -7.40983087e-05,
          -1.61897449e-04, -1.28321422e-04, -4.49735759e-04,
          -1.97920541e-04, -6.01453648e-04, -6.16580423e-04,
          -2.60642439e-04, -2.74684950e-04, -2.48234574e-04,
          -2.68401258e-04, -3.30797280e-04, 2.42680413e-04,
          4.97811525e-05, 0., -1.26085390e-04, -2.29804136e-04,
          -3.08087503e-04, -1.83047028e-04, -2.02199779e-04, 0.,
          -3.34073375e-05, -3.34073375e-05, -1.01477286e-04,
          -1.64817044e-04, -4.90905135e-04, -3.59646161e-04,
          -3.06035596e-04, -2.18008136e-04, -5.30724821e-04,
          -4.12525871e-04, -5.17755107e-04, 1.96199311e-04,
          -7.02375692e-05, 7.26921353e-05, 0., -3.80650599e-05,
          -3.26757145e-04, -1.85429511e-04, 0., 0., -4.78344964e-06,
          -2.99422245e-05, -3.26774098e-05, -2.55731375e-05,
          -7.05634011e-05, -2.88720494e-05, -1.79522962e-04,
          -3.00493179e-04, -5.98362938e-04, -3.36588098e-04,
          -8.34538660e-04, 6.44185275e-05, -2.10402486e-05,
          2.37945511e-04, -5.50596196e-05, -2.29022859e-04,
          -2.76236242e-05, 0., -3.18896650e-06, -2.54120769e-05,
          -3.26774098e-05, -3.26774098e-05, -4.38900606e-05,
          -6.81701131e-05, -9.85805600e-05, -3.79199715e-04,
          -1.21998215e-04, -7.14927301e-05, -5.11696970e-04,
          -3.85772873e-04, -8.63182591e-04, 1.75066307e-04,
          4.60938645e-05, 1.41466066e-04, -8.32729638e-05,
          -3.26546615e-05, 4.29705142e-05, 1.65155670e-05,
          -3.26774098e-05, -3.26774098e-05, -1.84267155e-05,
          -6.81701131e-05, -5.10607533e-05, -8.41616929e-05,
          -8.41616929e-05, -1.93974949e-04, -8.08088516e-05,
          -5.76831226e-04, -1.03361759e-04, -4.79908427e-04,
          -6.91978901e-04, 1.14032773e-04, -2.60839734e-04,
          -2.09752790e-04, 4.08683081e-05, 1.79465016e-04,
          9.80600671e-05, -2.08441656e-06, 3.22620472e-05,
          -3.73986472e-06, -5.61400957e-05, -8.41616929e-05,
          -8.41616929e-05, 0., -3.45543493e-04, -1.34008835e-04,
          -1.57535673e-04, -5.78833453e-04, -3.14122619e-04,
          -4.37177339e-04, -2.31138692e-04, -1.98956128e-04,
          -2.45102798e-04, 1.80563176e-04, -4.02785699e-05,
          4.32659581e-05, 9.06148125e-05, 1.24259619e-04, 1.68409224e-05,
          -5.35687032e-05, 1.91234340e-05, 7.26921353e-05, 0.,
          -3.45543493e-04, -1.06123036e-04, -1.57535673e-04,
          -5.71387005e-04, -2.73931102e-04, -3.80690646e-04,
          -2.65440001e-04, 0., 0., -1.42620789e-04, -1.07052176e-06,
          1.09816785e-04, 4.03600949e-04, 1.90555424e-04, 6.53312600e-05,
          1.75314693e-04, 4.00139070e-05, 2.09186634e-04,
          -5.05054886e-05, -3.32901662e-04, -5.42505404e-05,
          -6.15605677e-04, -2.33567844e-04, -3.73510760e-04,
          -5.71847253e-04, -1.46034145e-04, 0., 0., -3.19410494e-04,
          -2.46797543e-04, -1.26667772e-04, -5.44390234e-04,
          -1.83639946e-04, -1.45357160e-04, -4.43393918e-04,
          -7.86864723e-04, -1.92413339e-04, -2.93024379e-04,
          -2.94246449e-04, -2.76623148e-04, -1.83312077e-04,
          4.91845785e-05, 5.31675643e-04, 4.75307868e-04, 5.90287847e-04,
          5.90287847e-04, 1.60890108e-04, 1.60890108e-04 ]
      - [ -2.30241349e-04, -2.30241349e-04, -2.14594023e-04,
          -1.67362290e-04, -1.67362290e-04, -1.91023268e-04,
          -1.51391941e-04, -1.96094828e-04, -2.02103634e-04,
          -3.99753131e-04, -3.04318324e-04, -1.39277516e-04,
          -1.77084105e-04, -1.81593365e-04, -2.18400382e-04,
          -8.75225160e-05, -9.45372158e-05, -8.97894060e-05,
          8.58739440e-05, 7.79966576e-05, -1.07950829e-04,
          -8.69448995e-05, -1.02530452e-04, -1.35318754e-04,
          -1.68559403e-04, -1.60377516e-04, -1.59522955e-04,
          -2.41355756e-05, -1.18763546e-05, -5.76839157e-05,
          -6.99090670e-05, -3.39203834e-05, -3.40733532e-05,
          6.07237525e-05, 1.45570113e-04, 1.47319297e-04,
          -1.27294639e-04, -2.25204212e-06, -1.75250476e-04,
          -1.33750975e-04, -1.46721737e-04, 0., -1.46721737e-04,
          -1.46721737e-04, -1.46721737e-04, -5.11043290e-05,
          6.09377348e-05, 1.53410147e-04, 1.78073649e-04, 5.82393768e-05,
          1.47910192e-04, 1.43799014e-04, 9.00244922e-05, 1.56306851e-04,
          -2.98356972e-05, -9.89988548e-05, -6.28037242e-06,
          -1.32180314e-04, -2.80210166e-04, -2.95847367e-05, 0., 0., 0.,
          0., 2.02584124e-04, 2.39509009e-05, 1.91336469e-04,
          5.82393768e-05, 1.26387851e-04, 1.43247249e-04, 2.83044355e-04,
          -2.06401546e-05, 0., -5.60601693e-05, -8.28409757e-05,
          -6.11691576e-05, -1.15889830e-04, -1.26842395e-04,
          -2.65778421e-04, -1.97548673e-07, 0., 0., 0., 2.07659468e-04,
          1.13973758e-04, 1.85951474e-04, 1.40287957e-04, 4.79933078e-05,
          2.93018558e-04, 1.68771396e-04, 0., -1.66177939e-04,
          -2.20678066e-05, -2.98356972e-05, -1.09813758e-04,
          -1.16383038e-04, -8.45139875e-05, -3.81224236e-05,
          -6.38024867e-05, 0., 0., 0., 2.07659468e-04, 1.89162616e-04,
          1.53136119e-04, 1.13453796e-04, 1.29986540e-04, 2.35746047e-04,
          9.35729167e-06, 0., -1.75104855e-04, 0., -4.67138052e-05,
          -1.09813758e-04, -1.33412788e-04, -3.79654412e-05,
          -1.42729506e-04, -2.30556223e-04, -1.25937277e-05, 0., 0.,
          2.07659468e-04, 1.89162616e-04, 1.72551372e-04, 1.36234215e-04,
          1.65143545e-04, 1.74591856e-04, 0., 0., -1.75104855e-04, 0.,
          -2.20678066e-05, -8.93945034e-05, -9.53422350e-05,
          -1.00101715e-04, -1.35441442e-04, -2.59319058e-05,
          -1.66597820e-04, 0., 0., 9.70324472e-05, 2.84627575e-04,
          1.91907995e-04, 1.36234215e-04, 1.69446372e-04, 1.12807786e-04,
          0., 0., 0., -1.75104855e-04, 0., -4.25842154e-05,
          -1.28358733e-04, -1.08838867e-04, 0., -1.25683393e-04,
          -7.45989673e-05, 0., 0., 0., 2.07659468e-04, 2.62883346e-04,
          2.01685165e-04, 8.69102951e-05, 7.93850195e-05,
          -2.77192584e-07, 0., 0., -1.75104855e-04, 0., -3.28827118e-05,
          -1.20169738e-04, -9.53422350e-05, -6.36704863e-05,
          -1.66007041e-04, -3.57048921e-05, -2.28056335e-04,
          -5.11251928e-05, -5.11251928e-05, -5.11251928e-05,
          4.01951314e-04, 2.39450557e-04, 1.22645521e-04, 1.63898396e-04,
          -1.07151136e-04, -4.93798980e-05, -2.09430382e-05,
          -1.14144568e-05, -2.09432910e-05, -2.90687021e-05,
          -9.97761163e-05, -1.02600025e-04, -7.86296223e-05,
          -1.50180407e-04, -3.35913428e-05, -1.02067926e-04,
          -1.76557427e-04, -9.78330172e-06, -2.43895010e-05,
          -2.43895010e-05, 4.65467485e-04, 2.81331246e-04,
          1.66434125e-04, 0., 0., 0., -2.98356972e-05, -2.04940559e-04,
          -9.18409423e-05, -1.92728723e-04, -1.35946480e-04,
          -5.93776240e-05, -6.91661480e-05, -1.38229982e-04,
          -6.88352884e-05, -5.24467941e-05, -3.90588175e-05,
          -2.64520531e-05, -2.64520531e-05, -9.82159545e-05,
          6.26112742e-04, 2.87579547e-04, 0., -7.38901363e-05,
          -7.38901363e-05, -7.38901363e-05, -2.08427853e-04, 0.,
          -3.28827118e-05, -1.56295573e-04, -2.14521006e-05,
          -1.06081643e-04, -1.48848238e-04, -3.75564468e-06,
          -1.82178082e-05, -1.46721737e-04, 0., 0., 0., -5.25799842e-05,
          5.33081999e-04, 2.91911769e-04, 0., 0., 0., 0.,
          -7.89688565e-05, -1.08149061e-05, -9.48369925e-05,
          -1.04443061e-04, -1.19091543e-04, -3.05656031e-05,
          -1.26791405e-04, -5.86332026e-05, -3.55131415e-05,
          -1.46721737e-04, 0., 0., 0., 0., 5.62091125e-04,
          2.56261090e-04, 9.39860765e-05, 0., 0., -1.75104855e-04,
          -1.08149061e-05, -1.10429464e-04, -7.80468035e-05,
          -2.36609794e-05, -5.70665688e-05, -1.33189402e-04,
          -7.23704534e-06, -6.40277722e-05, -9.37209734e-06, 0., 0., 0.,
          0., 0., 4.51301050e-04, 1.76956135e-04, 2.56261090e-04,
          9.39860765e-05, -8.81216620e-05, 0., -2.40555910e-05,
          -1.22373225e-04, -2.98356972e-05, -1.25446139e-04,
          -1.35745959e-05, -8.76139438e-06, -5.69447184e-05,
          -1.59657666e-05, -1.46721737e-04, 0., 0., 0., 0., 0.,
          2.70896591e-04, 2.03835851e-04, 1.22194338e-04, 2.51822639e-04,
          -1.70029511e-04, 8.31711732e-05, -1.41070283e-04,
          -2.27016408e-05, -7.73330466e-05, -4.79103346e-06,
          -1.34693008e-04, -6.05321793e-06, -5.48320277e-05,
          -2.94741949e-05, -1.46721737e-04, 0., 0., 0., 0., 0.,
          1.86016041e-04, 1.17022086e-04, 1.21357036e-04,
          -6.56923803e-05, 1.24462822e-04, 7.93187282e-05,
          -6.96135248e-05, 4.49504914e-05, -1.43477810e-05,
          -1.36543109e-04, -1.48146119e-05, -2.80426593e-05,
          -1.59657666e-05, -1.46721737e-04, 0., 0., 0., 0., 0., 0.,
          9.14384655e-05, 3.65788765e-05, -4.47905441e-05,
          6.58830395e-05, 1.03949787e-04, 5.89117808e-05, 1.36180155e-04,
          1.31835986e-04, -2.99513522e-05, -3.56315795e-05,
          9.04965782e-05, -5.48320277e-05, -2.99947242e-05,
          -1.46721737e-04, 0., 0., 0., 0., 0., 0., 0., -1.64871144e-05,
          1.84381715e-04, 3.28974638e-05, -3.05210342e-05,
          8.20764762e-05, 1.09351400e-04, 1.23471502e-04,
          -7.84816875e-05, 2.43859467e-04, 1.20390694e-04,
          -1.31424649e-05, 7.95140440e-05, -2.57958945e-05,
          9.39860765e-05, 0., 0., 0., 0., 0., -1.75104855e-04, 0.,
          -1.08149061e-05, -1.73504697e-04, 1.95196626e-04,
          1.54393667e-04, 4.30401196e-05, 7.09809392e-05, 1.96499750e-05,
          7.36818838e-05, 2.00196635e-04, 2.41248286e-04,
          -4.60585306e-06, 1.68238868e-04, 2.83987785e-04,
          1.73423497e-04, 2.02078605e-04, 2.02078605e-04, 1.97595917e-04,
          1.83536729e-04 ]
      - [ 0., 0., 0., 0., -6.07494694e-05, -1.03246581e-04,
          -4.44342841e-05, -1.16798539e-04, -1.03977138e-04,
          -1.36307237e-04, -1.32337926e-04, -7.13973568e-05,
          -1.79208000e-04, -1.48137886e-04, -4.77967806e-05,
          -1.16205323e-04, -2.04932057e-05, 6.10734569e-05,
          2.52572034e-04, 3.40694067e-04, 0., 0., -6.07494694e-05,
          -1.06531497e-05, -7.87747849e-05, -8.85383124e-05,
          -1.08426088e-04, -7.50480376e-06, -8.28593766e-05,
          1.21256009e-04, -4.95632121e-05, 4.00560421e-05,
          6.15085228e-05, 1.17221934e-05, -1.07634451e-05,
          -7.94644002e-05, -8.77268903e-05, -1.89144252e-04,
          -2.95146281e-04, -1.70220264e-05, 0., 0., -1.36096351e-04,
          -7.20780445e-05, -9.33195261e-05, -1.24368416e-05,
          7.09894934e-08, 7.64235156e-05, -7.99742679e-07,
          3.99927485e-05, 1.31764493e-04, 1.12994807e-04, 1.93847838e-04,
          9.71178961e-05, -7.09059823e-05, -1.58916504e-04,
          -1.40281656e-04, -7.65044970e-05, -1.91515952e-04,
          -3.65136832e-04, 0., -4.98830996e-05, -1.09773056e-04,
          -8.98649450e-05, -5.14851636e-05, -7.30160309e-06,
          1.06759973e-04, -6.94441187e-05, 9.44622661e-05,
          1.56848153e-04, 1.93847838e-04, 1.76363523e-04, 0.,
          -1.04365499e-04, 0., -7.36994043e-05, -1.58482741e-04,
          -2.05237564e-04, -1.60479802e-04, -3.37721314e-04,
          -2.75596303e-05, -3.17876256e-05, -1.52062144e-04,
          5.05442813e-06, 9.68789027e-06, 7.32208864e-05, 5.09580277e-05,
          2.29792073e-04, 1.84725592e-04, 1.93847838e-04, 0., 0.,
          -5.71411365e-05, -6.87666325e-05, -1.12537142e-04,
          -1.22513331e-04, -1.30885091e-04, -1.79491122e-04,
          -1.34992995e-04, -1.42933888e-04, -6.35025863e-05,
          -1.67198639e-04, -4.83771055e-06, 1.42519229e-05,
          4.14064853e-05, 1.67339622e-05, 1.65613805e-04, 1.33098365e-04,
          0., 0., 0., -5.15350584e-05, -1.31273380e-04, -4.91563478e-05,
          -5.97126127e-05, -1.71822801e-04, -1.44732985e-04,
          -1.47557206e-04, -2.17239707e-04, -4.66934944e-05,
          -1.07517677e-04, 7.70734041e-05, -4.24051941e-05,
          4.47371240e-05, 9.49690366e-05, 1.55124842e-04, 1.83136668e-04,
          0., 0., -1.09570290e-04, -1.36991250e-04, -1.29100474e-04,
          -6.71066009e-05, -1.41988567e-04, -1.00725971e-04,
          -1.24907558e-04, -1.43861893e-04, -1.31975947e-04,
          -1.24350860e-04, -5.60287845e-06, -1.00881562e-05,
          1.19597098e-04, 1.19995173e-04, 1.01924845e-04, 8.69994474e-05,
          2.75056882e-05, -1.49428051e-05, -7.47789163e-05,
          -2.39650453e-05, -7.51613989e-05, -1.58093739e-04,
          -1.20067023e-04, -1.31082328e-04, -1.24743499e-04,
          -1.20423181e-04, -1.35733819e-04, -1.96881283e-05,
          -7.99282207e-05, -6.68998327e-05, -4.47124330e-05,
          1.05850617e-04, 2.02599549e-04, 6.06612521e-05,
          -3.39998587e-06, -7.48821403e-05, -1.54271635e-04,
          -1.06470630e-04, -1.03246581e-04, -1.02941798e-04,
          -2.01709379e-04, -1.20602184e-04, -1.17325500e-04,
          -1.28716027e-04, -1.07783017e-04, -4.58918439e-05,
          -6.97264259e-05, -3.05448521e-05, -8.50288779e-05,
          -1.01861791e-04, -4.47124330e-05, 3.59999423e-04,
          1.94804976e-04, 1.76065179e-04, 9.40452082e-05,
          -1.62480006e-04, -1.62024109e-04, -1.63547447e-04,
          -1.45802172e-04, -2.27026263e-04, -1.65902457e-04,
          -1.78864095e-04, -1.96413486e-04, -3.30272487e-05,
          -8.97695645e-06, -1.72436994e-05, -8.96460563e-07,
          -1.17898831e-04, -5.71493620e-05, -5.88316871e-05,
          -4.47124330e-05, 3.84725194e-04, 3.57932964e-04,
          1.92949810e-04, -7.35608119e-05, -1.35038164e-04,
          -1.49659798e-04, -2.57298467e-04, -2.74568214e-04,
          -1.99601753e-04, -2.51202757e-04, -1.14102950e-04,
          -1.20134966e-04, -1.05154562e-04, -8.91973250e-05, 0.,
          -4.81847565e-05, -5.71493620e-05, -1.45778351e-04,
          -9.99454460e-06, 0., 5.40801033e-04, 4.09799221e-04,
          -5.09356505e-05, -1.71686421e-04, -1.67574384e-04,
          -1.38532720e-04, -1.45554601e-04, -2.12210973e-04,
          -1.09234155e-04, -7.75994704e-05, -1.50481806e-04,
          -2.56222964e-04, -1.19287921e-04, -5.44945142e-05,
          -1.83309399e-04, -1.27688603e-04, -5.71493620e-05,
          -4.47124330e-05, -1.05461906e-04, -3.33151479e-06,
          4.59533359e-04, 3.12195887e-04, -2.62203248e-04,
          -1.10510977e-04, -1.51800967e-04, -1.37077892e-04,
          -8.18905173e-05, -4.16603652e-05, -2.86950817e-05,
          -7.70498591e-05, -1.34012764e-04, -4.45247715e-05,
          -2.91711585e-05, -1.49889805e-04, -2.53710052e-04,
          -1.18096395e-04, -1.52656256e-04, -1.17941912e-04,
          -5.89136835e-05, -6.07494694e-05, 5.17033157e-04,
          -5.24313054e-06, -8.64236135e-05, -1.86034275e-04,
          -8.36645777e-05, -2.23160769e-05, -8.97695645e-06,
          -2.85150395e-06, 0., 0., -1.97181253e-05, -2.59742210e-05,
          -1.31265479e-04, -1.98867638e-04, -1.51436601e-04,
          -2.04193289e-04, -2.17480803e-04, -1.72472792e-04,
          -1.07439424e-04, -8.61726585e-05, 1.99634989e-04,
          -2.93711873e-05, 1.48443796e-04, -3.79212797e-05,
          1.70566436e-05, -8.97695645e-06, 0., 0., 0., 0., 0.,
          -3.40655024e-05, -5.96237915e-05, -7.68674872e-05,
          -9.87320236e-05, -7.59272734e-05, -1.73111999e-04,
          -2.45991745e-04, -1.36205956e-04, -1.15641305e-04,
          -1.50994065e-05, 5.37370288e-05, 6.73251052e-05,
          2.69953365e-04, -4.04843149e-06, 4.81341376e-05,
          1.66109967e-05, 0., 0., -5.13223677e-05, -5.71493620e-05,
          -5.71493620e-05, -2.64455866e-05, -4.47124330e-05,
          -6.44305619e-05, -4.30874388e-05, -1.28907530e-04,
          -1.41172233e-04, -1.91111219e-04, -2.85571470e-04,
          -1.60132433e-04, 4.36754708e-05, 1.61245443e-05,
          3.75140116e-05, 1.99403192e-04, 1.47217273e-04, 0.,
          4.81341376e-05, -9.01522344e-06, -5.71493620e-05,
          -8.62562811e-05, -8.46049297e-05, -4.47124330e-05,
          -1.52548309e-05, 0., -5.36009866e-05, -8.16420943e-05,
          -1.54450216e-04, -1.48831139e-04, -3.73718765e-04,
          -1.57173505e-04, -5.92745664e-06, 5.80040833e-05,
          -9.45464271e-05, 1.72783039e-05, 2.18749465e-05,
          1.61375676e-04, 1.29169697e-04, -9.37960212e-05,
          -3.22126034e-05, 3.42170256e-06, -2.03397740e-05, 0., 0.,
          -3.38828613e-05, -4.51413180e-05, -1.26162311e-04,
          -2.13236635e-04, -8.45697068e-05, -3.17102473e-04,
          -3.95906027e-05, 8.01838905e-06, -1.57286431e-05,
          -1.07363321e-05, -4.61712516e-05, -2.09767168e-04,
          2.36706055e-05, 8.32233036e-06, 6.91760652e-05, 2.87232193e-04,
          9.44920321e-05, 0., 1.42512745e-05, 2.27109449e-05,
          -7.52141750e-06, -1.81433643e-04, -2.18481931e-04,
          -1.90713414e-04, -3.14606586e-04, 0., -1.01861791e-04,
          -1.01861791e-04, -1.06874861e-04, -2.14566899e-04,
          4.11685724e-05, -1.46632694e-04, -1.48401799e-04,
          -1.25530001e-04, -7.08976222e-05, -1.63172561e-04,
          -5.37621600e-05, -5.08548837e-05, -9.22551917e-05,
          2.30174355e-05, 1.22350000e-04, 3.89371053e-06, 1.78552422e-04,
          3.31828662e-04, 2.24315256e-04, 2.12629689e-04 ]
      - [ 0., 0., 0., 0., 0., -7.55668516e-05, -7.55668516e-05,
          -4.33330679e-05, -9.22634572e-05, -1.37697949e-04,
          -2.25281983e-04, -5.66796807e-05, -1.34765913e-04,
          -3.46296583e-05, -1.45287064e-04, -1.10794106e-04,
          -4.48364335e-05, -9.67963206e-05, -5.15731845e-05,
          -1.61016196e-05, 0., 0., -2.83753179e-05, -4.90832208e-05,
          -2.90817570e-05, -1.15178555e-04, -1.38306568e-04,
          -3.74240699e-05, 2.85229762e-05, 8.84359251e-05,
          -2.02559440e-05, 2.11026618e-05, 7.04893027e-05,
          1.19267192e-04, 1.32101457e-04, 1.38381612e-04,
          -3.68074179e-05, -2.03982956e-04, -1.13033682e-04,
          -1.77983326e-04, 0., -7.55668516e-05, -7.25006321e-05,
          -1.28993808e-04, -5.80626474e-05, -1.47035942e-04,
          6.01258907e-05, 2.64932605e-05, 7.93844738e-05, 2.42242295e-05,
          1.02850398e-04, 8.65502079e-05, 1.46741557e-04, 9.81679259e-05,
          0., 0., -3.68074179e-05, -2.34924955e-04, -2.37180881e-04,
          -1.61071148e-04, -7.55668516e-05, -8.07964389e-05,
          -1.47499013e-04, -1.82828342e-04, 6.32941592e-05,
          -1.15352916e-04, 8.74715333e-05, 2.42242295e-05,
          6.96817588e-05, 8.89548610e-05, 1.52306951e-04, 9.02136526e-05,
          0., 0., 0., 0., -1.33166133e-04, -2.23386873e-04,
          -2.23820301e-04, -1.53051791e-04, -1.48067484e-04,
          -2.12395302e-04, -1.43036916e-04, 7.34486530e-05,
          8.76597915e-05, 1.33694935e-04, 6.14052988e-05, 5.87182039e-05,
          1.51715110e-04, 9.81679259e-05, 0., 0., 0., 0., 0.,
          -4.26944207e-05, -2.21525814e-04, -2.11250430e-04,
          -1.47205472e-04, -8.71693119e-05, -3.37498495e-04,
          -1.34619157e-04, 7.34486530e-05, 1.38921096e-04,
          8.86330017e-05, 7.53446002e-05, 1.21644160e-04, 1.42579229e-04,
          9.19656759e-06, 0., 0., 0., 0., 0., -1.02250509e-04,
          -1.28401134e-05, -3.03455192e-04, -3.08947987e-04,
          -1.69163366e-04, -9.61644400e-05, -3.82188999e-04,
          -5.01358263e-05, 1.38921096e-04, 1.03441074e-04,
          1.13397327e-04, 1.12108013e-04, 9.81679259e-05, 0., 0., 0., 0.,
          0., 0., -1.02250509e-04, -2.83753179e-05, -1.79341674e-04,
          -3.05565365e-04, -2.35797139e-04, -1.09328357e-04,
          -9.81556659e-05, -3.36812751e-04, 9.51715119e-05,
          7.36042566e-05, 5.59402542e-05, 5.96362479e-05, 5.79087682e-05,
          -3.64947527e-06, -3.64947527e-06, -3.64947527e-06,
          -2.90817570e-05, -2.90817570e-05, -6.12540462e-05,
          -5.55025545e-05, -2.83753179e-05, -1.94385226e-04,
          -9.70725450e-05, -3.08164774e-04, -2.07543213e-04,
          -1.26757339e-04, -9.61644400e-05, -9.70159090e-06,
          -5.27201009e-05, 5.97949329e-05, -1.49647421e-05,
          8.22819493e-06, -4.71915337e-05, -6.48843779e-05,
          -4.02194673e-05, -7.44168356e-05, -6.37343619e-05,
          -1.17737640e-04, -9.06104106e-05, -7.96271343e-05,
          -1.60447889e-04, -2.22518593e-05, -1.45684797e-04,
          -3.17234313e-04, -9.52021001e-05, -1.26757339e-04,
          -9.61644400e-05, 1.46394712e-04, 1.20864679e-04,
          -7.26430517e-05, 3.27357338e-05, 0., -2.48903075e-06,
          -2.48903075e-06, -2.96162671e-05, -2.96162671e-05,
          -2.48903075e-06, -1.10370020e-04, -9.84077706e-05,
          -7.24889323e-05, -4.71152889e-05, -1.67930091e-04,
          -1.83123775e-04, -1.14758092e-04, -8.37797052e-05,
          -1.41691678e-04, -9.61644400e-05, 3.50718532e-04,
          2.07260164e-05, 8.99888473e-05, -6.47522975e-05,
          -1.11325076e-04, -6.11841169e-05, -5.72978533e-05,
          -3.61669190e-05, -2.71746940e-05, -2.71746940e-05,
          -8.90372830e-05, -1.03913211e-04, -5.73404286e-05,
          -8.49284406e-05, -9.13494805e-05, -1.13016220e-04,
          -1.07346226e-04, -1.12861460e-04, -1.08669643e-04,
          -1.23207792e-04, 4.76790941e-04, 1.45035840e-04,
          -9.18895894e-05, -7.32502376e-05, -5.08658668e-05,
          -5.08658668e-05, -5.08658668e-05, -5.08658668e-05, 0., 0., 0.,
          -9.95665323e-05, -1.67355654e-04, -6.77891221e-05, 0.,
          -9.11380848e-05, -8.12949002e-05, -1.94983892e-04,
          -1.51012238e-04, -1.23780366e-04, 3.71529197e-04,
          1.86903140e-04, 0., -1.03095314e-04, -1.31805995e-04,
          -4.87652615e-05, -3.55496559e-05, -4.96082648e-05,
          -9.95665323e-05, -1.51741682e-04, -9.54042480e-05,
          -2.84448470e-05, 0., 0., -2.67116702e-05, -1.09610737e-04,
          -5.14492131e-05, -1.90023813e-04, -1.51383152e-04,
          -1.22206315e-04, 3.73780029e-04, 2.56120518e-04,
          6.40766229e-05, 0., 0., 0., 0., 0., 0., 0., 0., 0., 0., 0.,
          -3.24356006e-05, -1.37060983e-04, -4.06926956e-05,
          -1.39671407e-04, -1.51012238e-04, -1.27120773e-04,
          2.78918305e-04, 1.24330239e-04, 2.56120518e-04, 6.40766229e-05,
          5.93022887e-05, 0., 0., 0., 0., 0., 0., 0., 0., 0.,
          -3.24356006e-05, -9.61207479e-05, -8.64155227e-05,
          -1.39671407e-04, -1.70775063e-04, -1.24197541e-04,
          2.07363351e-04, 1.41549215e-04, 8.92640892e-05, 2.47220712e-04,
          1.01769156e-05, 6.40766229e-05, 2.21127175e-05, 0., 0., 0., 0.,
          0., 0., 0., -5.68696378e-05, -2.17452598e-05, -1.30910310e-04,
          -1.10631911e-04, -9.90607296e-05, -6.24888562e-05,
          1.29788765e-04, 6.66806591e-05, 7.05676794e-05, 9.60925026e-05,
          8.66324553e-05, 2.17050983e-04, 1.01769156e-05, 6.40766229e-05,
          6.40766229e-05, 0., 0., 0., 0., 0., -7.84771182e-05,
          -1.30614853e-05, -1.16414842e-04, -9.30986280e-05,
          -1.62500044e-04, -3.73900984e-05, 5.08381745e-05,
          5.55394035e-05, 7.18743977e-05, 5.60041553e-05, 1.42738092e-04,
          1.01773941e-04, 1.20368939e-04, 2.45943607e-04, 1.01769156e-05,
          7.42535412e-05, 6.40766229e-05, 0., 0., 0., -7.27531879e-05,
          -1.56483729e-05, -1.36847244e-04, -1.20225865e-04,
          -1.51649874e-04, -1.79543145e-04, 0., 8.81886735e-05,
          1.43728073e-04, 4.97015790e-05, 7.02672332e-05, 6.52075687e-05,
          1.22525482e-04, 1.45136102e-04, 9.97925417e-06, 2.45943607e-04,
          1.59311152e-04, 1.01769156e-05, 7.42535412e-05, 7.42535412e-05,
          4.22294725e-05, -7.41186614e-06, -1.74231158e-04,
          -1.20225865e-04, -9.61644400e-05, -2.04917887e-04, 0., 0., 0.,
          0., 1.43728073e-04, 1.49374566e-04, 6.53835014e-05,
          1.03028593e-04, 1.31129345e-04, 7.29726162e-05, 1.60521173e-04,
          1.67095743e-04, 5.85668204e-05, 9.66117150e-05, 2.09881342e-04,
          1.39364405e-04, 8.23988012e-05, 1.40466058e-04, 1.10273009e-04,
          -2.54977094e-05 ]
      - [ 0., 0., 0., 0., 0., 0., 0., 0., 0., 0., 7.09180313e-05,
          1.89954648e-04, 1.58076014e-04, 8.22549846e-05, 4.32977540e-05,
          7.39272582e-05, 1.24224141e-04, 2.58488610e-04, 4.41530807e-04,
          -2.53085193e-04, 0., 0., 0., 0., 0., 0., 0., 7.09180313e-05,
          6.71242888e-05, 1.49176500e-04, 6.45341133e-05, 7.32508925e-05,
          4.00406680e-05, 1.44794190e-04, 1.65124482e-04, 2.08673519e-04,
          0., -4.39429095e-05, -6.39677339e-04, 0., 0., 0., 0., 0., 0.,
          6.42433952e-05, 1.29142805e-04, 1.00710327e-04, 9.22668260e-05,
          5.07199729e-05, 1.01585698e-04, 1.24040380e-04, 2.36116059e-04,
          1.94517706e-04, 0., 0., -2.11383216e-04, -4.66283323e-04,
          -4.01363604e-06, 0., 0., 0., 0., 0., 1.29142805e-04,
          4.60116535e-05, 1.31057299e-04, 5.07199729e-05, 1.03411578e-04,
          1.39903786e-04, 2.41982023e-04, 1.79708644e-04, 0., 0., 0.,
          -2.12341023e-04, -1.91331219e-05, -4.71648445e-06, 0., 0., 0.,
          0., 0., 1.29142805e-04, 7.45937068e-05, 1.09414294e-04,
          1.08090702e-04, 3.62307983e-05, 2.39824294e-04, 1.94517706e-04,
          0., 0., 0., 0., -2.20003509e-04, -3.96469113e-05,
          -4.71648445e-06, 0., 0., 0., 0., 0., 1.29142805e-04,
          1.10545770e-04, 9.95726368e-05, 1.00582656e-04, 7.98359033e-05,
          2.21581460e-04, 2.79514334e-05, 0., 0., 0., 0.,
          -2.08611673e-04, -4.01363604e-06, -4.71648445e-06, 0., 0., 0.,
          0., 0., 1.29142805e-04, 1.10545770e-04, 1.92559426e-04,
          6.91115783e-05, 8.67557465e-05, 1.94517706e-04, 0., 0., 0., 0.,
          0., -6.11700889e-05, -3.82128428e-06, -4.71648445e-06, 0., 0.,
          0., 0., 0., 5.82247703e-05, 1.79174822e-04, 1.80882198e-04,
          6.65066982e-05, 1.31289999e-04, 1.17049975e-04, 0., 0., 0., 0.,
          -5.45939220e-05, -2.32734010e-06, -4.70272789e-06,
          -4.71648445e-06, 0., 0., 0., 0., 0., 0., 1.29142805e-04,
          2.27779805e-04, 1.03588041e-04, 7.51850530e-05, 8.11279097e-05,
          0., 0., 0., 0., -1.65731544e-04, -1.84429635e-04,
          -1.13673768e-05, -4.71648445e-06, 0., 0., 0., 0., 0., 0., 0.,
          2.48908356e-04, 2.38172943e-04, 7.41860204e-05, 1.64187426e-04,
          0., 0., 0., 0., -6.23930537e-05, -1.33557376e-04,
          -2.18581990e-05, -4.71648445e-06, 0., 0., 0., 0., 0., 0., 0.,
          0., 3.56922596e-04, 1.57381786e-04, 1.76170972e-04, 0., 0., 0.,
          0., -1.03338491e-04, -2.62830494e-04, -3.15438265e-05,
          -4.71648445e-06, 0., 0., 0., 0., 0., 0., 0., 0., 0.,
          4.47888160e-04, 2.37908840e-04, 0., 0., 0., 0., 0.,
          -4.56516682e-05, -2.85522874e-05, -4.62400430e-06, 0., 0., 0.,
          0., 0., 0., 0., 0., 0., 0., 3.85847350e-04, 2.38225490e-04, 0.,
          0., 0., 0., -4.56516682e-05, -3.44172586e-05, -4.71648445e-06,
          0., 0., 0., 0., 0., 0., 0., 0., 0., 0., 0., 4.48042993e-04,
          1.92345964e-04, 4.49400759e-05, 0., 0., -1.90585532e-04,
          -3.44172586e-05, -4.71648445e-06, 0., 0., 0., 0., 0., 0., 0.,
          0., 0., 0., 0., 0., 3.25149769e-04, 1.18026081e-04,
          1.92345964e-04, 4.49400759e-05, -1.62988625e-04,
          -3.44172586e-05, -4.71648445e-06, 0., 0., 0., 0., 0., 0., 0.,
          0., 0., 0., 0., 0., 0., 2.07848876e-04, 2.01299292e-04,
          8.70794902e-05, 2.66144161e-05, -3.44172586e-05,
          4.26280712e-05, 1.55087309e-05, 0., 0., 0., 0., 0., 0., 0., 0.,
          0., 0., 0., 0., 0., 1.65157879e-04, 6.34706739e-05,
          -5.36449261e-05, -3.79049307e-04, 9.86947271e-05,
          1.43171812e-04, 0., 4.49400759e-05, 4.49400759e-05, 0., 0., 0.,
          0., 0., 0., 0., 0., 0., 0., 0., 9.46492219e-05, 6.51220398e-06,
          -3.84773681e-04, 7.10769309e-05, 9.79556062e-05,
          1.10083180e-04, 1.20328121e-04, 1.75154448e-04, 0.,
          4.49400759e-05, 4.49400759e-05, 0., 0., 0., 0., 0., 0., 0., 0.,
          0., 0., -5.21141628e-04, 1.64187426e-04, 6.85919949e-05,
          1.00505116e-04, 4.82902506e-05, 6.36072291e-05, 9.18762016e-05,
          6.74104158e-05, 1.92345964e-04, 1.04236424e-04, 0.,
          4.49400759e-05, 4.49400759e-05, 4.49400759e-05, 0., 0., 0., 0.,
          0., -6.85329025e-04, 0., 0., 0., 1.64187426e-04,
          2.30701495e-04, 1.00090008e-04, 6.98326330e-05, 9.34359996e-05,
          7.70276893e-05, 1.19110897e-04, 1.44190824e-04, 8.15276653e-05,
          1.39928365e-04, 2.29188445e-04, 1.55371454e-04, 1.09677050e-04,
          1.09677050e-04, 1.03164843e-04, 9.56298754e-05 ]
      - [ -2.62418267e-04, -4.21693630e-06, 0., 0., 0., 0., 0., 0., 0.,
          0., 5.53953469e-05, 1.16700539e-04, 8.45214381e-05,
          7.75410226e-05, 5.37955930e-05, 6.38609636e-05, 1.33836929e-05,
          9.99192562e-05, 1.52787878e-04, 1.21331846e-04,
          -7.75862572e-05, -3.38000682e-04, -8.11445570e-05, 0., 0., 0.,
          0., 5.53953469e-05, 3.83719671e-05, 7.75698645e-05,
          4.75693378e-05, 6.07024413e-05, 1.71486899e-05, 9.05717025e-05,
          7.25284699e-05, -2.27657620e-05, -8.95267585e-05,
          -2.00386421e-06, -1.52907349e-04, -8.48396739e-05,
          -9.83557402e-05, -9.89453474e-05, -3.17905331e-04,
          -1.98716865e-04, 0., 5.01816685e-05, 8.68157440e-05,
          5.20212852e-05, 5.82599932e-05, 4.89125814e-05, 4.88686455e-05,
          6.30225404e-05, 1.30979490e-04, 1.19211029e-04, 2.16404915e-05,
          -2.42571958e-04, -3.38326595e-06, -1.83838943e-04,
          -4.13800262e-05, 0., 0., 0., -9.88586689e-05, -1.86184581e-04,
          -1.55756221e-04, 1.03699949e-05, 6.21646977e-05,
          5.89134397e-05, 3.81610516e-05, 6.35890465e-05, 1.30979490e-04,
          1.10410547e-04, 2.16404915e-05, 0., -2.41174857e-04,
          -4.62776516e-05, -1.94287379e-04, 0., 0., 0., 0., 0., 0.,
          -1.20429268e-05, -1.31506735e-04, -1.47595681e-04,
          -6.85581545e-05, 5.79427360e-05, 1.26387939e-04,
          1.19211029e-04, 9.08051970e-06, 0., 0., -1.95417670e-04,
          -5.83104775e-05, -1.94287379e-04, 0., 0., 0., 0., 0., 0.,
          8.68157440e-05, 5.79393345e-05, -3.92476613e-06,
          -6.82104510e-05, -5.33810926e-05, 2.04256121e-05,
          2.71566955e-06, 0., 0., 0., -1.31404711e-04, -1.11167246e-04,
          -1.94287379e-04, 0., 0., 0., 0., 0., 0., 8.68157440e-05,
          5.79393345e-05, 1.20193705e-04, 8.03298535e-05,
          -2.95324262e-05, -7.49899118e-05, -1.11167246e-04,
          -1.52007531e-04, -1.31404711e-04, 0., -1.29474924e-04,
          -1.11167246e-04, -1.94287379e-04, 0., 0., 0., 0., 0., 0.,
          3.14203935e-05, 1.35610811e-04, 9.52036135e-05, 8.03298535e-05,
          7.22677796e-05, 6.58122808e-05, -9.88586689e-05,
          -1.94287379e-04, -1.11167246e-04, -6.66045089e-05,
          -1.26866144e-04, -8.32146688e-05, -2.23851748e-04, 0., 0., 0.,
          0., 0., 0., 0., 8.68157440e-05, 1.17093754e-04, 8.56457482e-05,
          5.61973357e-05, 4.82113246e-05, 0., 0., -1.18660182e-06,
          -1.94287379e-04, -1.05111023e-04, -7.52144697e-05,
          -2.35727057e-04, -1.31404711e-04, 0., 0., 0., 0., 0., 0., 0.,
          1.91375104e-04, 1.22597674e-04, 7.63988792e-05, 9.75705334e-05,
          0., 0., 0., 0., 0., -3.31504532e-04, -2.13715684e-04,
          -9.10719100e-05, 0., -1.31404711e-04, -5.53345535e-06, 0., 0.,
          0., 0., 0., 2.03909498e-04, 1.39443946e-04, 9.75705334e-05, 0.,
          0., 0., 0., 0., -1.51500048e-04, -9.19629383e-05,
          -1.77284048e-04, -1.33953479e-04, -1.11167246e-04, 0.,
          -1.30153916e-04, -1.31404711e-04, 0., 0., 0., 0.,
          2.88033858e-04, 1.74022338e-04, 0., 0., 0., 0., 0.,
          -1.51500048e-04, -5.59503897e-05, -1.91143918e-04, 0.,
          -7.98084366e-05, -1.38442585e-04, -1.11167246e-04,
          -3.62767532e-05, 0., -1.31404711e-04, -1.44794876e-05, 0., 0.,
          2.36478925e-04, 1.65492573e-04, 0., 0., 0., 0.,
          -1.85659446e-05, -6.81976744e-05, -2.16543616e-04, 0., 0., 0.,
          -7.97298489e-05, -1.17552125e-04, -2.08022058e-04,
          -8.71843440e-05, 0., -1.31404711e-04, -1.31404711e-04, 0.,
          2.51646532e-04, 1.48389052e-04, 4.60213232e-05, 0., 0.,
          -3.54623603e-06, -1.51500048e-04, -1.92597974e-04,
          -7.25486898e-05, 0., 0., 0., 0., -4.79972514e-05,
          -1.34299320e-04, -1.96790948e-04, -9.10719100e-05, 0.,
          -2.15809123e-05, -1.31404711e-04, 2.26610122e-04,
          7.97025641e-05, 1.39191470e-04, 4.60213232e-05, 3.51217604e-05,
          -1.51500048e-04, -1.94287379e-04, -9.10719100e-05, 0., 0., 0.,
          0., 0., 0., -7.97298489e-05, -9.74325740e-05, -1.79378781e-04,
          -9.10719100e-05, -2.95643640e-05, 0., 1.51599044e-04,
          1.24277649e-04, 5.11504040e-05, 1.39191470e-04,
          -1.16445539e-04, -9.50908725e-05, -7.87244790e-05, 0., 0., 0.,
          0., 0., 0., 0., 0., -3.91017829e-06, -9.74325740e-05,
          -1.33653855e-04, -9.10719100e-05, -7.60683397e-05,
          1.10937537e-04, 4.76701534e-05, 7.01105891e-05,
          -1.39863278e-06, -1.09692512e-04, -4.16731673e-05,
          -6.58626814e-05, 4.60213232e-05, 3.57794779e-05, 0., 0., 0.,
          0., 0., 0., 0., -2.22189683e-05, -9.55701616e-05,
          -1.18954005e-04, -1.76550711e-05, 5.62465430e-05,
          1.78459923e-05, 1.58353851e-05, -1.09300112e-04,
          -3.36360390e-05, -5.59023683e-05, 1.04054809e-04,
          9.71857371e-05, 0., 4.60213232e-05, 4.60213232e-05, 0., 0., 0.,
          0., 0., 0., -7.97298489e-05, -7.95243395e-05, -1.18954005e-04,
          0., 9.75705334e-05, -6.96208153e-05, 1.22729298e-05,
          1.79194394e-05, 7.40649102e-06, 9.59142126e-05, 4.03371960e-05,
          4.20057331e-05, 1.39191470e-04, 4.17903866e-05, 0.,
          4.60213232e-05, 4.60213232e-05, 3.71450587e-05, 0., 0., 0., 0.,
          0., 0., -6.79144723e-05, -1.48535648e-04, -9.68548047e-05,
          3.12022057e-05, 5.59674809e-05, 1.78459923e-05, 5.12549486e-05,
          7.65147561e-05, 5.96871359e-05, 7.75612571e-05, 7.75612571e-05,
          5.88645489e-05, 1.00776415e-04, 1.39191470e-04, 7.67128004e-05,
          7.72810599e-05, 7.74417131e-05, 7.74417131e-05, 6.72706083e-05 ]
      - [ 0., 0., 0., 0., 0., 0., 0., 0., 0., 0., 1.03954044e-05,
          7.41296099e-05, 2.36225096e-04, 1.94097360e-04, 1.08059074e-04,
          1.21348668e-04, 6.41107181e-05, 1.85150202e-04, 3.71696369e-04,
          8.73314129e-05, 0., 0., 0., 0., 0., 0., 0., 5.45596777e-05,
          1.41467404e-04, 3.06679547e-04, 7.53261411e-05, 5.21190195e-05,
          -2.44010516e-05, 1.54606023e-04, 8.96303463e-05,
          1.14902148e-04, -2.83065419e-05, -7.61343181e-05,
          -2.37244953e-04, -1.92696371e-05, 0., 0., 0., 0., 0.,
          4.94246488e-05, 1.89180369e-04, 1.72058863e-04, 1.25548118e-04,
          7.28119994e-05, -6.77154167e-05, 8.28646807e-05,
          1.21831392e-04, 1.92722204e-04, -1.61525662e-04,
          -2.55440627e-05, -6.02806613e-05, -1.64583340e-04,
          -5.08543380e-05, 0., 0., 0., 0., 0., 1.89180369e-04,
          5.25684518e-05, 1.72058863e-04, 8.32883306e-05, 1.59879928e-04,
          1.01966943e-05, 3.22744090e-05, 1.53992602e-04,
          -1.28873871e-04, -1.49730389e-04, -1.33569716e-04,
          -6.53561219e-05, -1.09625558e-04, -1.74166023e-04, 0., 0., 0.,
          0., 0., 1.89180369e-04, 7.64665310e-05, 1.67122649e-04,
          1.12599089e-04, 1.79736904e-04, 2.35072555e-04, 1.08139371e-04,
          -2.84829352e-04, -7.33295601e-05, -2.50552112e-04,
          -1.28185866e-05, -1.16311698e-04, -1.08098393e-04,
          -6.33582677e-05, -5.54326180e-05, 0., 0., 0., 0.,
          1.89180369e-04, 1.72058863e-04, 2.06706653e-04, 6.83681574e-05,
          1.90772393e-04, 2.95026723e-04, -9.09214359e-05,
          -8.66434566e-05, -1.13680588e-04, -1.74276414e-04,
          -6.98852527e-05, -1.72468208e-04, -6.36039549e-05,
          -1.43106576e-04, -9.82257625e-05, 0., 0., 0., 0.,
          1.89180369e-04, 1.72058863e-04, 2.27985802e-04, 1.78781818e-04,
          1.26295708e-04, 2.74596969e-04, -1.59041920e-05,
          -1.36447386e-04, -1.51461107e-04, -1.46320643e-04,
          -7.81641502e-05, -6.94540213e-05, -9.61760015e-05,
          -1.43297410e-04, -1.15210343e-04, -5.56589257e-05, 0., 0., 0.,
          1.34620699e-04, 2.21467883e-04, 2.05540302e-04, 1.47396611e-04,
          1.93281492e-04, 1.53387839e-04, 0., -2.57805485e-04,
          -3.42606581e-05, -9.99142285e-05, -3.30321745e-05,
          -1.47444167e-04, -1.76482659e-04, -2.20023561e-04,
          -1.04799656e-04, -9.82257625e-05, 0., 0., 0., 0.,
          1.89180369e-04, 2.79603672e-04, 1.48709529e-04, 1.61939170e-04,
          9.37308723e-05, 0., -5.08429584e-05, -1.26310013e-04,
          -1.78062415e-04, -1.26096667e-04, -1.13513277e-04,
          -8.73745084e-05, -2.05847682e-04, -8.24619929e-05,
          -3.15674188e-05, -1.16410292e-05, 0., 0., 0., 0.,
          4.06910607e-04, 3.21616157e-04, 1.67287595e-04, 2.06019831e-04,
          0., 0., -2.84125999e-04, -1.77026101e-04, -7.56384907e-05,
          -1.35300914e-04, -1.21922254e-04, -3.24608845e-04,
          -1.00482277e-04, -1.32280140e-04, -9.82257625e-05, 0., 0., 0.,
          0., 0., 4.68153739e-04, 2.96789454e-04, 3.00262676e-04, 0., 0.,
          -2.09962018e-04, -1.13787559e-04, -1.12382106e-04,
          -9.53870549e-05, -2.22243034e-04, -2.59059598e-04,
          -2.83095898e-04, -4.00843164e-05, -7.15896385e-05,
          -3.21830375e-05, 0., 0., 0., 0., 0., 6.04116765e-04,
          3.71696049e-04, 0., 0., -4.30405089e-05, -1.05903855e-04,
          -1.89248065e-04, -6.38226993e-05, -8.94259574e-05,
          -1.04246792e-04, -1.37433453e-04, -1.46716076e-04,
          -1.08398737e-04, -6.51824812e-05, 0., 0., 0., 0., 0., 0.,
          4.35179682e-04, 4.01947007e-04, 0., 0., -2.96191720e-04,
          -1.29353517e-04, -5.70365482e-05, -4.58157992e-05,
          -1.45441794e-04, -1.82055970e-04, -8.91136733e-05,
          -3.15600519e-05, -9.21238534e-05, -5.51278972e-05, 0., 0., 0.,
          0., 0., 0., 5.60938322e-04, 3.03891575e-04, 1.21357072e-04,
          -2.18087560e-04, -1.83844051e-04, -1.72163258e-04,
          -1.22132609e-04, -1.08506509e-04, -1.16737065e-04,
          -9.07945723e-05, 0., -1.49942180e-05, -1.73317094e-04,
          -3.73412331e-05, 0., 0., 0., 0., 0., 0., 4.97281842e-04,
          1.06394116e-04, 1.90571154e-04, -3.82949729e-05,
          -1.01716236e-04, -1.26320796e-04, -8.04474184e-05,
          -1.00832869e-04, -7.81867857e-05, -9.98593678e-05,
          -1.51611879e-04, -1.21917503e-04, -7.74149157e-05,
          -8.90657539e-05, 0., 0., 0., 0., 0., -1.59041920e-05,
          2.29950543e-04, 1.82551434e-04, -1.98550406e-04,
          1.34150963e-04, -1.22709680e-04, 4.19524840e-05,
          -3.12904231e-05, -5.26587792e-05, -5.38345485e-05,
          -1.31027293e-04, -1.57818009e-04, -1.61440534e-04,
          -1.11762020e-04, -3.11395670e-05, -1.02054444e-04,
          -3.42606581e-05, -1.02110189e-05, -3.42606581e-05,
          -5.01648465e-05, -1.03264989e-04, 2.26323409e-05,
          -1.08134467e-04, 9.21952596e-06, -7.54551365e-05,
          4.14188398e-05, 1.44617152e-04, -4.10508910e-05,
          9.30505266e-05, 6.56558623e-05, -1.37411029e-04,
          -1.20751334e-04, -1.13489885e-04, -1.01237427e-04,
          -1.75092591e-05, 0., -6.77937933e-05, -6.77937933e-05,
          -8.36979816e-05, -8.80737134e-05, -2.96203889e-05,
          4.28668136e-05, -1.13691611e-04, -1.04808576e-04,
          2.38634184e-05, 4.38481475e-05, 1.86616191e-04, 1.53249930e-04,
          2.13442283e-04, -3.79303565e-05, 3.38535974e-05,
          8.46788389e-05, -9.13110271e-05, -3.24941706e-04,
          -8.87842543e-05, -5.62160312e-05, -4.21684563e-05,
          -7.24708152e-05, -5.68653159e-05, -5.51908124e-05,
          -8.34768434e-05, -3.65599961e-04, -6.50451402e-05,
          3.94308408e-05, 7.29198655e-05, 1.23484686e-04, 8.04258962e-05,
          8.37642583e-05, 8.37908447e-05, 1.86724443e-04, 2.70354038e-04,
          8.92513417e-05, -1.55101894e-04, -1.02103877e-05,
          -1.37692754e-04, -5.29390272e-05, -7.07736835e-05,
          -6.51972805e-05, -1.65213623e-05, -9.85614024e-05,
          -1.08852248e-04, -3.20673484e-04, -4.81740935e-05, 0., 0.,
          1.79396113e-04, 2.00995230e-04, 1.20013770e-04, 1.10188288e-04,
          1.07145701e-04, 6.66170672e-05, 1.52683773e-04, 1.32119851e-04,
          5.26551958e-05, 9.90144108e-05, 6.68307403e-05,
          -7.03812620e-05, 3.71708593e-05, 6.34663156e-05,
          -3.88455883e-05, 4.50641128e-05 ]
      - [ 1.81087555e-04, 4.34729824e-04, 4.74721659e-04, 2.89804477e-04,
          4.89598242e-05, 1.48170409e-04, 9.24754495e-05, 6.76447162e-05,
          9.00275045e-05, 1.73717235e-05, 5.49286233e-05, 1.44080332e-04,
          1.30846036e-06, -3.05330796e-05, 0., 0., 0., 0., 0., 0., 0.,
          0., 0., 2.80355962e-05, 1.89095052e-04, 3.40652798e-04,
