%YAML:1.0
---
opencv_ml_svm:
   format: 3
   svmType: C_SVC
   kernel:
      type: LINEAR
   C: 1.0000000000000001e-01
   term_criteria: { iterations:100 }
   var_count: 400
   class_count: 17
   class_labels: !!opencv-matrix
      rows: 17
      cols: 1
      dt: i
      data: [ 40, 41, 43, 45, 47, 48, 49, 50, 51, 52, 53, 54, 55, 56, 57,
          88, 105 ]
   sv_total: 136
   support_vectors:
      - [ -1.10979759e-04, -2.53087550e-04, -2.79111526e-04,
          -1.67850711e-04, -3.11864387e-05, -1.01595149e-04,
          -7.43726050e-05, -7.36832226e-05, -3.91714893e-05,
          -3.48307403e-05, -3.09530333e-05, 3.48017784e-05,
          8.29647688e-05, 4.38498546e-06, 3.43713400e-05, 4.59111689e-05,
          8.21223366e-05, 1.81479860e-04, 2.71487370e-04, 2.09292775e-04,
          0., 0., 0., -9.36562901e-06, -1.12656475e-04, -2.02578827e-04,
          -1.74543311e-04, -1.28337633e-05, -4.39882897e-05,
          3.39352118e-05, 6.04686502e-05, 2.97924744e-05,
          -5.99736268e-05, 3.47288405e-05, 3.96641517e-05,
          4.45720179e-05, 0., 0., 0., 0., 0., 0., 0., 0., 0.,
          5.09981037e-05, 8.26136820e-05, -7.72283747e-05,
          -1.06751861e-04, -4.04374441e-05, -1.51973491e-05,
          3.93281698e-05, 3.98919401e-05, 8.46204639e-05,
          -7.36057264e-05, -1.19614000e-04, -9.21597166e-05, 0., 0., 0.,
          0., 0., 0., 0., 9.19793092e-05, 4.22578669e-05, 1.06843472e-04,
          2.60312645e-05, 4.52428612e-05, -3.07994378e-05,
          -1.96328365e-05, 8.21576250e-05, -7.21161050e-05,
          -1.40718679e-04, -1.02943559e-04, -6.36260011e-05,
          -8.82209788e-05, -9.21597166e-05, -5.73289799e-05, 0., 0., 0.,
          0., 9.19793092e-05, 5.51749872e-05, 9.06168716e-05,
          6.24388995e-05, 7.79748152e-05, 1.58559895e-04, 9.21763494e-05,
          -9.36562901e-06, -1.32129077e-04, -1.77497554e-04,
          -3.21661428e-05, -7.21161050e-05, -1.40841308e-04,
          -1.02943559e-04, -1.73791312e-04, -1.15485775e-04,
          -4.09773429e-06, 0., 0., 9.19793092e-05, 1.06843472e-04,
          9.23559128e-05, 4.80417548e-05, 1.37013165e-04, 1.01447869e-04,
          0., 0., 0., 0., -2.72639591e-05, -1.28488289e-04,
          -1.39529671e-04, -4.54255169e-05, -1.06422609e-04,
          -1.11778121e-04, -1.74120913e-04, -9.21597166e-05, 0.,
          9.19793092e-05, 1.06843472e-04, 1.20180513e-04, 9.59895406e-05,
          8.16094253e-05, 9.21763494e-05, 0., 0., 0., 0., 0., 0.,
          -7.01503996e-06, -6.43544772e-05, -1.44104313e-04,
          -5.39493958e-05, -1.05866973e-04, -2.90981348e-04,
          -1.71603882e-04, 3.56827004e-05, 1.60977594e-04,
          1.07930508e-04, 9.26535067e-05, 9.31483955e-05, 6.21738509e-05,
          0., 0., 0., 0., 0., 0., 0., 0., 0., -6.43544772e-05,
          -1.35769849e-04, -7.85947050e-05, -2.95471109e-04,
          -1.78237868e-04, 9.19793092e-05, 1.62438388e-04,
          9.52006012e-05, 6.39712598e-05, 4.55459594e-05, 0., 0., 0., 0.,
          0., 0., 0., 0., 0., 0., 0., -6.43544772e-05, -1.66863072e-04,
          -2.74805294e-04, -2.79007392e-04, 2.20344169e-04,
          1.88025675e-04, 7.35386857e-05, 9.21763494e-05, 0., 0., 0., 0.,
          0., 0., 0., 0., 0., 0., 0., 0., -2.35058928e-06,
          -1.56514201e-04, -3.62091203e-04, -2.71407655e-04,
          2.54417682e-04, 1.58087438e-04, 1.00516423e-04, 0., 0., 0., 0.,
          0., 0., 0., 0., 0., 0., 0., 0., 0., -9.21597166e-05,
          -1.09828849e-04, -3.10499774e-04, -2.66681978e-04,
          3.44415253e-04, 1.61201489e-04, 0., 0., 0., 0., 0., 0., 0., 0.,
          0., 0., 0., 0., 0., -9.21597166e-05, -9.62766790e-05,
          -8.60781583e-05, -2.64691218e-04, -2.59974884e-04,
          2.78094201e-04, 1.84876713e-04, 0., 0., 0., 0., 0., 0., 0., 0.,
          0., 0., 0., 0., -9.21597166e-05, -9.62766790e-05,
          -8.17734908e-05, -9.90798944e-05, -2.58808839e-04,
          -1.61874574e-04, 2.79827422e-04, 1.60268435e-04,
          6.45856053e-05, 0., 0., 0., 0., 0., 0., 0., 0., 0.,
          -4.56534472e-05, -9.21597166e-05, -9.44112762e-05,
          -8.35311512e-05, -1.17729192e-04, -1.91946980e-04,
          -1.89719256e-04, -1.28754822e-04, 2.50754441e-04,
          4.13764319e-05, 1.60268435e-04, 6.45856053e-05, 5.97733488e-05,
          0., 0., 0., 0., 0., 0., -9.21597166e-05, -9.62766790e-05,
          -7.17363218e-05, -7.94141961e-05, -1.47134575e-04,
          -1.35848357e-04, -1.04763953e-04, -1.35769849e-04,
          -4.67944301e-05, 1.64579862e-04, 1.13475893e-04,
          2.97892966e-05, 1.60268435e-04, 0., 6.45856053e-05,
          2.22883664e-05, 0., 0., -8.78881474e-05, -9.62766790e-05,
          -1.00366320e-04, -7.94141961e-05, -8.20504720e-05,
          -1.44918755e-04, -1.63054574e-05, -1.18160649e-04,
          -1.31546141e-04, -5.49888464e-05, 0., 9.73163551e-05,
          7.96575696e-05, 7.04616177e-05, 1.02913691e-05, 8.92695025e-05,
          1.08848508e-04, 0., 2.97548668e-05, -3.16910700e-05,
          -1.29065302e-04, -7.94141961e-05, -8.20504720e-05,
          -1.42371748e-04, -2.35991083e-05, -5.83668007e-05,
          -1.29082997e-04, -6.78716242e-05, -5.49888464e-05, 0., 0.,
          5.31369551e-05, 1.35431092e-05, 9.63033526e-05, 6.71651796e-05,
          2.06971290e-05, -1.33315407e-05, -1.69803643e-05,
          -6.62295770e-06, -1.32197179e-04, -1.13174383e-05,
          -7.53049972e-06, -1.26211899e-05, -2.31150425e-05,
          -1.20546400e-04, -1.20658869e-05, -5.49888464e-05,
          -5.49888464e-05, 0., 0., 0., 0., 9.21763494e-05,
          9.73793794e-05, -5.20644826e-05, -9.33564152e-05,
          -1.12399794e-04, -2.86629324e-06, -6.53817697e-05,
          -3.95117022e-05, 1.50902808e-04, 6.52518793e-06,
          -1.22264377e-04, 1.37366096e-05, 9.59676072e-06,
          9.59676072e-06, 0., 0., 0., 0., 0., -1.62146025e-04,
          -2.51593912e-04, -2.60959554e-04, -8.34083548e-05,
          7.21133983e-05, 5.11086910e-05, -2.24255000e-05,
          -3.24856665e-05, -3.75821082e-06, 1.45848398e-05,
          3.35756049e-05, 8.39838394e-05, 7.39127063e-05, 1.04422470e-04,
          1.68608516e-04, 1.07922322e-04, 1.08608387e-04, 1.08608387e-04,
          1.00268306e-04, 9.56505464e-05 ]
      - [ 0., 0., 0., 0., 0., 0., 0., -1.05092178e-04, -1.39130454e-04,
          -7.94871157e-05, 9.36966262e-06, 1.48160078e-04,
          2.74932798e-04, 7.28467057e-05, 1.51226268e-04, 1.96683846e-04,
          1.67143589e-04, 3.67478293e-04, 5.80379856e-04, 4.34337358e-04,
          0., 0., 0., 0., 0., 0., 0., 6.01538295e-06, -2.34280778e-05,
          1.98022899e-04, -1.67775015e-05, 8.86312591e-06,
          8.94329860e-05, 1.60996016e-04, 2.14083746e-04, 2.62798887e-04,
          0., 0., 0., 0., 0., 0., 0., 0., 0., 1.28704778e-04,
          2.03829157e-04, -3.30972434e-05, 3.00412444e-06,
          2.62264020e-05, 1.97516983e-05, 9.91767301e-05, 3.00789688e-04,
          1.68642946e-04, 0., 0., 0., 0., 0., 0., 0., 0., 0., 0.,
          2.03829157e-04, 1.01865102e-04, 2.20061047e-04,
          -8.14119994e-05, 1.12772223e-05, 1.33127483e-04,
          2.04650962e-04, 1.23320890e-04, -2.24435225e-05,
          -9.09145747e-05, 0., 0., 0., 0., 0., 0., 0., 0., 0.,
          2.03829157e-04, 1.25051010e-04, 2.28228848e-04, 1.54286347e-04,
          -5.52976007e-06, 1.88752645e-04, 1.80070419e-04,
          -1.12800284e-04, -9.94372313e-05, -2.24435225e-05,
          -9.09145747e-05, 0., 0., 0., 0., 0., 0., 0., 0.,
          2.03829157e-04, 2.17794644e-04, 2.55964609e-04, 1.00476784e-04,
          2.63464666e-04, 1.39018186e-04, -1.04814419e-04,
          -8.84646724e-05, -1.12800284e-04, -9.94372313e-05,
          -2.24435225e-05, -9.09145747e-05, 0., 0., 0., 0., 0., 0., 0.,
          2.03829157e-04, 2.17794644e-04, 2.84156791e-04, 2.44493509e-04,
          1.65509045e-04, 2.59557535e-04, -1.90613486e-04,
          -9.30760943e-05, -9.93938738e-05, -1.12800284e-04,
          -1.03634738e-04, -2.24435225e-05, -9.09145747e-05, 0., 0., 0.,
          0., 0., 0., 6.17524565e-05, 4.03034792e-04, 2.28928562e-04,
          2.24806514e-04, 2.05943186e-04, 1.60791678e-04, 0.,
          -1.25085426e-04, -9.09266892e-05, -9.93938738e-05,
          -1.12800284e-04, -1.04025661e-04, -2.24435225e-05,
          -9.09145747e-05, 0., 0., 0., 0., 0., 0., 1.76589674e-04,
          3.42334766e-04, 2.34822845e-04, 9.92481800e-05, 8.58899148e-05,
          -2.72394809e-05, -2.72394809e-05, -1.90613486e-04,
          -1.14583832e-04, -1.26633357e-04, -1.43702477e-04,
          -1.26553015e-04, -4.96830035e-05, -1.18154057e-04,
          -2.72394809e-05, -4.24673999e-05, -4.24673999e-05,
          -4.24673999e-05, -4.24673999e-05, -8.56977276e-05,
          3.44876607e-04, 4.05226834e-04, 1.42723307e-04, 2.13519786e-04,
          -3.06604779e-05, -4.23132697e-05, -3.98234515e-05,
          -1.40243908e-04, -2.23514086e-04, -2.26899676e-04,
          -2.57289736e-04, -3.16446647e-04, -3.78760851e-05,
          -9.81987978e-05, -8.08677505e-05, -1.37608207e-04,
          -2.74476042e-04, -2.74476042e-04, -2.74476042e-04,
          -2.74476042e-04, 1.77648064e-04, 2.55712457e-05,
          1.22585016e-05, -1.58052237e-04, -1.51933535e-04,
          -1.27666615e-04, -1.27666615e-04, -1.24310478e-04,
          -1.62223776e-04, -1.82674936e-04, -8.40799257e-05,
          -1.94360939e-04, -8.42258742e-05, -6.17823462e-05,
          -6.17823462e-05, -6.17823462e-05, -6.17823462e-05,
          -6.17823462e-05, -6.17823462e-05, -6.17823462e-05,
          6.28039066e-04, 1.89540777e-04, -2.16647881e-04,
          -1.75720284e-04, -1.62605298e-04, -1.32409536e-04,
          -1.32409536e-04, -1.32409536e-04, -2.06959521e-04,
          -4.19928620e-05, -2.48563920e-05, -1.55921211e-04,
          -4.20527795e-05, -1.10523833e-04, -2.06241093e-05,
          -8.39716267e-06, -2.72890629e-05, -8.58909698e-05,
          -8.94355762e-05, -1.30279703e-04, 6.00761676e-04,
          4.58342663e-04, -2.46612744e-05, -2.46612744e-05,
          -2.46612744e-05, -2.46612744e-05, -2.46612744e-05,
          -1.02513972e-04, -6.93346738e-05, -6.86597923e-05,
          -3.10024516e-05, -1.85382101e-04, -2.24435225e-05,
          -9.09145747e-05, 0., 0., -6.18949662e-06, -2.46612744e-05,
          -2.46612744e-05, -2.46612744e-05, 6.29597285e-04,
          4.37865994e-04, 1.49517058e-04, 0., 0., 0., 0.,
          -7.78526955e-05, -6.95138660e-05, -2.23836050e-05,
          -8.88170689e-05, -1.85382101e-04, -2.24435225e-05,
          -9.09145747e-05, 0., 0., 0., 0., 0., 0., 6.05073350e-04,
          1.21185200e-04, 4.07703104e-04, 1.49517058e-04, 1.13877439e-04,
          0., 0., -7.78526955e-05, -7.41899639e-05, -5.60025146e-05,
          -8.88170689e-05, -1.45300786e-04, -2.24435225e-05,
          -9.09145747e-05, 0., 0., 0., 0., 0., 0., 3.23099230e-04,
          3.21841886e-04, 8.07563047e-05, 4.07703104e-04, 3.00311931e-05,
          1.49517058e-04, 4.00070567e-05, -7.78526955e-05,
          -1.11327623e-04, -1.34931353e-04, -8.51337827e-05,
          -1.45300786e-04, -2.24435225e-05, -9.09145747e-05, 0., 0., 0.,
          0., 0., 0., 2.51989957e-04, 1.30553963e-04, 1.97285481e-04,
          3.29914474e-05, 2.44085531e-04, 2.41620452e-04, 3.53097334e-07,
          7.16643626e-05, -2.24244795e-05, -1.36495204e-04,
          -9.99296535e-05, -1.45300786e-04, -2.24435225e-05,
          -9.09145747e-05, 0., 0., 0., 0., 0., 0., 1.31984285e-04,
          7.01825047e-05, 1.11433204e-04, 2.14335683e-04, 1.16614247e-04,
          1.06517800e-04, 1.42331963e-04, 2.27841563e-04,
          -1.56184513e-04, 1.15628809e-05, 2.94104084e-05,
          -1.45300786e-04, -2.24435225e-05, -9.09145747e-05, 0., 0., 0.,
          0., 0., 0., 0., 2.28952340e-04, 2.49917415e-04, 7.76361485e-05,
          1.23849633e-04, 1.30579807e-04, 7.13647678e-05, 1.24368680e-05,
          -7.93738873e-05, 2.69748911e-04, 6.31201692e-05,
          -1.45300786e-04, 1.27073537e-04, 1.49517058e-04,
          1.20407873e-04, 0., 0., 0., 0., 0., 0., 0., 0., 0.,
          2.49917415e-04, 2.62395974e-04, 2.33785740e-05, 5.46799238e-05,
          -9.60044563e-05, -7.32336484e-05, 1.54378969e-04,
          1.25429753e-04, 2.38079941e-04, 3.34620738e-04, 4.87525715e-04,
          3.28247523e-04, 2.59960099e-04, 2.60486966e-04, 2.11269507e-04,
          1.83257231e-04 ]
      - [ -7.44327554e-05, -4.24645805e-05, 0., -1.34003403e-06,
          -9.03089312e-06, -1.88250269e-05, -1.88250269e-05,
          -4.34768117e-06, -6.63224773e-06, -3.47036206e-07,
          2.66923453e-05, 6.23306260e-05, 4.44591460e-05, 3.01737509e-05,
          2.61441364e-05, 2.05383294e-05, 4.44463694e-05, 6.22275329e-05,
          6.90390152e-05, 1.57568775e-05, -8.46619296e-05,
          -6.11271826e-05, -4.99369489e-05, -1.08817530e-05,
          -1.15758248e-05, -1.88250269e-05, -1.88250269e-05,
          7.86731925e-06, 1.82242491e-06, 3.14244535e-05, 2.93207413e-05,
          2.35616153e-05, 1.45269069e-05, 4.23373313e-05, 4.02175428e-05,
          6.14821038e-05, -2.66134302e-05, -3.94808776e-05,
          -8.32657970e-05, -1.11667461e-04, -9.22967229e-05,
          -7.04281701e-05, -5.68814758e-05, -6.78365468e-05,
          -2.50916237e-05, 5.35509889e-06, 1.88881422e-05,
          1.34001748e-05, 2.62114554e-05, 2.94365896e-06, 1.49164116e-05,
          6.03063791e-06, 5.50956793e-05, 4.54710134e-05, 4.41886550e-06,
          -3.86685169e-05, -4.14305505e-05, -8.32657970e-05,
          -9.56484801e-05, -1.11667461e-04, -9.22967229e-05,
          -7.04281701e-05, -6.57624623e-05, -7.04281701e-05,
          -3.21274638e-05, -4.61557465e-05, 2.45450337e-05,
          3.98515249e-06, 8.48007585e-06, 1.60537165e-05, 3.51795134e-05,
          2.67800242e-05, -4.54132351e-06, -9.83269274e-06,
          -4.65975354e-05, -4.14305505e-05, -8.32657970e-05,
          -8.32657970e-05, -1.08140914e-04, -1.11667461e-04,
          -9.22967229e-05, -8.84375695e-05, -7.04281701e-05,
          -3.27150046e-05, -4.75849520e-05, -1.87701426e-05,
          -9.40700284e-06, 1.38428459e-05, 3.33181160e-05,
          3.03477063e-05, -1.47892406e-05, -1.88250269e-05,
          -1.88250269e-05, -5.44017457e-05, -5.44017457e-05,
          -8.95895646e-05, -8.32657970e-05, -7.51340413e-05,
          -8.58342901e-05, -1.11667461e-04, -6.07679031e-05,
          -4.23597739e-05, -2.89942109e-05, -2.88441042e-05,
          -2.60876968e-05, -3.94373310e-05, -3.76315475e-05,
          3.55072225e-05, -1.76180620e-05, -1.88250269e-05,
          -1.88250269e-05, -1.88250269e-05, -6.02555774e-05,
          -6.02555774e-05, -1.02090824e-04, -1.04517683e-04,
          -9.45066786e-05, -7.02369070e-05, -2.84016660e-05,
          -5.79717052e-05, -4.06935796e-05, -4.43751514e-06,
          1.68048937e-05, 3.73887960e-05, -2.07668654e-05,
          -3.12485972e-05, -2.12554405e-05, -7.04281701e-05,
          -7.04281701e-05, -1.90341179e-05, -2.40241534e-05,
          -6.02555774e-05, -6.02555774e-05, -1.02090824e-04,
          -1.02090824e-04, -1.13331698e-04, -7.65406803e-05,
          -3.80029996e-05, -2.84016660e-05, -2.84016660e-05,
          -3.01241398e-05, 2.50189314e-05, 2.15218006e-05,
          2.65541548e-05, 1.59172250e-05, -4.14912138e-05,
          -7.04281701e-05, -6.69373621e-05, -7.04281701e-05,
          -7.31902110e-05, -7.30841493e-05, -6.08828523e-05,
          -1.02090824e-04, -1.02090824e-04, -8.68486459e-05,
          -7.70157349e-05, -4.72266911e-05, -4.72266911e-05,
          -2.96355720e-05, -2.84016660e-05, 2.56022977e-05,
          2.06691057e-05, 1.12566468e-05, 1.16291210e-06, 3.99043984e-06,
          -1.14988879e-05, -6.54912074e-05, -5.16031469e-05,
          -1.11858724e-04, -1.11858724e-04, -1.11858724e-04,
          -1.03757018e-04, -1.09399502e-04, -8.27299664e-05,
          -7.19011514e-05, -4.72266911e-05, -4.72266911e-05,
          -4.72266911e-05, -2.73194801e-05, -3.11008371e-05,
          6.64704712e-05, 4.16903495e-05, 5.14388012e-06, 6.51345954e-06,
          -3.17012455e-05, -2.77459021e-05, -8.96387519e-06,
          -9.30336973e-05, -1.00041987e-04, -1.00041987e-04,
          -1.53693967e-04, -1.59336443e-04, -1.07900196e-04,
          -7.57208545e-05, -4.82800133e-05, -4.72266911e-05,
          -4.72266911e-05, -4.51107626e-05, -1.74849920e-05,
          -1.74849920e-05, 7.54688954e-05, 4.03204140e-05,
          1.58200237e-05, -3.17012455e-05, -2.60329871e-05,
          -2.70676810e-05, -6.32991068e-05, -6.31267903e-05,
          -7.98997498e-05, -1.34868940e-04, -1.60068259e-04,
          -1.39386379e-04, -1.34093701e-04, -9.88298343e-05,
          -4.88928854e-05, -4.88928854e-05, -4.32944871e-05,
          -3.59858132e-05, -1.88250269e-05, -1.88250269e-05,
          1.04546358e-04, 7.79267793e-05, -2.39122091e-05,
          -2.45677220e-05, -3.74659357e-05, -6.32991068e-05,
          -6.32991068e-05, -6.32991068e-05, -1.00246085e-04,
          -8.90062583e-05, -1.48891850e-04, -1.20164907e-04,
          -8.50363649e-05, -9.47744702e-05, -9.88298343e-05,
          -4.81875759e-05, -3.76520074e-05, -3.74715091e-05,
          -1.93216183e-05, -1.88250269e-05, 7.14878261e-05,
          8.61937515e-05, -2.18685527e-05, -6.97596333e-05,
          -6.97596333e-05, -8.04598894e-05, -6.97596333e-05,
          -1.05134350e-04, -1.28598840e-04, -9.21054598e-05,
          -9.21054598e-05, -1.00834441e-04, -1.00844256e-04,
          -1.03107268e-04, -9.71313057e-05, -1.09457513e-04,
          -6.52640665e-05, -4.23597739e-05, -3.55848097e-05,
          -4.06935796e-05, 5.23763047e-05, 4.22554185e-05,
          -3.36305275e-05, -8.04598894e-05, -8.11651989e-05,
          -8.61023727e-05, -1.33536014e-04, -1.33536014e-04,
          -9.21054598e-05, -9.21054598e-05, -5.02702169e-05,
          -5.02702169e-05, -1.00207166e-04, -1.01873360e-04,
          -9.06324858e-05, -9.51110196e-05, -9.22967229e-05,
          -9.22967229e-05, -5.60679546e-05, -4.21506811e-05,
          2.87738039e-05, -2.29673678e-05, -6.30348313e-06,
          -4.88441583e-05, -1.11855428e-04, -1.33536014e-04,
          -9.21054598e-05, -9.21054598e-05, -9.21054598e-05,
          -5.02702169e-05, -5.02702169e-05, -5.02702169e-05,
          -4.46718186e-05, -8.89662915e-05, -8.95478224e-05,
          -7.56252048e-05, -8.74230391e-05, -9.05615452e-05,
          -9.22967229e-05, -8.85759291e-05, 1.27948442e-06,
          -1.57387749e-05, -8.37088955e-05, -5.52476231e-05,
          -9.90681292e-05, -5.89749834e-05, -8.40211724e-05,
          -9.21054598e-05, -5.02702169e-05, -5.02702169e-05,
          -5.02702169e-05, -3.90293390e-05, -3.90293390e-05,
          -2.83290829e-05, -4.94788510e-05, -7.18055016e-05,
          -7.28444211e-05, -7.66102021e-05, -9.22967229e-05,
          -9.22967229e-05, -6.22944863e-05, -8.92772659e-05,
          -7.49965111e-05, -6.79125369e-05, -2.73491132e-05,
          -3.78988298e-05, -5.77654355e-05, -1.96154488e-05,
          -2.68441599e-05, -4.38096868e-05, -4.46718186e-05,
          -2.18685527e-05, -3.25688088e-05, -2.18685527e-05,
          -2.18685527e-05, -2.18685527e-05, -7.18055016e-05,
          -7.18055016e-05, -9.22967229e-05, -9.22967229e-05,
          -8.88653158e-05, -9.33206393e-05, -9.19175000e-05,
          -3.33806711e-05, -3.17301674e-05, -1.21434605e-05,
          2.06906916e-05, 1.76762678e-05, -2.25677650e-05,
          8.72304554e-06, 8.27166241e-06, -2.18685527e-05,
          -2.18685527e-05, -2.18685527e-05, -2.18685527e-05,
          -2.18685527e-05, -2.18685527e-05, -7.18055016e-05,
          -7.57163143e-05, -9.22967229e-05, -1.11667461e-04,
          -6.69135916e-05, -1.32222076e-05, -3.49143775e-05,
          6.35557535e-06, 6.05045807e-06, 2.54300685e-05, 1.86866218e-05,
          1.80082661e-05, 5.09294041e-05, 7.00976761e-06,
          -1.17959637e-07, 3.52535571e-05, 2.45884657e-05,
          2.41370817e-05, -6.00313206e-06, -5.57433668e-06,
          -3.77339734e-06, 0., -9.22967229e-05, -9.04716799e-05,
          -4.18352429e-05, -5.64248057e-06, -5.64248057e-06,
          5.06564284e-05, 5.13617379e-05, 2.26766551e-05, 3.15569632e-05,
          4.99149028e-05, 3.85605163e-05, 2.37535769e-05, 3.24382090e-05,
          2.32114671e-05, 4.60709198e-05, 5.74692313e-05, 2.90842381e-05,
          4.64204932e-05, 5.31346523e-05, 4.65948251e-05,
          -1.91781564e-05 ]
      - [ 0., 0., 0., 0., 0., 0., 0., 0., 0., 0., 7.05438724e-05,
          1.89340280e-04, 1.57966439e-04, 8.31657817e-05, 4.39404757e-05,
          7.39279785e-05, 1.24132610e-04, 2.58722604e-04, 4.41755925e-04,
          -2.53919454e-04, 0., 0., 0., 0., 0., 0., 0., 7.05438724e-05,
          6.74203839e-05, 1.49113868e-04, 6.46846966e-05, 7.34047644e-05,
          3.93350092e-05, 1.45858954e-04, 1.64951402e-04, 2.08126876e-04,
          0., -4.45624355e-05, -6.38980477e-04, 0., 0., 0., 0., 0., 0.,
          6.39044447e-05, 1.29111693e-04, 1.00469093e-04, 9.20456005e-05,
          5.06067918e-05, 1.01809055e-04, 1.24490383e-04, 2.35539774e-04,
          1.94468565e-04, 0., 0., -2.12554776e-04, -4.65924939e-04,
          -3.82110329e-06, 0., 0., 0., 0., 0., 1.29111693e-04,
          4.57855749e-05, 1.30635730e-04, 5.06067918e-05, 1.03642378e-04,
          1.40207878e-04, 2.42024063e-04, 1.79648428e-04, 0., 0., 0.,
          -2.13423555e-04, -2.12454106e-05, -4.49023628e-06, 0., 0., 0.,
          0., 0., 1.29111693e-04, 7.46618898e-05, 1.09353285e-04,
          1.08756052e-04, 3.62332903e-05, 2.39862406e-04, 1.94468565e-04,
          0., 0., 0., 0., -2.20373753e-04, -4.13577582e-05,
          -4.49023628e-06, 0., 0., 0., 0., 0., 1.29111693e-04,
          1.10470268e-04, 9.92958157e-05, 1.00345569e-04, 7.97951579e-05,
          2.21577793e-04, 2.77929739e-05, 0., 0., 0., 0.,
          -2.07803649e-04, -3.82110329e-06, -4.49023628e-06, 0., 0., 0.,
          0., 0., 1.29111693e-04, 1.10470268e-04, 1.92637410e-04,
          6.91803871e-05, 8.65582915e-05, 1.94468565e-04, 0., 0., 0., 0.,
          0., -6.07372567e-05, -3.92108450e-06, -4.49023628e-06, 0., 0.,
          0., 0., 0., 5.85678208e-05, 1.79177849e-04, 1.80868010e-04,
          6.66314954e-05, 1.31027307e-04, 1.17097065e-04, 0., 0., 0., 0.,
          -5.47170566e-05, -2.36800997e-06, -5.71251030e-06,
          -4.49023628e-06, 0., 0., 0., 0., 0., 0., 1.29111693e-04,
          2.27862460e-04, 1.03601342e-04, 7.48867533e-05, 8.11885839e-05,
          0., 0., 0., 0., -1.66105354e-04, -1.83680415e-04,
          -1.32413561e-05, -4.49023628e-06, 0., 0., 0., 0., 0., 0., 0.,
          2.49181117e-04, 2.37983826e-04, 7.39825264e-05, 1.64310230e-04,
          0., 0., 0., 0., -6.25337780e-05, -1.33998037e-04,
          -2.03279360e-05, -4.49023628e-06, 0., 0., 0., 0., 0., 0., 0.,
          0., 3.56974138e-04, 1.57270042e-04, 1.76122805e-04, 0., 0., 0.,
          0., -1.03571569e-04, -2.62746005e-04, -3.25257497e-05,
          -4.49023628e-06, 0., 0., 0., 0., 0., 0., 0., 0., 0.,
          4.48165985e-04, 2.37728687e-04, 0., 0., 0., 0., 0.,
          -4.64494260e-05, -2.74894937e-05, -4.40219264e-06, 0., 0., 0.,
          0., 0., 0., 0., 0., 0., 0., 3.85707302e-04, 2.37990520e-04, 0.,
          0., 0., 0., -4.64494260e-05, -3.51320741e-05, -4.49023628e-06,
          0., 0., 0., 0., 0., 0., 0., 0., 0., 0., 0., 4.48128150e-04,
          1.92541280e-04, 4.47604725e-05, 0., 0., -1.91710191e-04,
          -3.51320741e-05, -4.49023628e-06, 0., 0., 0., 0., 0., 0., 0.,
          0., 0., 0., 0., 0., 3.25409637e-04, 1.18138509e-04,
          1.92541280e-04, 4.47604725e-05, -1.64207522e-04,
          -3.51320741e-05, -4.49023628e-06, 0., 0., 0., 0., 0., 0., 0.,
          0., 0., 0., 0., 0., 0., 2.07920079e-04, 2.01195406e-04,
          8.70502481e-05, 2.64359333e-05, -3.51320741e-05,
          4.25593789e-05, 1.54467525e-05, 0., 0., 0., 0., 0., 0., 0., 0.,
          0., 0., 0., 0., 0., 1.65259829e-04, 6.34464450e-05,
          -5.40891524e-05, -3.78474768e-04, 9.88167085e-05,
          1.43083365e-04, 0., 4.47604725e-05, 4.47604725e-05, 0., 0., 0.,
          0., 0., 0., 0., 0., 0., 0., 0., 9.47200169e-05, 6.37223775e-06,
          -3.85039690e-04, 7.14397684e-05, 9.80135446e-05,
          1.09716610e-04, 1.20342549e-04, 1.74897272e-04, 0.,
          4.47604725e-05, 4.47604725e-05, 0., 0., 0., 0., 0., 0., 0., 0.,
          0., 0., -5.21119684e-04, 1.64310230e-04, 6.87052816e-05,
          1.00547302e-04, 4.83398508e-05, 6.42547529e-05, 9.14109041e-05,
          6.75544143e-05, 1.92541280e-04, 1.04353392e-04, 0.,
          4.47604725e-05, 4.47604725e-05, 4.47604725e-05, 0., 0., 0., 0.,
          0., -6.85429899e-04, 0., 0., 0., 1.64310230e-04,
          2.31095633e-04, 1.00266872e-04, 6.98860604e-05, 9.27322253e-05,
          7.61945557e-05, 1.18900687e-04, 1.44635473e-04, 8.22857255e-05,
          1.39621217e-04, 2.29071855e-04, 1.55552712e-04, 1.09700530e-04,
          1.09700530e-04, 1.03328297e-04, 9.57489319e-05 ]
      - [ 0., 0., 0., 0., -4.09752647e-06, 0., -4.09752647e-06,
          -1.02209262e-04, -1.72441331e-04, -2.86908878e-04,
          -1.49060696e-04, -1.08782340e-04, -8.16153915e-05,
          -9.62127669e-05, -4.78246002e-05, -5.68788164e-05,
          1.74930203e-04, 3.77461169e-04, 4.95886838e-04, 4.85092547e-04,
          0., 0., 0., 0., 0., -4.19662174e-05, -9.96441449e-05,
          -1.69363848e-04, -1.39078285e-04, -3.90470232e-05,
          -2.09057398e-04, -1.30852946e-04, -2.79797696e-05,
          -1.36142671e-05, 1.35675247e-04, -8.04372685e-05,
          1.87412309e-06, -1.24504324e-04, 0., 0., 0., 0., 0., 0.,
          -4.07781808e-05, -3.52608040e-05, 8.88681898e-05,
          -4.42386272e-06, 2.40064051e-04, 1.86803609e-05,
          1.30494635e-04, 1.66964077e-04, -3.66678432e-05,
          -1.96789588e-05, -2.36674896e-04, -2.90360185e-04,
          -1.33220165e-04, -1.29750624e-04, -1.24504324e-04, 0., 0., 0.,
          -9.50429876e-06, -6.53704556e-05, -7.32405679e-05,
          -9.72314519e-05, 1.65026460e-04, -4.33770147e-05,
          6.85411069e-05, 1.81823649e-04, 1.02700709e-04, 1.12738970e-04,
          3.51327690e-05, 0., -1.39368552e-04, -1.17021627e-04,
          -1.40822289e-04, -2.57925189e-04, -1.57233633e-04, 0., 0., 0.,
          -1.03239145e-04, 2.64875580e-05, 1.05661184e-05,
          1.43853045e-04, -7.41624717e-06, 1.50319174e-04,
          9.86865925e-05, 1.20432691e-04, 1.47419851e-05, 0., 0., 0., 0.,
          -1.39368552e-04, -1.20839148e-04, -1.79120922e-04,
          -1.63890159e-04, -1.62373006e-04, 0., -7.44898425e-05,
          4.76991554e-05, -3.14683166e-05, 3.48779904e-05,
          -1.05989529e-04, 1.85422949e-04, 1.20432691e-04,
          4.40881786e-06, 0., 0., 0., 0., 0., 0., 0., -1.39368552e-04,
          -2.27947006e-04, -1.62086872e-04, -3.84740415e-04, 0.,
          2.12696705e-05, -2.35155449e-06, 4.43664539e-05,
          -5.39562971e-05, 1.92764186e-04, 1.20432691e-04, 0., 0., 0.,
          0., 0., 0., 0., 0., 0., 0., -1.61797681e-04, -3.07492854e-04,
          -4.90098028e-04, -6.12729273e-05, 2.13224303e-05,
          1.44099715e-04, 1.45560814e-04, 1.08875400e-04, 5.75356316e-05,
          0., 0., 0., 0., 0., 0., 0., 0., 0., 0., 0., -1.39368552e-04,
          -1.15625138e-04, -5.76086459e-04, 9.04997287e-05,
          1.21851030e-04, 2.69365355e-05, -1.94101631e-05,
          4.21481964e-05, 0., 0., 0., 0., 0., 0., 0., 0., 0., 0., 0., 0.,
          0., -1.61797681e-04, -7.76201254e-04, -1.49746003e-04,
          1.10274639e-04, 3.62889550e-05, 8.52999219e-05, 0., 0., 0., 0.,
          0., 0., 0., 0., 0., 0., 0., 0., 0., 0., -1.81570780e-04,
          -7.41279102e-04, -8.51027216e-05, 2.44522409e-04,
          1.37916417e-04, 0., 0., 0., 0., 0., 0., 0., 0., 0., 0., 0., 0.,
          0., 0., 0., -1.24295912e-04, -6.16668374e-04, 7.81068957e-05,
          2.08096390e-04, 0., 0., 0., 0., 0., 0., 0., 0., 0., 0., 0., 0.,
          0., 0., 0., 0., -2.54893268e-04, -5.93479723e-04,
          5.18991801e-05, 2.57405685e-04, 0., 0., 0., 0., 0., 0., 0., 0.,
          0., 0., 0., 0., 0., 0., 0., -9.96441449e-05, -2.28513090e-04,
          -5.17247827e-04, -1.14624461e-04, 1.36285089e-04,
          2.53235771e-06, 0., 0., 0., 0., 0., 0., 0., 0., 0., 0., 0., 0.,
          0., -9.96441449e-05, -2.08887330e-04, -1.41602359e-04,
          -4.03004378e-04, -1.18104108e-04, -1.00452467e-04,
          2.61496607e-04, 2.53235771e-06, 2.34367212e-06, 0., 0., 0., 0.,
          0., 0., 0., 0., 0., 0., -9.96441449e-05, -1.03138860e-04,
          -8.00728012e-05, -2.16814689e-04, -2.66886171e-04,
          -1.12488597e-05, 1.27025807e-04, 3.43900901e-05,
          2.04798649e-04, 6.48339992e-05, 2.53235771e-06, 8.73911688e-07,
          0., 0., 0., 0., 0., 0., 0., -1.44581700e-05, -1.35522234e-04,
          -1.40013348e-04, -8.62293091e-05, -1.99665839e-04,
          -3.27926000e-06, 7.72818385e-05, 1.54009540e-05,
          -5.29489662e-05, 7.42775665e-05, 1.84602017e-04,
          1.78244722e-04, 6.48339992e-05, 2.53235771e-06, 2.53235771e-06,
          0., 0., 0., 0., 0., -1.62875527e-04, -1.35054986e-04,
          -1.93772619e-04, -8.92262033e-05, -2.73301353e-04, 0.,
          4.91728970e-05, -3.44792461e-05, 2.84412581e-05,
          -3.43219763e-05, 6.98109434e-05, 7.56374720e-05,
          1.84602017e-04, 1.96662615e-04, 6.48339992e-05, 6.73663526e-05,
          2.53235771e-06, 0., -9.96441449e-05, -9.11487223e-05,
          -1.62483833e-04, -1.93772619e-04, -1.35231094e-04,
          -2.03559292e-04, 0., 0., 0., 8.52999219e-05, -9.15486671e-05,
          1.72440341e-05, 3.04551195e-05, 5.86751958e-06, 1.09180837e-04,
          1.31083871e-04, 0., 1.96662615e-04, 1.20605910e-05,
          -1.25958861e-04, -1.16155235e-04, -1.21670033e-04,
          -7.56825466e-05, -3.52773641e-04, -1.11503672e-04, 0., 0., 0.,
          0., 0., 0., 0., -1.28475614e-04, -4.04973282e-04,
          -2.17944296e-04, -2.47996970e-04, -2.17508452e-04,
          -2.56115920e-04, -2.17586581e-04, -9.93742506e-05,
          -1.70212559e-04, 1.56507842e-04, 3.27303540e-04,
          2.82520428e-04, 3.37826204e-04, 3.37826204e-04, 2.85209710e-04,
          2.85209710e-04 ]
      - [ 0., 0., 0., 0., 0., 0., 0., -8.32124715e-05, -2.49940094e-05,
          -7.53959030e-05, -8.22296934e-05, 1.15348994e-04,
          3.44941400e-05, 7.71110281e-05, 1.73516019e-04, 1.05088766e-04,
          1.26295228e-04, 1.62201439e-04, 2.92832963e-04, 2.90143740e-04,
          0., 0., 0., 0., 0., 0., -8.32124715e-05, -3.08482340e-05,
          1.81193791e-05, 1.94769145e-05, -2.03374628e-04,
          -1.67299135e-04, -5.04130840e-05, 1.16534851e-04,
          1.16534851e-04, 1.33779264e-04, 0., 0., 0., 0., 0., 0., 0., 0.,
          0., -8.24102754e-05, 8.92555108e-05, -5.53401987e-05,
          1.81537598e-05, -1.51609886e-04, 9.07998183e-05,
          -5.80254309e-05, 9.69657849e-05, 1.33779264e-04, 0., 0., 0.,
          0., 0., 0., 0., 0., 0., -1.50917022e-05, 2.51078764e-05,
          1.40612328e-05, 4.61894997e-05, -2.49555189e-04,
          5.62749847e-05, 4.86279096e-05, 4.72637548e-05, 4.08010783e-05,
          -3.68134788e-05, 0., 0., 0., 0., 0., 0., 0., 0.,
          -1.50917022e-05, -2.59168246e-05, 2.66029274e-05,
          -1.14911774e-04, 7.48296370e-05, -1.56334514e-04,
          7.24185302e-05, 9.67843298e-05, 6.19657148e-05,
          -1.27645500e-04, -6.00148669e-05, -3.68134788e-05, 0.,
          -2.07890087e-04, 0., 0., 0., 0., 0., -2.60405841e-06,
          -8.32124715e-05, -9.97572497e-05, 6.90790475e-05,
          -1.18509277e-04, 5.18188572e-05, 1.34133370e-04,
          3.54750882e-05, -7.45972357e-05, -1.33618931e-04,
          -1.08396132e-04, -1.18778873e-04, -3.68134788e-05, 0., 0., 0.,
          0., 0., 0., 0., -1.08647117e-04, 4.73765904e-05,
          -1.63134493e-04, -2.61905871e-06, 1.49685337e-04,
          1.12096306e-04, 1.33779264e-04, -9.83041755e-05,
          -5.96150676e-05, -1.34675152e-04, -1.08396132e-04,
          -1.18778873e-04, -4.79657410e-06, 0., 0., 0., 0., 0., 0., 0.,
          -8.26382748e-05, -1.19434000e-04, 2.52902362e-04,
          1.82879958e-04, 4.73818654e-05, 9.02354222e-05, 0.,
          -9.71205154e-05, -6.88741638e-05, -1.34130896e-04,
          -1.08396132e-04, -1.55592352e-04, 0., 0., 0., 0., 0., 0., 0.,
          0., 4.50407279e-05, 3.67013912e-04, 2.31446204e-04,
          2.55219365e-05, 6.61026934e-05, 0., 0., -9.83041755e-05,
          -7.90524573e-05, -1.34130896e-04, -1.08396132e-04,
          -1.55592352e-04, 0., 0., 0., 0., 0., 0., 0., 0.,
          4.37393814e-04, 2.80197302e-04, 1.34133370e-04, 1.33779264e-04,
          0., 0., 0., -9.28001464e-05, -7.77599998e-05, -1.11472669e-04,
          -1.08396132e-04, -1.40751930e-04, 0., -1.22386904e-04, 0., 0.,
          0., 0., 0., 0., 5.16642351e-04, 2.44766910e-04, 1.51377768e-04,
          0., 0., 0., 0., -8.32124715e-05, -1.04757542e-04,
          -7.53018394e-05, -1.08396132e-04, -1.64289100e-04, 0.,
          -2.13757958e-04, 0., 0., 0., 0., 0., 0., 5.75948041e-04,
          2.40258276e-04, 0., 0., 0., 0., 0., -1.16048781e-04,
          -8.63187670e-05, -4.03530175e-05, -1.08396132e-04,
          -1.58758456e-04, 0., -2.13757958e-04, 0., 0., 0., 0., 0., 0.,
          3.80905985e-04, 3.09060270e-04, 0., 0., 0., 0., 0.,
          -1.20760720e-04, -7.23758421e-05, -6.54955584e-05,
          -1.08396132e-04, -1.06531901e-04, 0., -2.13757958e-04, 0., 0.,
          0., 0., 0., 0., 4.28430445e-04, 2.71034689e-04, 1.44395570e-04,
          0., 0., 0., 0., -1.20760720e-04, -1.02586811e-04,
          -6.54955584e-05, -1.08396132e-04, -1.06531901e-04, 0.,
          -2.13757958e-04, 0., 0., 0., 0., 0., 0., 3.85911611e-04,
          1.28538770e-04, 2.71034689e-04, 1.44395570e-04, 1.33636684e-04,
          0., 0., -1.20760720e-04, -1.10139554e-04, -3.74210613e-05,
          -1.78114555e-04, -3.68134788e-05, 0., -2.13757958e-04, 0., 0.,
          0., 0., 0., 0., 2.61563080e-04, 1.26073865e-04, 8.30355420e-05,
          2.71034689e-04, 0., 1.44395570e-04, 4.98306290e-05,
          -1.20760720e-04, -1.10139554e-04, -3.33924363e-05,
          -1.78114555e-04, -3.68134788e-05, 0., -2.13757958e-04, 0., 0.,
          0., 0., 0., 0., 2.18932735e-04, 7.62917844e-05, 7.30206812e-05,
          9.29868183e-05, 7.26017533e-05, 2.08594603e-04, 0.,
          2.36348515e-05, 5.15954707e-05, -4.84841366e-05,
          -9.89660475e-05, -7.20953540e-05, 0., -2.13757958e-04, 0., 0.,
          0., 0., 0., 0., 7.71198102e-05, 1.27783816e-04, 7.62917844e-05,
          2.84458456e-05, 1.08174085e-04, 1.23037462e-04, 1.00368277e-04,
          9.61809783e-05, -4.85388846e-05, 8.44102324e-05,
          -5.01778304e-05, -1.26874715e-04, 0., -2.13757958e-04, 0., 0.,
          0., 0., 0., 0., 0., 1.33779264e-04, 2.43964561e-04,
          1.05746753e-04, 7.62917844e-05, 6.00014828e-05,
          -1.56051843e-04, -2.23948373e-04, -1.38995849e-04,
          2.38010434e-05, -2.09725738e-04, -3.94676026e-04,
          7.36933580e-05, -1.40865362e-04, 4.29048778e-05,
          -1.04895407e-04, -1.04895407e-04, -1.81782496e-04,
          -2.08582584e-04, -2.19480353e-04, -3.20150924e-04,
          -4.73270862e-04, -5.14244719e-04, -6.30102761e-04,
          -3.86138185e-04, -3.14153964e-04, -3.17176513e-04,
          -1.94620166e-04, -1.36738890e-04, -2.44708062e-04,
          -8.96596684e-05, -5.10508471e-05, -7.72896892e-05,
          1.81278228e-05, 1.91812316e-04, 1.64181984e-04, 1.96292880e-04,
          6.66499473e-05, -2.54326605e-05, -3.42149979e-05 ]
      - [ 0., -2.43310824e-05, -1.10195295e-04, -2.53993028e-04,
          -2.74892547e-04, -4.57304443e-04, -4.32973349e-04,
          -1.37355455e-04, -8.36829131e-05, -2.22197632e-05,
          -3.38061727e-05, 1.88167440e-04, 1.61648830e-04,
          1.28370652e-04, 7.24080310e-05, 5.51826306e-05, 8.28798075e-05,
          1.46891180e-04, 2.65537557e-04, 2.57694919e-04,
          -9.96649760e-05, -5.56309315e-05, -1.03626153e-04,
          -1.28962365e-05, 0., 0., 0., -1.77231792e-04, -1.86895249e-05,
          2.64274386e-05, 4.95389359e-05, -5.50775367e-05,
          1.14986387e-05, 1.18186406e-04, 1.30566696e-04, 1.21296434e-04,
          8.66972823e-06, 0., 0., 0., -6.46059707e-05, -9.75266157e-05,
          0., 0., 0., 6.12424919e-05, 1.30588276e-04, 9.01820895e-05,
          -1.62244512e-04, 3.56679084e-05, -5.98048755e-05,
          9.30617098e-05, 3.47489404e-05, 9.90766712e-05, 8.66972823e-06,
          0., 0., 0., 0., 0., -8.14063897e-05, 0., 0., 0.,
          1.30588276e-04, 2.45584397e-05, 9.40139216e-05, 6.24914610e-05,
          5.40013607e-05, -8.87907663e-05, 1.01613085e-04,
          -6.04247070e-05, -1.00151601e-05, -1.01411519e-04,
          -2.22197632e-05, 0., 0., 0., 0., 0., 0., 0., 0.,
          1.30588276e-04, 3.76831704e-05, 1.18493619e-04, 7.10641907e-05,
          1.12722395e-04, 1.33356210e-04, 1.21296434e-04,
          -2.41199246e-04, -8.14063897e-05, -7.63077551e-05,
          -1.20096411e-04, 0., -2.22197632e-05, 0., 0., 0., 0., 0., 0.,
          1.30588276e-04, 9.01820895e-05, 1.18919488e-04, 5.78758118e-05,
          1.13994800e-04, 1.40961653e-04, 1.08796587e-06, 0., 0.,
          -6.24252498e-05, -1.21084689e-04, -1.25837032e-04, 0., 0.,
          -2.22197632e-05, 0., 0., 0., 0., 1.30588276e-04,
          9.01820895e-05, 1.25733495e-04, 1.29105669e-04, 1.18993157e-04,
          1.21296434e-04, 0., 0., 0., 0., -1.82411895e-04,
          -8.77227649e-05, -1.08841145e-04, -1.01411519e-04, 0.,
          -2.22197632e-05, -5.57672502e-06, 0., 0., 6.29829228e-05,
          1.70181622e-04, 1.06327563e-04, 1.26297557e-04, 6.15949102e-05,
          7.59678151e-05, 0., 0., 0., 0., 0., 0., -8.15796884e-05,
          -3.96782998e-05, -1.16725801e-04, 0., 0., -2.22197632e-05, 0.,
          0., 1.30588276e-04, 1.50291948e-04, 1.44242615e-04,
          2.33794053e-05, 5.56508421e-05, 0., 0., 0., 0., 0., 0., 0.,
          -2.02450930e-04, 0., -1.81310854e-04, 0., 0., -2.22197632e-05,
          0., 0., 2.68941978e-04, 1.45865037e-04, 1.18792239e-04,
          1.12626702e-04, 0., 0., 0., 0., 0., 0., 0., 0.,
          -2.02450930e-04, 0., -2.10252663e-04, 0., 0., -2.22197632e-05,
          0., 0., 2.80880224e-04, 1.65209043e-04, 1.19647004e-04, 0., 0.,
          0., 0., 0., 0., 0., 0., 0., -1.97342946e-04, -4.23862075e-05,
          -2.10252663e-04, 0., 0., -2.22197632e-05, 0., 0.,
          3.36112658e-04, 2.07756326e-04, 0., 0., 0., 0., 0., 0., 0., 0.,
          0., 0., -2.02450930e-04, -4.23862075e-05, -2.10252663e-04, 0.,
          0., -2.22197632e-05, 0., 0., 2.81694200e-04, 2.22136776e-04,
          0., 0., 0., 0., 0., 0., 0., 0., 0., 0., -3.91934846e-05,
          -4.23862075e-05, -2.10252663e-04, 0., 0., -2.22197632e-05, 0.,
          0., 2.85075628e-04, 2.08016674e-04, 6.56236516e-05, 0.,
          -5.93732839e-05, -1.82411895e-04, -1.82411895e-04,
          -4.43511271e-05, 0., 0., 0., -1.82411895e-04, -8.34495877e-05,
          0., -7.42849370e-05, 0., -2.22197632e-05, 0., 0., 0.,
          2.80476175e-04, 2.75448019e-05, 2.56047861e-05, 4.55846130e-05,
          1.01671026e-06, -9.01562598e-05, -9.01562598e-05,
          -1.08702196e-04, -8.43654998e-05, -1.10195295e-04,
          -9.01562598e-05, -9.76217852e-05, -1.23792604e-04,
          -1.28032072e-04, 0., -2.22197632e-05, 0., 0., 0., 0.,
          4.03069243e-05, 6.31606017e-05, 1.08487484e-05, 1.92497191e-05,
          -1.32165384e-04, -7.60132098e-05, -1.01623169e-04,
          -1.99867674e-04, -1.03626153e-04, -1.46012360e-04,
          -1.46012360e-04, -4.22588018e-05, -3.23072483e-04,
          -9.01562598e-05, -8.11001883e-05, 0., 0., 0., 0., 0.,
          3.61022694e-06, -1.11222624e-04, -6.93433249e-05,
          -3.17338345e-05, 1.08842971e-04, 3.26642148e-05,
          1.16323436e-05, 6.51840091e-05, -1.35473121e-04,
          -1.20096411e-04, -1.21450561e-04, -2.25204116e-04,
          -9.01562598e-05, -1.66051395e-04, -3.48463305e-04,
          -1.71562657e-04, -5.25007745e-05, 0., 0., 0., -5.51704252e-05,
          -7.87996614e-05, 1.76671147e-05, 2.98853665e-05,
          1.19247279e-05, 2.94943602e-05, -5.23626150e-05,
          -9.91010893e-06, 1.16323436e-05, 4.55846130e-05,
          -2.75806760e-05, -1.12376023e-04, -4.09046515e-05,
          -1.20096411e-04, -1.12329355e-04, -1.58490657e-04,
          -3.48463305e-04, -2.13948864e-04, 0., 0., -1.20096411e-04,
          1.10112000e-04, 1.19062381e-04, 9.10510716e-05, 1.41519477e-05,
          -6.61834565e-05, 2.49148507e-05, -6.73947070e-05,
          -1.08599823e-04, 1.02084668e-05, -4.00185381e-05,
          1.16323436e-05, 7.65717414e-05, 6.56236516e-05, 6.56236516e-05,
          -1.86848883e-05, -1.20096411e-04, -3.06043163e-04,
          -1.89890445e-04, -1.74270564e-04, 0., -1.86848883e-05,
          -1.40135438e-04, -1.82521660e-04, -4.34202375e-05,
          2.27283836e-05, -1.22155441e-04, -6.34540993e-05,
          -4.93242151e-05, 1.37926445e-05, 3.64341176e-05,
          4.37536764e-05, 4.08004234e-05, 1.36374569e-04, 2.15922395e-04,
          1.52995606e-04, 1.59776988e-04, 1.59776988e-04, 2.56893763e-05,
          -2.21779934e-04 ]
      - [ -9.13145705e-05, -1.44928374e-04, -2.40906753e-04,
          -2.06887678e-04, -3.14673205e-04, -3.16678954e-04,
          -2.55978695e-04, -2.13013613e-04, -2.45064584e-04,
          -2.07184610e-04, -1.89518832e-04, -7.91444472e-05,
          -9.83516366e-05, -8.13302468e-05, 6.78090946e-05,
          6.54503747e-05, 7.34726491e-05, 1.32798523e-04, 2.22351853e-04,
          2.05556644e-04, -1.64063367e-05, 0., 0., 0., 0., 0., 0.,
          6.71000889e-05, 3.70103808e-05, 1.19800738e-04, 1.43720681e-05,
          -5.91142234e-05, -6.24641616e-05, -6.46684493e-05,
          -1.65652564e-05, -4.80195231e-05, -6.71780508e-05, 0., 0., 0.,
          0., 0., 0., 0., 0., 6.07847833e-05, 9.56900622e-05,
          9.12107571e-05, 7.25562495e-05, 3.70972994e-05, 9.71793634e-05,
          8.41510264e-05, 7.56657537e-05, 1.41537930e-05,
          -7.05453131e-05, -1.93610438e-04, -1.00444704e-04,
          -1.40014221e-04, 0., 0., 0., 0., 0., 0., 9.56900622e-05,
          4.27726154e-05, 1.05254578e-04, 2.80805962e-05, 7.10827226e-05,
          1.00695353e-04, 1.10793058e-04, 8.89793228e-05, 0., 0.,
          -7.33984343e-05, -1.11440480e-04, -1.86345191e-04,
          -1.17070420e-04, -1.01979604e-04, 0., 0., 0., 0.,
          9.56900622e-05, 5.27626762e-05, 8.59931533e-05, 3.62397004e-05,
          1.07193082e-04, 1.07484266e-04, 9.59826139e-05, 0., 0., 0., 0.,
          -4.00777717e-05, -1.47774786e-04, -1.23403443e-04,
          -1.26078099e-04, -1.29733662e-05, -9.87794338e-05, 0., 0.,
          9.56900622e-05, 9.27229194e-05, 8.71451921e-05, 3.74141928e-05,
          1.32268397e-04, 1.05608196e-04, 1.68992046e-05, 0., 0., 0., 0.,
          -2.52909467e-05, -5.22072587e-05, -1.39275144e-04,
          -1.07138912e-04, -8.02722789e-05, -2.85612787e-05,
          -1.01979604e-04, 0., 9.56900622e-05, 9.27229194e-05,
          1.05577761e-04, 1.19827455e-04, 1.13888396e-04, 9.59826139e-05,
          0., 0., 0., -2.08278379e-06, -2.52909467e-05, -5.65069713e-05,
          -6.90865418e-05, -4.80449889e-05, -1.33709749e-04,
          -3.50779192e-05, -5.86612914e-05, -4.92334742e-08,
          -1.01979604e-04, 2.85899787e-05, 1.51053377e-04,
          1.04263454e-04, 1.09399334e-04, 8.80774242e-05, 5.61837442e-05,
          0., -2.52909467e-05, -3.05708418e-05, -5.69044169e-05,
          -6.90865418e-05, -5.69570548e-05, -6.16012112e-05,
          -1.28096828e-04, -1.14845454e-04, -3.50779192e-05,
          -5.41121663e-05, -7.85823649e-05, -1.01979604e-04, 0.,
          9.56900622e-05, 1.15097180e-04, 8.04326482e-05, 4.10994435e-05,
          -2.00783797e-05, -3.37404745e-05, -7.85680459e-05,
          -1.30210028e-04, -8.48505078e-05, -8.66504342e-05,
          -1.22608806e-04, -1.40668431e-04, -6.55376789e-05,
          -2.81904377e-05, 0., -1.04467115e-04, -1.01979604e-04,
          -1.25545357e-05, 0., 0., 1.83567943e-04, 1.31102410e-04,
          1.01414887e-04, 4.74538319e-05, -3.52881070e-05,
          -7.30714164e-05, -9.63554339e-05, -1.32490968e-04,
          -1.82900592e-04, -2.03231670e-04, -1.70328101e-04,
          -1.53159242e-04, -1.47064464e-04, -1.47674800e-04,
          -1.79903989e-04, -7.33338748e-05, -8.46623734e-05,
          -4.95729764e-05, 0., 0., 2.28795892e-04, 1.79685259e-04,
          1.25836174e-04, -3.50305527e-05, -3.50305527e-05,
          -6.89347435e-05, -6.89347435e-05, -1.03982653e-04,
          -1.69111736e-04, -1.05152991e-04, -6.55812910e-05,
          -5.16698492e-05, -3.94623457e-05, -1.02373844e-04,
          -1.27645137e-04, -7.14692796e-05, -1.96430265e-05,
          -7.33338748e-05, -6.10693387e-05, 0., 2.91010889e-04,
          1.85046360e-04, -1.25545357e-05, -1.25545357e-05,
          -7.82812276e-06, -1.25545357e-05, -1.25545357e-05,
          -1.25545357e-05, -1.25545357e-05, -9.33145129e-05,
          -8.94250697e-05, -8.94250697e-05, -2.55369705e-05,
          -4.00643548e-05, -5.94864869e-05, -9.35419230e-05,
          -8.89737639e-05, -8.34363236e-05, -8.97402133e-05,
          -6.10693387e-05, 2.63208611e-04, 1.94840890e-04, 0., 0., 0.,
          0., 0., 0., 0., 0., 0., -1.25545357e-05, -1.25545357e-05,
          -9.11974785e-05, -8.94250697e-05, -2.55369705e-05,
          -7.29059102e-05, -9.79961842e-05, -7.95760061e-05,
          -1.35175273e-04, 2.78844527e-04, 1.51914297e-04,
          4.99503076e-05, 0., 0., 0., 0., 0., 0., 0., 0., 0., 0., 0.,
          -1.25545357e-05, -8.94250697e-05, 0., -9.00691011e-05,
          -1.48620777e-04, -2.17839537e-04, 2.64895294e-04,
          2.11026490e-05, 1.51914297e-04, 4.99503076e-05, 4.62285207e-05,
          0., 0., 0., 0., 0., 0., 0., 0., 0., 0., -1.25545357e-05,
          -8.94250697e-05, 0., -1.23376027e-04, -3.07536713e-04,
          1.87946935e-04, 1.06072010e-04, 1.86792749e-05, 1.51914297e-04,
          0., 4.99503076e-05, 1.72377531e-05, 0., 0., 0., 0., 0., 0., 0.,
          0., 0., -1.25545357e-05, -8.94250697e-05, -1.69714549e-04,
          -3.00378015e-04, 1.23359467e-04, 7.84950971e-05,
          6.37910925e-05, 1.47389501e-05, 9.00261148e-05, 9.87274470e-05,
          0., 4.99503076e-05, 4.99503076e-05, 0., 0., 0., 0., 0., 0., 0.,
          -7.01775352e-05, -1.72685657e-04, -1.95173649e-04,
          -1.47573403e-04, 4.47601597e-05, 9.72357520e-05,
          9.41118997e-05, 5.05292664e-05, 2.05697379e-05, 2.88352658e-05,
          9.60804609e-05, 1.28988264e-04, 0., 4.99503076e-05,
          4.99503076e-05, 0., 0., -4.19093740e-05, -6.47075576e-05,
          -6.04762208e-05, -1.52675479e-04, -1.09027860e-04,
          -8.99034276e-05, -6.27414847e-05, -5.17228837e-05,
          5.20608373e-05, 7.42779303e-05, 5.99125124e-05, 7.76818706e-05,
          4.21862205e-05, 3.24964058e-05, 1.98446687e-05,
          -6.45473028e-06, 9.08449510e-05, -3.48326757e-05,
          -5.42997186e-05, -1.75687837e-05, -7.83352152e-05,
          -9.53437630e-05, -1.05424442e-04, -1.76140311e-04,
          -3.45875378e-05, -5.61864072e-05, -2.55369705e-05,
          -1.45686281e-04, -2.20085029e-04, -1.57529095e-04,
          -1.63244826e-04, -7.63351418e-05, -4.38345924e-05,
          -1.46866674e-04, -1.74781031e-04, -1.63051925e-04,
          -1.88305799e-04, -6.29462957e-05, -8.81030646e-05,
          -6.74942494e-05, 3.73389594e-06, 1.05356048e-04,
          1.17217460e-04, 9.64720530e-05, 1.09495973e-04, 6.46129047e-05,
          8.64499962e-05 ]
      - [ -1.00121710e-04, -1.95701650e-04, 0., 0., 0., 0., 0., 0.,
          -2.99733474e-05, -1.74425033e-04, -1.21158766e-04,
          4.89975610e-05, -1.00734733e-05, -5.54242652e-05,
          4.86214340e-05, 1.98509806e-04, 1.84758421e-04, 3.12722288e-04,
          4.89180908e-04, 3.22132604e-04, -1.00121710e-04,
          -9.43898340e-05, 0., 0., 0., 0., 0., 1.87925634e-05,
          -1.16434574e-04, 7.30361789e-05, -1.78025992e-04,
          -2.48092692e-04, -1.99986156e-04, 1.26666011e-04,
          2.86445029e-05, 2.14610714e-04, 1.91049730e-05, 0., 0., 0.,
          -1.00121710e-04, -1.04419363e-04, 0., 0., 0., 1.08744593e-04,
          1.03926068e-04, 1.36367098e-05, 6.88472865e-05,
          -1.08733380e-04, -1.34462709e-04, -1.65098609e-04,
          1.09462118e-04, 1.00092648e-05, -1.66713711e-04, 0., 0., 0.,
          0., 0., -9.48382658e-05, -9.43267587e-05, 0., 0.,
          1.33447538e-04, 1.14131335e-05, 1.08594832e-05, 6.14054443e-05,
          -7.66801168e-06, 4.75680281e-05, -1.10984096e-04,
          -6.83705803e-05, -1.59800111e-04, -2.03308911e-04,
          -1.85818673e-04, 0., 0., 0., 0., 0., -7.01821918e-05,
          -1.20152283e-04, 0., 1.33447538e-04, 6.52035305e-05,
          9.22739928e-05, 7.03206679e-05, 3.83363586e-05, 4.92835243e-05,
          9.37379082e-05, -1.75206267e-04, -2.44886352e-04,
          -1.73302717e-04, -2.13820298e-04, -1.85818673e-04, 0., 0., 0.,
          0., 0., -7.01821918e-05, -9.98776886e-05, 1.33447538e-04,
          1.69645718e-04, 5.36045627e-05, -9.31632530e-05,
          2.11671995e-05, 1.61130156e-05, 2.39748692e-06,
          -2.71822646e-05, -2.06719866e-04, -1.91699044e-04,
          -1.45258935e-04, -2.10152168e-04, -1.85818673e-04, 0., 0., 0.,
          0., 0., -1.25425009e-04, 6.97075156e-05, 1.86488542e-04,
          3.52945826e-05, -8.98868439e-06, -4.84028396e-06,
          -6.31671082e-06, 0., 0., -2.92964196e-05, -2.18884481e-04,
          -9.67770466e-05, -2.28910125e-04, -1.73135573e-04,
          -1.85818673e-04, 0., 0., 0., 0., 0., -1.34893649e-04,
          2.77048297e-04, 8.02228533e-05, 7.33072884e-05,
          -1.61697044e-05, -1.29923937e-04, 0., 0., 0., -1.06335310e-05,
          -2.25607815e-04, -1.42389617e-04, -1.91306608e-04,
          -1.73135573e-04, -1.85818673e-04, 0., 0., 0., 0., 0.,
          -4.69843435e-05, 1.95029221e-04, -1.44544567e-04,
          -6.21703148e-05, -7.09090500e-06, 0., 0., 0., 0., 0.,
          -2.25607815e-04, -1.74998917e-04, -1.79237264e-04,
          -1.85204917e-04, -1.85818673e-04, 0., 0., 0., 0., 0.,
          1.26750398e-04, 3.90793721e-05, -5.52865677e-05,
          9.11581301e-05, 0., 0., 0., -6.03125363e-06, -2.42222923e-05,
          -2.42222923e-05, -2.25607815e-04, -1.86307399e-04,
          -1.23823513e-04, -1.85204917e-04, -1.85818673e-04, 0., 0., 0.,
          0., 0., 1.99969199e-05, -9.26502471e-05, -1.26142768e-05,
          -1.05540428e-04, -8.28681295e-05, -8.28681295e-05,
          -8.28681295e-05, -6.42136365e-05, -8.39936693e-05,
          -4.63647157e-05, -2.25607815e-04, -1.47800252e-04,
          -3.53771495e-04, -2.36162421e-04, -2.43619434e-04,
          -5.44687282e-05, -6.97486976e-05, -9.87292879e-05,
          -1.51000684e-04, -1.62716358e-04, 3.89111228e-04,
          1.00084464e-04, -2.11827457e-04, -1.85818673e-04,
          -1.87220241e-04, -1.59740710e-04, -7.45649086e-05,
          -2.98431387e-05, -2.98431387e-05, -2.98431387e-05,
          -1.80103583e-04, -4.22056255e-05, -2.44026436e-04,
          -2.08204801e-04, -1.90714563e-04, -4.32327797e-05,
          -5.60786502e-05, -5.60786502e-05, -5.60786502e-05,
          -5.60786502e-05, 5.13382780e-04, 3.88757879e-04,
          -6.00317762e-05, -1.51314060e-04, -1.56953553e-04,
          -1.26366809e-04, -1.56953553e-04, -1.56953553e-04,
          -1.56953553e-04, -5.32098093e-05, -2.04598386e-04,
          -1.56938244e-04, -3.07412032e-04, -2.25029740e-04,
          -2.15992026e-04, -3.01733398e-05, -1.52042368e-04,
          -1.56079404e-04, -1.87126891e-04, -1.87126891e-04,
          5.10494632e-04, 3.13126860e-04, 6.33351374e-05,
          -9.09857408e-05, -7.28817395e-05, -7.28817395e-05,
          -7.28817395e-05, -7.28817395e-05, -7.28817395e-05,
          -7.28817395e-05, -1.75875932e-04, -2.08205660e-04,
          -2.65599316e-04, -2.76773324e-04, -1.85818673e-04, 0., 0., 0.,
          0., 0., 5.10945218e-04, 2.13991923e-04, 3.54609132e-04,
          1.66390208e-04, 1.06438310e-04, 0., 0., 0., 0., 0., 0.,
          -2.30081307e-04, -2.58966931e-04, -2.86100083e-04,
          -1.85818673e-04, -7.28817395e-05, -7.28817395e-05,
          -7.28817395e-05, -7.28817395e-05, -7.28817395e-05,
          2.90108350e-04, 2.92259763e-04, 1.16908312e-04, 2.92776793e-04,
          8.04336014e-05, 1.62265991e-04, 3.78252262e-05, 0., 0., 0., 0.,
          -2.30004502e-04, -3.50249233e-04, -2.86100083e-04,
          -1.85818673e-04, 0., 0., 0., 0., 0., 2.04017328e-04,
          1.27886495e-04, 2.21390292e-04, 9.51334005e-05, 2.46727112e-04,
          1.67552120e-04, 8.15757885e-05, 1.66390208e-04, 1.11347901e-04,
          0., 0., -1.95654662e-04, -3.62149993e-04, -2.74030754e-04,
          -1.85818673e-04, 0., 0., 0., 0., 0., 1.11958201e-04,
          6.57908531e-05, 1.24735161e-04, 1.73877415e-04, 1.53833927e-04,
          1.30240383e-04, 2.09755584e-04, 2.14991349e-04, 9.55088399e-05,
          1.96353591e-04, 1.66625221e-04, -1.99372298e-04,
          -3.67045868e-04, -2.55926745e-04, -2.15992026e-04, 0., 0., 0.,
          0., 0., 0., 1.94213208e-04, 1.94213208e-04, 8.79994695e-05,
          1.18341210e-04, 1.36113798e-04, 1.68491271e-04, 1.31745022e-04,
          1.82179399e-04, 2.77636078e-04, 5.43394126e-05,
          -1.53696077e-04, -1.07472122e-04, -6.17296173e-05,
          -4.53062094e-05, 0., 0., 0., 0., 0., 0., 0., 0., 0.,
          1.94213208e-04, 2.18008150e-04, 1.08372653e-04, 9.75482908e-05,
          1.00350830e-04, 1.02997103e-04, 2.43727234e-04, 8.62620800e-05,
          -6.57592609e-05, 4.44152211e-05, 8.17239925e-05,
          1.98207621e-04, 2.97922234e-04, 3.59679630e-04, 2.65452923e-04,
          1.95049099e-04 ]
      - [ -1.02539518e-04, -4.44908765e-05, -8.19960696e-05,
          -1.21296325e-04, -1.83097553e-04, -8.30726713e-05,
          -1.93150612e-04, -2.32420090e-04, -2.48768309e-04,
          -2.17005974e-04, -1.75367793e-04, -2.91230645e-05,
          -9.22387553e-05, -1.49536048e-04, -7.49396859e-05,
          -1.10292522e-05, -9.67590386e-05, -1.05816594e-04,
          -9.77705986e-06, -3.19666724e-05, -5.01029754e-05,
          -1.49948028e-04, -1.03905368e-04, -8.57838750e-05,
          -1.66634461e-04, -3.12547090e-05, -2.66155566e-05,
          6.25332468e-05, -1.17091855e-04, -6.90740417e-05,
          -4.67407626e-05, 4.12350964e-05, 1.30772605e-04,
          1.38635733e-04, 1.70041094e-04, 1.48846928e-04, 0., 0., 0., 0.,
          -4.81728785e-05, -1.05568281e-04, -5.75324048e-05,
          -3.62687242e-05, -1.75337482e-04, 5.58939282e-05,
          1.33755777e-04, 1.08260945e-04, 7.51725456e-05, 5.19769710e-05,
          1.92526189e-04, 1.35396796e-04, 1.95089640e-04, 1.27709689e-04,
          0., 0., 0., 0., 0., 0., -4.81728785e-05, -1.40492994e-04,
          -4.66189013e-05, -9.96749222e-05, -4.12328882e-06,
          -9.75389994e-05, 1.95304718e-04, 5.19769710e-05,
          5.04340169e-05, 1.67381368e-04, 2.07977457e-04, 1.16038762e-04,
          0., 0., 0., 0., 0., 0., 0., 0., -4.81728785e-05,
          -1.31147288e-04, -4.48189858e-05, 1.63704244e-05,
          -3.79523408e-05, 8.38560882e-05, 7.97491666e-05,
          1.58373645e-04, 9.43861378e-05, 1.30836808e-04, 0., 0., 0., 0.,
          0., 0., 0., 0., 0., 0., -4.81728785e-05, -1.36707036e-04,
          1.50195076e-04, 1.34797629e-05, -3.62739520e-05,
          -2.81147618e-06, 2.34833351e-04, 1.41037599e-04,
          -1.14756825e-04, 0., 0., 0., 0., 0., 0., 0., 0., 0., 0., 0.,
          -4.81728785e-05, -5.33370394e-06, 1.64674319e-04,
          6.91581590e-05, 4.93213411e-05, 1.98960974e-04, 1.30836808e-04,
          0., -1.14756825e-04, -1.50999824e-06, -4.63915103e-06,
          -4.63915103e-06, -4.63915103e-06, -4.63915103e-06,
          -1.50999824e-06, 0., 0., 0., 0., 0., 5.29169802e-06,
          9.56213771e-05, 8.63194437e-05, 8.81770393e-05,
          -8.92481476e-05, 2.91369070e-05, -5.97726503e-05,
          -5.80261440e-05, -1.93584201e-04, -8.17490582e-05,
          -8.65180555e-05, -8.65180555e-05, -3.25243600e-05,
          -2.72164198e-05, -3.78595814e-06, -5.16860700e-06,
          -8.42510963e-06, 0., 0., 0., 8.75533005e-05, 9.52254777e-05,
          7.36432412e-05, 3.52340576e-05, -1.28114421e-04,
          -5.48761018e-05, -6.99369630e-05, -3.39811158e-05,
          -1.88207501e-04, -7.66627418e-05, -7.66627418e-05,
          -2.98349296e-05, -2.02252468e-05, -2.02252468e-05,
          -7.15727874e-05, -4.03357699e-05, -4.03357699e-05,
          -8.42510963e-06, -3.78595814e-06, 0., 2.29063458e-04,
          8.92837052e-05, 8.80901061e-05, -1.78898947e-04,
          -9.12856049e-05, -7.16703871e-05, 0., 0., -1.66495825e-04,
          -2.25798547e-04, -6.96875213e-05, -6.96875213e-05,
          -5.85576854e-05, -5.64374968e-05, -1.66495825e-04,
          -2.02252468e-05, -7.15727874e-05, -4.03357699e-05,
          -8.42510963e-06, 0., 3.25150497e-04, 1.86646124e-04,
          1.54329071e-04, -1.68979415e-04, -6.12438453e-05,
          -3.49247093e-05, -3.49247093e-05, -3.49247093e-05,
          -3.49247093e-05, -3.49247093e-05, -5.55573861e-05,
          -1.32696659e-04, -1.31879744e-04, -1.16819887e-04,
          -1.15533614e-04, -1.79193987e-04, -1.66495825e-04,
          -9.81883422e-05, -3.14087556e-05, -3.78595814e-06,
          4.94186883e-04, 2.98642117e-04, 0., -2.18732297e-04,
          -1.01782323e-04, -8.23951705e-05, -7.49142564e-05,
          -7.49142564e-05, -7.49142564e-05, -2.82030142e-05, 0., 0.,
          -4.91607643e-05, -1.78742746e-04, -1.60533542e-04,
          -1.23109494e-04, -1.29728593e-04, -1.88938153e-04,
          -3.97074400e-05, -2.21453211e-05, 4.67232603e-04,
          2.47522985e-04, 0., 0., 0., 0., 0., 0., 0., 0., 0., 0.,
          -1.41015071e-05, -7.49142564e-05, -7.49142564e-05,
          -3.49247093e-05, -2.65332230e-04, -1.83562384e-04,
          -1.47186031e-04, -4.23705678e-05, 5.56547486e-04,
          1.87131198e-04, 6.03853841e-05, 0., 0., 0., 0., 0., 0., 0., 0.,
          0., 0., 0., 0., 0., -6.84510669e-05, -2.54589948e-04,
          -2.72040692e-04, -1.23036545e-04, 4.29309934e-04,
          1.88674996e-04, 1.87131198e-04, 6.03853841e-05, 5.58860811e-05,
          0., 0., 0., 0., 0., 0., 0., 0., 0., 0., 0., 0.,
          -1.84225864e-04, -3.42832413e-04, -2.80791748e-04,
          3.31911724e-04, 1.51479006e-04, 1.44558493e-04, 1.87131198e-04,
          0., 6.03853841e-05, 2.08388774e-05, 0., 0., 0., 0., 0., 0., 0.,
          0., 0., -3.78595814e-06, -1.84225864e-04, -2.32762875e-04,
          -3.85329942e-04, 1.80011644e-04, 1.86092730e-04,
          6.68912689e-05, 1.26901694e-04, 1.12722017e-04, 1.23353631e-04,
          0., 6.03853841e-05, 6.03853841e-05, 0., 0., 0., 0., 0., 0.,
          -3.78595814e-06, -1.84107092e-04, -1.49520856e-04,
          -2.22821705e-04, -2.71284109e-04, 7.35245558e-05,
          1.32034082e-04, 1.86132733e-04, 3.33007847e-05, 1.58342446e-04,
          1.39006443e-04, 1.26451196e-04, 1.63557997e-04, 0.,
          6.03853841e-05, 6.03853841e-05, 0., 0., -3.78595814e-06,
          -3.78595814e-06, -1.77447830e-04, -1.55550297e-04,
          -2.32144637e-04, -2.64117902e-04, 0., -6.08157134e-05,
          4.42548735e-05, 1.69571795e-04, 1.16073301e-04, 1.35836453e-04,
          7.84738077e-05, 1.58454859e-04, 1.72488639e-04, 2.35732114e-05,
          1.87131198e-04, 7.44091885e-05, -3.78595814e-06,
          5.65994269e-05, -7.95517044e-05, -1.61765303e-04,
          -3.39958380e-04, -2.08484678e-04, -1.29200896e-04, 0., 0.,
          -1.20275676e-04, -1.20735931e-04, -2.86040828e-04,
          -2.57257430e-04, -2.43780261e-04, -1.87804995e-04,
          -2.32011109e-04, -2.91351782e-04, -1.87791447e-04,
          -2.12622486e-04, -2.06321216e-04, -2.43216564e-04,
          -2.41495974e-04, -2.36936423e-04, 1.37615454e-04,
          9.08530637e-05, 2.11692764e-04, 2.11692764e-04, 1.34685615e-04,
          1.26295563e-04 ]
      - [ 0., 0., 0., 0., 0., 0., -3.35975092e-05, -1.16994299e-04,
          -1.20553843e-04, -1.07652224e-04, 6.45913997e-06,
          8.61466615e-05, 6.07808870e-05, -1.35726965e-04,
          6.93786933e-05, -7.34943387e-05, -1.36641218e-04,
          3.16416736e-05, 5.25796728e-04, 5.38923836e-04, 0., 0., 0., 0.,
          -3.35975092e-05, -3.35975092e-05, 0., -1.31455809e-05,
          -1.09311382e-04, 3.34367724e-05, -1.96741275e-05,
          2.91053857e-06, 1.49234285e-04, 1.57390983e-04, 3.12997698e-04,
          3.68828245e-04, -1.39017618e-04, -1.97193280e-04,
          -1.35326904e-04, 0., 0., 0., 0., -3.35975092e-05, 0.,
          6.47116685e-05, 9.10221279e-05, 1.85735844e-05, 2.09190694e-04,
          2.50673293e-05, 3.39968130e-04, 5.46526244e-05, 6.46847329e-05,
          3.21260770e-04, -6.51236187e-05, -1.56915412e-04,
          -1.69745894e-04, -1.65975260e-04, -7.30588945e-05, 0., 0., 0.,
          -3.35975092e-05, 0., 8.04693846e-05, -5.75939282e-07,
          1.58545910e-04, -4.27299528e-05, 9.97833995e-05,
          1.12788723e-04, 2.99641746e-04, 3.19011015e-04,
          -6.80917001e-05, 0., -1.33916576e-04, -1.67602338e-04,
          -4.12882910e-05, -4.06035979e-05, -9.86359009e-05,
          -1.05088448e-05, 0., -3.35975092e-05, -3.04353907e-05,
          1.11114299e-04, 7.67149759e-05, 8.42942463e-05,
          -5.68765790e-05, 2.57974432e-04, 1.77423019e-04,
          3.32232914e-04, -8.81419037e-05, 0., 0., -9.45293505e-05,
          -1.33916576e-04, 0., -9.14087796e-05, -6.60565420e-05,
          -1.03101913e-04, -8.96534038e-05, 0., -3.35975092e-05,
          1.11114299e-04, 1.36812188e-04, 5.23956760e-06, 8.19230263e-05,
          1.55003974e-04, 1.46668244e-04, -9.60556354e-05, 0., 0., 0.,
          -1.33916576e-04, -1.33916576e-04, 0., 0., 0., -5.18545385e-05,
          -1.86498699e-04, -9.98590476e-05, -3.35975092e-05,
          1.70402098e-04, 1.46350227e-04, 8.40577050e-05, 4.12117166e-04,
          3.28591384e-04, 9.37693403e-05, -9.60556354e-05, 0., 0.,
          -5.67176103e-05, -4.67395112e-05, -1.17111362e-04, 0., 0., 0.,
          -2.08674392e-05, -3.67496577e-05, -1.86498699e-04,
          -7.57026864e-05, -3.35975092e-05, 2.63457274e-04,
          2.67106167e-04, 3.07329727e-04, 6.08165101e-05, 8.61848966e-05,
          -8.81419037e-05, 0., 0., 0., -1.33916576e-04, -6.72208698e-05,
          0., -3.85487838e-05, -6.18235208e-05, 0., -2.87851290e-05,
          -1.03101913e-04, -1.86498699e-04, -8.44031019e-05,
          1.64473124e-04, 2.19315232e-04, 3.06147442e-04,
          -1.37999159e-04, -1.16214607e-04, -1.23066595e-04,
          -8.55330654e-05, -1.10369896e-04, -1.84829274e-04,
          -2.52023980e-04, -1.32957663e-04, -4.30535911e-05,
          -8.06028620e-05, -3.79524754e-05, -1.31039982e-04,
          -4.63211072e-05, -6.62625898e-05, -1.79842231e-04,
          -1.93453583e-04, -8.33967861e-05, 2.44921946e-04,
          2.98630213e-04, 1.14413568e-04, -4.89371014e-05,
          -6.18235208e-05, -6.18235208e-05, -8.17334658e-05,
          -8.17334658e-05, -2.15914595e-04, -2.55103485e-04,
          -9.81571866e-05, -1.32637622e-04, -1.54247144e-04,
          -1.26087922e-04, -1.14313778e-04, -1.56063586e-04,
          -3.15888436e-04, -2.44976458e-04, -1.69902705e-04,
          -6.18235208e-05, 2.87367788e-04, 4.28370375e-04,
          1.25139661e-04, -4.04745282e-04, -4.33595647e-04,
          -3.88800254e-04, -3.82892089e-04, -5.25008072e-04,
          -4.16801369e-04, -1.06667387e-04, -1.08632295e-04,
          -8.64583708e-05, -5.39180764e-05, -7.69169128e-05,
          -3.58293146e-05, -2.76332903e-05, -2.04580909e-04,
          -1.75628476e-04, -3.24245892e-04, -2.12191182e-04,
          3.53177922e-04, 2.10236001e-04, -1.45333703e-04,
          -1.65284961e-04, -4.43776196e-04, -5.30732505e-04,
          -3.53194075e-04, -1.01334044e-04, -7.83909345e-05,
          -1.67410632e-04, -1.44045596e-04, -4.79369832e-04,
          -2.09333943e-04, -6.19231432e-04, -6.11690106e-04,
          -2.60981702e-04, -2.86836294e-04, -2.38885230e-04,
          -2.86594382e-04, -3.17765021e-04, 2.44293973e-04,
          3.58812576e-05, 0., -1.23319725e-04, -2.18805653e-04,
          -2.99535634e-04, -1.77138194e-04, -2.02223280e-04, 0.,
          -4.24587997e-05, -4.24587997e-05, -1.04567880e-04,
          -1.71383930e-04, -4.90922132e-04, -3.76314449e-04,
          -3.21000116e-04, -2.15861335e-04, -5.28455479e-04,
          -4.01869009e-04, -5.30894264e-04, 2.03050469e-04,
          -6.02563996e-05, 7.51215193e-05, 0., -3.35975092e-05,
          -3.37341975e-04, -1.92593507e-04, 0., 0., -4.32919205e-06,
          -3.09990173e-05, -3.58293146e-05, -2.90317512e-05,
          -6.85655177e-05, -3.27197558e-05, -1.79452429e-04,
          -3.19695595e-04, -6.04377012e-04, -3.58105986e-04,
          -8.35955376e-04, 5.36645166e-05, -1.91507734e-05,
          2.46546697e-04, -6.13414741e-05, -2.25358934e-04,
          -2.93997073e-05, 0., -2.88612819e-06, -2.29988327e-05,
          -3.58293146e-05, -3.58293146e-05, -4.53491630e-05,
          -6.72726019e-05, -9.37318255e-05, -3.88401968e-04,
          -1.24752041e-04, -7.50347899e-05, -5.00859984e-04,
          -3.84952902e-04, -8.73983488e-04, 1.68845450e-04,
          5.49464457e-05, 1.39585056e-04, -7.28046580e-05,
          -3.23746535e-05, 4.34889189e-05, 1.81678188e-05,
          -3.58293146e-05, -3.58293146e-05, -2.29319303e-05,
          -6.72726019e-05, -5.22291848e-05, -8.48635827e-05,
          -8.33967861e-05, -1.98033493e-04, -8.42477020e-05,
          -5.75241575e-04, -1.02494225e-04, -5.06196695e-04,
          -6.79772696e-04, 1.08788714e-04, -2.53100734e-04,
          -1.92169653e-04, 3.38869104e-05, 1.86600271e-04,
          9.95660812e-05, -5.18440174e-06, 3.24756511e-05,
          -5.88348212e-06, -5.66952003e-05, -8.33967861e-05,
          -8.33967861e-05, 0., -3.54722433e-04, -1.36858318e-04,
          -1.51982589e-04, -5.86896553e-04, -3.23560904e-04,
          -4.65378747e-04, -2.20093716e-04, -2.15134220e-04,
          -2.44197028e-04, 1.64021083e-04, -8.56370607e-05,
          2.49116420e-05, 8.52540252e-05, 1.35009715e-04, 1.67563321e-05,
          -5.27518750e-05, 2.23696425e-05, 7.51215193e-05, 0.,
          -3.54722433e-04, -1.11724177e-04, -1.51982589e-04,
          -5.80368040e-04, -2.80220149e-04, -3.84209765e-04,
          -2.63971771e-04, 0., 0., -1.55830116e-04, 1.55052203e-05,
          1.01138503e-04, 4.11312591e-04, 1.57277886e-04, 4.39844516e-05,
          1.63617675e-04, 5.08071462e-05, 2.18232861e-04,
          -4.97172550e-05, -3.42857529e-04, -4.62161552e-05,
          -6.24531647e-04, -2.52656959e-04, -3.61900165e-04,
          -5.89286734e-04, -1.51294691e-04, 0., 0., -3.20415274e-04,
          -2.44610739e-04, -1.28104264e-04, -5.62840200e-04,
          -1.72759654e-04, -1.34211645e-04, -3.98090575e-04,
          -8.28187563e-04, -1.80110830e-04, -2.83873902e-04,
          -2.66855466e-04, -2.62743124e-04, -1.36430783e-04,
          4.74112967e-05, 5.32243983e-04, 4.84044373e-04, 5.92117140e-04,
          5.92117140e-04, 1.71558670e-04, 1.71558670e-04 ]
      - [ -2.29299359e-04, -2.29299359e-04, -2.13732274e-04,
          -1.66742771e-04, -1.66742771e-04, -1.93263186e-04,
          -1.52167442e-04, -1.95395944e-04, -2.05324672e-04,
          -4.01888450e-04, -3.03622335e-04, -1.39453856e-04,
          -1.77933427e-04, -1.86008925e-04, -2.20464193e-04,
          -8.89475341e-05, -9.65999207e-05, -8.98028156e-05,
          9.06979330e-05, 8.27485637e-05, -1.09878340e-04,
          -8.84495748e-05, -1.01787897e-04, -1.35102920e-04,
          -1.67185572e-04, -1.59382253e-04, -1.58574592e-04,
          -1.99300594e-05, -1.39166241e-05, -5.79574553e-05,
          -6.86672720e-05, -3.90643982e-05, -3.76025164e-05,
          6.29890565e-05, 1.44946403e-04, 1.50869106e-04,
          -1.25340084e-04, -3.45486660e-06, -1.74251356e-04,
          -1.31381690e-04, -1.46927618e-04, 0., -1.46927618e-04,
          -1.46927618e-04, -1.46927618e-04, -4.82244541e-05,
          6.18654813e-05, 1.53403758e-04, 1.77556896e-04, 5.57142557e-05,
          1.46950173e-04, 1.44680773e-04, 8.82460008e-05, 1.59846284e-04,
          -2.96865110e-05, -9.82676502e-05, -9.15872079e-06,
          -1.33128997e-04, -2.78081658e-04, -3.21602201e-05, 0., 0., 0.,
          0., 2.05732009e-04, 2.31502690e-05, 1.92778534e-04,
          5.57142557e-05, 1.27074920e-04, 1.44194448e-04, 2.82892637e-04,
          -1.88977301e-05, 0., -5.60876106e-05, -8.19939960e-05,
          -6.21052823e-05, -1.15974362e-04, -1.26485567e-04,
          -2.64409638e-04, -2.00434201e-07, 0., 0., 0., 2.08793092e-04,
          1.13876515e-04, 1.81397147e-04, 1.38688047e-04, 5.20923568e-05,
          2.88901880e-04, 1.72712811e-04, 0., -1.68031635e-04,
          -2.17063825e-05, -2.96865110e-05, -1.10172972e-04,
          -1.17021867e-04, -8.46045878e-05, -3.55573829e-05,
          -6.40582948e-05, 0., 0., 0., 2.08793092e-04, 1.89459810e-04,
          1.51215077e-04, 1.10851986e-04, 1.32393034e-04, 2.34339619e-04,
          1.04790561e-05, 0., -1.77058129e-04, 0., -4.68943217e-05,
          -1.10172972e-04, -1.34587564e-04, -3.58717043e-05,
          -1.43683195e-04, -2.31129117e-04, -1.27776802e-05, 0., 0.,
          2.08793092e-04, 1.89459810e-04, 1.73390930e-04, 1.36399321e-04,
          1.59931878e-04, 1.75004810e-04, 0., 0., -1.77058129e-04, 0.,
          -2.17063825e-05, -8.96862621e-05, -9.53549170e-05,
          -9.86585364e-05, -1.37273979e-04, -2.61692712e-05,
          -1.67177335e-04, 0., 0., 9.67739761e-05, 2.84637965e-04,
          1.94556182e-04, 1.36399321e-04, 1.67510778e-04, 1.12650298e-04,
          0., 0., 0., -1.77058129e-04, 0., -4.40746189e-05,
          -1.28622851e-04, -1.09566761e-04, 0., -1.24291997e-04,
          -7.39110765e-05, 0., 0., 0., 2.08793092e-04, 2.62542948e-04,
          1.99595466e-04, 8.67947529e-05, 8.01192946e-05,
          -5.86881981e-07, 0., 0., -1.77058129e-04, 0., -3.36117082e-05,
          -1.20243465e-04, -9.53549170e-05, -6.06514586e-05,
          -1.67110542e-04, -3.47986206e-05, -2.27504221e-04,
          -5.18322195e-05, -5.18322195e-05, -5.18322195e-05,
          4.01953061e-04, 2.42994836e-04, 1.20464618e-04, 1.63421355e-04,
          -1.04515464e-04, -4.89523190e-05, -2.20837082e-05,
          -1.30806147e-05, -2.04189200e-05, -3.04457208e-05,
          -1.01409874e-04, -1.03740815e-04, -7.87818426e-05,
          -1.53201661e-04, -3.31413758e-05, -1.01971462e-04,
          -1.76614121e-04, -7.61843012e-06, -2.23593343e-05,
          -2.23593343e-05, 4.68274957e-04, 2.79348547e-04,
          1.65749836e-04, 0., 0., 0., -2.96865110e-05, -2.06744648e-04,
          -9.08199072e-05, -1.92177511e-04, -1.36061397e-04,
          -5.93873119e-05, -7.10465829e-05, -1.37161871e-04,
          -6.88148866e-05, -5.31423866e-05, -4.10889224e-05,
          -2.75935690e-05, -2.75935690e-05, -9.83317586e-05,
          6.30024297e-04, 2.83933448e-04, 0., -7.35112044e-05,
          -7.35112044e-05, -7.35112044e-05, -2.10210244e-04, 0.,
          -3.36117082e-05, -1.55328366e-04, -2.18437108e-05,
          -1.07086467e-04, -1.47470579e-04, -3.45486660e-06,
          -1.86819980e-05, -1.46927618e-04, 0., 0., 0., -5.29631143e-05,
          5.31414582e-04, 2.93462275e-04, 0., 0., 0., 0.,
          -7.98497495e-05, -1.19053248e-05, -9.36289507e-05,
          -1.04007784e-04, -1.19943914e-04, -2.98365521e-05,
          -1.25948791e-04, -5.86839451e-05, -3.52836723e-05,
          -1.46927618e-04, 0., 0., 0., 0., 5.63573965e-04,
          2.54486542e-04, 9.44791245e-05, 0., 0., -1.77058129e-04,
          -1.19053248e-05, -1.10035646e-04, -7.82059215e-05,
          -2.65204271e-05, -5.72884055e-05, -1.33819121e-04,
          -8.16613920e-06, -6.36558179e-05, -9.41549388e-06, 0., 0., 0.,
          0., 0., 4.49136307e-04, 1.73938926e-04, 2.54486542e-04,
          9.44791245e-05, -8.96186248e-05, 0., -2.49291534e-05,
          -1.21311066e-04, -2.96865110e-05, -1.24510218e-04,
          -1.04540095e-05, -8.38589585e-06, -5.84146655e-05,
          -1.52271305e-05, -1.46927618e-04, 0., 0., 0., 0., 0.,
          2.70092336e-04, 2.03028991e-04, 1.21347075e-04, 2.51809601e-04,
          -1.73997047e-04, 8.25738025e-05, -1.39036958e-04,
          -2.31445902e-05, -7.99569025e-05, -3.68965061e-06,
          -1.33819121e-04, -5.72083036e-06, -5.64179827e-05,
          -3.01283617e-05, -1.46927618e-04, 0., 0., 0., 0., 0.,
          1.86748715e-04, 1.16023271e-04, 1.20445067e-04,
          -6.59886573e-05, 1.22656973e-04, 8.16140237e-05,
          -7.13522459e-05, 4.07333573e-05, -1.03917928e-05,
          -1.32935864e-04, -1.41067267e-05, -2.82469955e-05,
          -1.52271305e-05, -1.46927618e-04, 0., 0., 0., 0., 0., 0.,
          9.30088718e-05, 3.39200633e-05, -4.73474247e-05,
          7.07028812e-05, 1.00189085e-04, 5.71633936e-05, 1.31569832e-04,
          1.37509196e-04, -2.92366367e-05, -3.62789069e-05,
          9.11812385e-05, -5.64179827e-05, -3.06319344e-05,
          -1.46927618e-04, 0., 0., 0., 0., 0., 0., 0., -1.57162103e-05,
          1.83356664e-04, 3.14416793e-05, -3.08764429e-05,
          8.59568972e-05, 1.11047288e-04, 1.23453254e-04,
          -7.68739264e-05, 2.39675428e-04, 1.18628377e-04,
          -1.56209135e-05, 7.74836662e-05, -2.74923059e-05,
          9.44791245e-05, 0., 0., 0., 0., 0., -1.77058129e-04, 0.,
          -1.19053248e-05, -1.71641528e-04, 1.95261979e-04,
          1.55354690e-04, 4.03241211e-05, 7.03601909e-05, 1.64119920e-05,
          7.36335569e-05, 1.99472153e-04, 2.41244677e-04, 2.10796543e-06,
          1.72153479e-04, 2.84834503e-04, 1.71558888e-04, 1.96670881e-04,
          1.96670881e-04, 1.94905675e-04, 1.81790499e-04 ]
      - [ 0., 0., 0., 0., -6.10487987e-05, -1.00801481e-04,
          -4.15300419e-05, -1.15004201e-04, -1.04368213e-04,
          -1.33183567e-04, -1.34960763e-04, -6.91889072e-05,
          -1.74283734e-04, -1.57742048e-04, -5.25115902e-05,
          -1.24939979e-04, -2.16064673e-05, 6.40734361e-05,
          2.57611013e-04, 3.47444904e-04, 0., 0., -6.10487987e-05,
          -1.05818845e-05, -7.74982036e-05, -8.42278387e-05,
          -1.13462636e-04, -2.46107356e-06, -8.47712872e-05,
          1.19504992e-04, -4.08063643e-05, 3.32002346e-05,
          4.48737701e-05, 8.41316341e-06, -8.51942877e-06,
          -7.49127212e-05, -8.52159719e-05, -1.85783472e-04,
          -2.96169252e-04, -1.55643484e-05, 0., 0., -1.36483432e-04,
          -7.31786859e-05, -9.13436379e-05, -4.71914473e-06,
          2.25664394e-06, 8.64181056e-05, -2.45374281e-07,
          2.97114493e-05, 1.25754537e-04, 1.18636468e-04, 1.95022687e-04,
          9.21071478e-05, -7.19476229e-05, -1.62131153e-04,
          -1.35836803e-04, -7.91404091e-05, -1.89102124e-04,
          -3.61668208e-04, 0., -5.04218260e-05, -1.10153662e-04,
          -9.20920502e-05, -5.01443283e-05, -5.71147984e-06,
          1.09897097e-04, -6.24052409e-05, 9.03666369e-05,
          1.56313807e-04, 1.95022687e-04, 1.77432405e-04, 0.,
          -1.06757398e-04, 0., -7.92315986e-05, -1.51755623e-04,
          -2.03563628e-04, -1.59678806e-04, -3.39708378e-04,
          -3.21277112e-05, -3.15749785e-05, -1.43923375e-04,
          1.89385094e-06, 1.60131731e-05, 7.15986025e-05, 4.66911260e-05,
          2.31156024e-04, 1.85845158e-04, 1.95022687e-04, 0., 0.,
          -6.00092899e-05, -6.94291157e-05, -1.12139220e-04,
          -1.22416852e-04, -1.35202732e-04, -1.74857196e-04,
          -1.37901370e-04, -1.43572644e-04, -6.51423834e-05,
          -1.67853781e-04, -4.66658594e-06, 1.12343614e-05,
          3.84670893e-05, 1.75030000e-05, 1.64837184e-04, 1.33973896e-04,
          0., 0., 0., -4.90334278e-05, -1.31086897e-04, -4.92950348e-05,
          -5.63614885e-05, -1.72947752e-04, -1.40402059e-04,
          -1.48799663e-04, -2.14956788e-04, -4.90205930e-05,
          -1.09484565e-04, 7.22846307e-05, -3.12089069e-05,
          4.15461836e-05, 8.99786028e-05, 1.51922111e-04, 1.86922014e-04,
          0., 0., -1.08907327e-04, -1.39807351e-04, -1.27523279e-04,
          -6.64407635e-05, -1.42610923e-04, -1.00106561e-04,
          -1.25290535e-04, -1.46663078e-04, -1.30187749e-04,
          -1.26421044e-04, -5.71349165e-06, -1.61484531e-05,
          1.27653431e-04, 1.23491729e-04, 1.05030798e-04, 8.85292538e-05,
          3.07432347e-05, -2.02211868e-05, -7.12812543e-05,
          -2.67654668e-05, -7.64406141e-05, -1.59755116e-04,
          -1.22364916e-04, -1.30257744e-04, -1.32327419e-04,
          -1.22596510e-04, -1.35073220e-04, -1.78934533e-05,
          -8.21523354e-05, -6.64305480e-05, -4.38051211e-05,
          1.04525156e-04, 2.04651689e-04, 4.98130867e-05,
          -2.60349316e-06, -7.55096335e-05, -1.50657885e-04,
          -1.06806030e-04, -1.00801481e-04, -1.06080603e-04,
          -1.99476664e-04, -1.20024699e-04, -1.16776646e-04,
          -1.32203670e-04, -1.06286469e-04, -4.41320371e-05,
          -7.10845925e-05, -3.19145474e-05, -8.55913968e-05,
          -1.02082733e-04, -4.38051211e-05, 3.58388410e-04,
          1.90327279e-04, 1.76592061e-04, 8.75320766e-05,
          -1.61994045e-04, -1.60058727e-04, -1.63632867e-04,
          -1.49598840e-04, -2.28708406e-04, -1.63550954e-04,
          -1.82209216e-04, -1.96396461e-04, -3.29359536e-05,
          -9.79277684e-06, -1.86162561e-05, -9.14158647e-07,
          -1.19326418e-04, -5.82776156e-05, -5.82031207e-05,
          -4.38051211e-05, 3.85353691e-04, 3.55383730e-04,
          1.97195041e-04, -7.42175689e-05, -1.40859556e-04,
          -1.47270825e-04, -2.61266076e-04, -2.75433034e-04,
          -2.03430522e-04, -2.49207427e-04, -1.08615728e-04,
          -1.19000550e-04, -1.06906817e-04, -8.41872752e-05,
          -1.73189960e-06, -4.91360261e-05, -5.82776156e-05,
          -1.46640203e-04, -9.79173274e-06, 0., 5.41205693e-04,
          4.23040881e-04, -5.41064619e-05, -1.74494024e-04,
          -1.73416774e-04, -1.40640404e-04, -1.41449447e-04,
          -2.08521291e-04, -1.04188468e-04, -7.95157903e-05,
          -1.48855572e-04, -2.61352368e-04, -1.20120640e-04,
          -5.38136446e-05, -1.85770594e-04, -1.25933599e-04,
          -6.00095154e-05, -4.38051211e-05, -1.04853920e-04,
          -3.26391114e-06, 4.69707622e-04, 3.10172793e-04,
          -2.67010531e-04, -1.12507703e-04, -1.51153363e-04,
          -1.34805858e-04, -8.03943694e-05, -4.32237866e-05,
          -3.00779666e-05, -7.78932008e-05, -1.32236441e-04,
          -4.50401494e-05, -3.10281030e-05, -1.53505229e-04,
          -2.56695115e-04, -1.17390504e-04, -1.52344204e-04,
          -1.15877534e-04, -5.92654105e-05, -6.10487987e-05,
          5.17545443e-04, -7.13844156e-06, -8.48911222e-05,
          -1.88108737e-04, -8.12073486e-05, -2.31033791e-05,
          -9.79277684e-06, -3.11064673e-06, 0., 0., -2.02851897e-05,
          -2.73632195e-05, -1.34812013e-04, -1.92796389e-04,
          -1.52822817e-04, -2.06852361e-04, -2.19002817e-04,
          -1.68525861e-04, -1.10024019e-04, -8.75033147e-05,
          1.94774882e-04, -2.31938538e-05, 1.45002079e-04,
          -3.53381656e-05, 1.20203213e-05, -9.79277684e-06, 0., 0., 0.,
          0., 0., -3.47380301e-05, -6.08232076e-05, -7.85628072e-05,
          -9.99621043e-05, -7.20808457e-05, -1.74165965e-04,
          -2.41521135e-04, -1.34370668e-04, -1.18033975e-04,
          -1.17599429e-05, 4.33298228e-05, 7.25827558e-05,
          2.65586277e-04, -4.41635029e-06, 4.40511940e-05,
          1.52019802e-05, 0., 0., -5.23355811e-05, -5.82776156e-05,
          -5.82776156e-05, -2.69676802e-05, -4.38051211e-05,
          -6.40903090e-05, -4.22817538e-05, -1.28468702e-04,
          -1.41444703e-04, -1.90413804e-04, -2.90865864e-04,
          -1.57251343e-04, 4.20305769e-05, 1.41039700e-05,
          4.54510155e-05, 1.96041670e-04, 1.50530977e-04, 0.,
          4.40511940e-05, -1.42264207e-05, -5.82776156e-05,
          -8.67938870e-05, -8.44851820e-05, -4.38051211e-05,
          -1.49452771e-05, 0., -5.52017482e-05, -8.22155998e-05,
          -1.51545712e-04, -1.51839718e-04, -3.72186740e-04,
          -1.57286224e-04, -6.35311108e-06, 6.06446956e-05,
          -8.21066569e-05, 1.87904643e-05, 2.44966632e-05,
          1.55446003e-04, 1.33884707e-04, -9.41806356e-05,
          -3.60917329e-05, 2.46072119e-07, -1.99270362e-05, 0., 0.,
          -3.49165566e-05, -4.67397076e-05, -1.21763776e-04,
          -2.16285742e-04, -9.25770946e-05, -3.19468556e-04,
          -4.28192361e-05, 1.51273125e-05, -1.62055549e-05,
          -1.37418147e-05, -4.53092762e-05, -2.03292104e-04,
          2.73303413e-05, 5.31814794e-06, 6.10887218e-05, 2.84344074e-04,
          9.48302404e-05, 0., 9.13463646e-06, 1.75966779e-05,
          -1.48689769e-05, -1.77970462e-04, -2.14257234e-04,
          -1.98496899e-04, -3.15304875e-04, 0., -1.02082733e-04,
          -1.02082733e-04, -1.07536624e-04, -2.20112735e-04,
          3.52759525e-05, -1.42762379e-04, -1.41813769e-04,
          -1.17811585e-04, -7.29689054e-05, -1.56859533e-04,
          -4.75443849e-05, -4.62043645e-05, -8.36789186e-05,
          3.13219753e-05, 1.21618541e-04, 3.23042286e-06, 1.69627659e-04,
          3.27168556e-04, 2.17373876e-04, 2.06568235e-04 ]
      - [ 0., 0., 0., 0., 0., -7.59699396e-05, -7.59699396e-05,
          -4.25803628e-05, -9.11859897e-05, -1.37064781e-04,
          -2.24093106e-04, -5.79389853e-05, -1.34490925e-04,
          -3.55913726e-05, -1.45601123e-04, -1.15721748e-04,
          -4.18902018e-05, -9.67870219e-05, -5.14802050e-05,
          -1.32972591e-05, 0., 0., -2.76461415e-05, -5.01668765e-05,
          -2.94819529e-05, -1.15243471e-04, -1.39154319e-04,
          -3.68870169e-05, 2.75928051e-05, 8.91064046e-05,
          -1.93437354e-05, 1.88168688e-05, 6.51664814e-05,
          1.22110680e-04, 1.32020854e-04, 1.30392436e-04,
          -3.62950486e-05, -2.04114360e-04, -1.14623996e-04,
          -1.78735092e-04, 0., -7.59699396e-05, -7.14542475e-05,
          -1.29944281e-04, -5.72425779e-05, -1.47077735e-04,
          5.95267120e-05, 2.80437544e-05, 7.83889336e-05, 2.18851656e-05,
          1.00422585e-04, 8.65469628e-05, 1.48165796e-04, 1.00327670e-04,
          0., 0., -3.62950486e-05, -2.35647778e-04, -2.39683839e-04,
          -1.60184849e-04, -7.59699396e-05, -8.01961360e-05,
          -1.48646504e-04, -1.83007054e-04, 6.32339870e-05,
          -1.16004223e-04, 8.70100630e-05, 2.18851656e-05,
          6.70920417e-05, 9.09763839e-05, 1.55159549e-04, 9.24018677e-05,
          0., 0., 0., 0., -1.34350383e-04, -2.22841132e-04,
          -2.26131815e-04, -1.52589506e-04, -1.47657003e-04,
          -2.12111889e-04, -1.44024118e-04, 7.24510101e-05,
          8.85573900e-05, 1.32878631e-04, 5.88023904e-05, 5.72016652e-05,
          1.55495756e-04, 1.00327670e-04, 0., 0., 0., 0., 0.,
          -4.23995371e-05, -2.23414245e-04, -2.09727805e-04,
          -1.49214437e-04, -8.71301381e-05, -3.37277044e-04,
          -1.35746974e-04, 7.24510101e-05, 1.40403266e-04,
          8.67915005e-05, 7.27639053e-05, 1.16492076e-04, 1.42849371e-04,
          1.14777667e-05, 0., 0., 0., 0., 0., -1.03565209e-04,
          -1.31749712e-05, -3.05155350e-04, -3.07316892e-04,
          -1.69860490e-04, -9.65103172e-05, -3.82012018e-04,
          -5.15680949e-05, 1.40403266e-04, 1.02213584e-04,
          1.12747424e-04, 1.16260213e-04, 1.00327670e-04, 0., 0., 0., 0.,
          0., 0., -1.03565209e-04, -2.78789485e-05, -1.80303701e-04,
          -3.03513545e-04, -2.37341941e-04, -1.10240828e-04,
          -9.96187300e-05, -3.35009303e-04, 9.47887020e-05,
          7.01727986e-05, 5.56193263e-05, 6.46207627e-05, 5.81601562e-05,
          -3.69969598e-06, -3.69969598e-06, -3.69969598e-06,
          -2.94819529e-05, -2.94819529e-05, -6.24005188e-05,
          -5.42452362e-05, -2.78789485e-05, -1.94629858e-04,
          -9.65775980e-05, -3.10028729e-04, -2.05405129e-04,
          -1.29081760e-04, -9.65103172e-05, -1.15100620e-05,
          -5.43555871e-05, 6.40645012e-05, -1.66954233e-05,
          7.22416326e-06, -4.83238000e-05, -6.55619806e-05,
          -3.97744698e-05, -7.51303087e-05, -6.47223496e-05,
          -1.17081436e-04, -9.05289053e-05, -7.98435285e-05,
          -1.61407515e-04, -2.36172509e-05, -1.44272301e-04,
          -3.18661943e-04, -9.45779757e-05, -1.29081760e-04,
          -9.65103172e-05, 1.46688486e-04, 1.22432641e-04,
          -7.21455654e-05, 3.34322285e-05, 0., -3.88550825e-06,
          -4.11831525e-06, -3.07174087e-05, -3.04846035e-05,
          -3.88550825e-06, -1.09340763e-04, -9.93932117e-05,
          -7.30250613e-05, -4.75572451e-05, -1.66409736e-04,
          -1.83628596e-04, -1.15019131e-04, -8.28609700e-05,
          -1.43573008e-04, -9.65103172e-05, 3.46728310e-04,
          2.39946457e-05, 9.01197855e-05, -6.44387110e-05,
          -1.11454305e-04, -6.22611915e-05, -5.78363506e-05,
          -3.68163383e-05, -2.79055366e-05, -2.79055366e-05,
          -8.97762075e-05, -1.03280508e-04, -5.62649220e-05,
          -8.41820511e-05, -9.25837012e-05, -1.13776783e-04,
          -1.06845335e-04, -1.12342917e-04, -1.09586173e-04,
          -1.23236430e-04, 4.79434006e-04, 1.43597164e-04,
          -9.26304710e-05, -7.37690716e-05, -5.12418592e-05,
          -5.12418592e-05, -5.12418592e-05, -5.12418592e-05, 0., 0., 0.,
          -9.89190376e-05, -1.67783219e-04, -6.88641812e-05, 0.,
          -9.25164131e-05, -8.16619577e-05, -1.95148314e-04,
          -1.49905478e-04, -1.23805221e-04, 3.71742295e-04,
          1.86895384e-04, 0., -1.02827398e-04, -1.31993409e-04,
          -4.90610364e-05, -3.57898098e-05, -4.96534849e-05,
          -9.89190376e-05, -1.52063760e-04, -9.60963953e-05,
          -2.88959491e-05, 0., 0., -2.59574208e-05, -1.11148256e-04,
          -5.22602495e-05, -1.90196035e-04, -1.50484484e-04,
          -1.22260695e-04, 3.74196912e-04, 2.55686260e-04,
          6.48073401e-05, 0., 0., 0., 0., 0., 0., 0., 0., 0., 0., 0.,
          -3.15197249e-05, -1.37627721e-04, -4.12262962e-05,
          -1.39626762e-04, -1.49905478e-04, -1.28237501e-04,
          2.81973626e-04, 1.25790728e-04, 2.55686260e-04, 6.48073401e-05,
          5.99785599e-05, 0., 0., 0., 0., 0., 0., 0., 0., 0.,
          -3.15197249e-05, -9.72972048e-05, -8.72644741e-05,
          -1.39626762e-04, -1.69637220e-04, -1.25369101e-04,
          2.02801923e-04, 1.35148919e-04, 8.82237218e-05, 2.47116055e-04,
          9.80004188e-06, 6.48073401e-05, 2.23648876e-05, 0., 0., 0., 0.,
          0., 0., 0., -5.69042422e-05, -2.17928355e-05, -1.30652494e-04,
          -1.10311164e-04, -9.92043861e-05, -6.29531860e-05,
          1.29539461e-04, 6.74101684e-05, 7.06234350e-05, 9.66678926e-05,
          8.64695103e-05, 2.16690227e-04, 9.80004188e-06, 6.48073401e-05,
          6.48073401e-05, 0., 0., 0., 0., 0., -7.90038903e-05,
          -1.33983758e-05, -1.15564260e-04, -9.26111752e-05,
          -1.63257646e-04, -3.81222890e-05, 5.06562428e-05,
          5.56279083e-05, 6.91418900e-05, 5.63599060e-05, 1.46355495e-04,
          1.02851336e-04, 1.20228346e-04, 2.45886244e-04, 9.80004188e-06,
          7.46073856e-05, 6.48073401e-05, 0., 0., 0., -7.34415880e-05,
          -1.62511897e-05, -1.35603288e-04, -1.19210272e-04,
          -1.52424545e-04, -1.79541355e-04, 0., 8.78730716e-05,
          1.43500976e-04, 4.60730080e-05, 7.25300270e-05, 5.93009427e-05,
          1.22915400e-04, 1.43416954e-04, 1.24545977e-05, 2.45886244e-04,
          1.59416726e-04, 9.80004188e-06, 7.46073856e-05, 7.46073856e-05,
          4.22756420e-05, -8.17379350e-06, -1.73444525e-04,
          -1.19210272e-04, -9.65103172e-05, -2.04940952e-04, 0., 0., 0.,
          0., 1.43500976e-04, 1.45183862e-04, 6.97677242e-05,
          9.90669432e-05, 1.36534320e-04, 7.31391410e-05, 1.60198542e-04,
          1.68403916e-04, 6.34163007e-05, 9.89241089e-05, 2.10856670e-04,
          1.41819124e-04, 8.27401600e-05, 1.41412937e-04, 1.10914691e-04,
          -2.60484958e-05 ]
      - [ -2.62357062e-04, -8.01883016e-06, 0., 0., 0., 0., 0., 0., 0.,
          0., 5.57511885e-05, 1.16125528e-04, 8.37117987e-05,
          7.61945848e-05, 5.30277248e-05, 6.54291071e-05, 1.36267545e-05,
          1.01894919e-04, 1.53156754e-04, 1.20010714e-04,
          -7.70815823e-05, -3.38143611e-04, -7.83944706e-05, 0., 0., 0.,
          0., 5.57511885e-05, 3.85645108e-05, 7.67155725e-05,
          4.70317500e-05, 5.97965991e-05, 1.91670351e-05, 9.15415076e-05,
          7.20142125e-05, -2.10249746e-05, -9.11173265e-05,
          -1.29503985e-06, -1.52913301e-04, -8.45577888e-05,
          -9.81398916e-05, -9.85600709e-05, -3.17985279e-04,
          -1.99497881e-04, 0., 5.05040189e-05, 8.73194731e-05,
          5.15748834e-05, 5.73736506e-05, 4.68907892e-05, 4.91995706e-05,
          6.40520084e-05, 1.32193774e-04, 1.19296434e-04, 2.06098812e-05,
          -2.43010989e-04, -2.57933698e-06, -1.83345954e-04,
          -4.06842410e-05, 0., 0., 0., -9.84649232e-05, -1.85820652e-04,
          -1.55691509e-04, 1.10213441e-05, 6.21940490e-05,
          5.89972296e-05, 3.95203097e-05, 6.27615154e-05, 1.32193774e-04,
          1.10395296e-04, 2.06098812e-05, 0., -2.41587477e-04,
          -4.55892223e-05, -1.93597531e-04, 0., 0., 0., 0., 0., 0.,
          -1.11454492e-05, -1.28964559e-04, -1.50503867e-04,
          -6.80488811e-05, 5.72362842e-05, 1.27549705e-04,
          1.19296434e-04, 8.64806771e-06, 0., 0., -1.95987188e-04,
          -5.84667541e-05, -1.93597531e-04, 0., 0., 0., 0., 0., 0.,
          8.73194731e-05, 5.80530941e-05, -5.05002981e-06,
          -6.72063907e-05, -5.23952440e-05, 2.07152898e-05,
          2.58633804e-06, 0., 0., 0., -1.31283770e-04, -1.11727211e-04,
          -1.93597531e-04, 0., 0., 0., 0., 0., 0., 8.73194731e-05,
          5.80530941e-05, 1.18133037e-04, 7.91433486e-05,
          -3.14421377e-05, -7.42452394e-05, -1.11727211e-04,
          -1.51636938e-04, -1.31283770e-04, 0., -1.27614141e-04,
          -1.11727211e-04, -1.93597531e-04, 0., 0., 0., 0., 0., 0.,
          3.15682846e-05, 1.35099835e-04, 9.48231391e-05, 7.91433486e-05,
          7.15323768e-05, 6.65650441e-05, -9.84649232e-05,
          -1.93597531e-04, -1.11727211e-04, -6.68415232e-05,
          -1.22653335e-04, -8.44047390e-05, -2.22965726e-04, 0., 0., 0.,
          0., 0., 0., 0., 8.73194731e-05, 1.17342046e-04, 8.42779700e-05,
          5.52781203e-05, 4.87627658e-05, 0., 0., -7.66866719e-07,
          -1.93597531e-04, -1.05505242e-04, -7.65673831e-05,
          -2.39220681e-04, -1.31283770e-04, 0., 0., 0., 0., 0., 0., 0.,
          1.92114414e-04, 1.23078047e-04, 7.38532617e-05, 9.86865489e-05,
          0., 0., 0., 0., 0., -3.30775918e-04, -2.13866806e-04,
          -9.15688870e-05, 0., -1.31283770e-04, -9.59215686e-06, 0., 0.,
          0., 0., 0., 2.04661512e-04, 1.39614116e-04, 9.86865489e-05, 0.,
          0., 0., 0., 0., -1.51442102e-04, -9.33143237e-05,
          -1.77076698e-04, -1.33849040e-04, -1.11727211e-04, 0.,
          -1.28905303e-04, -1.31283770e-04, 0., 0., 0., 0.,
          2.88282637e-04, 1.75183683e-04, 0., 0., 0., 0., 0.,
          -1.51442102e-04, -5.56773884e-05, -1.91692714e-04, 0.,
          -7.95056112e-05, -1.38123723e-04, -1.11727211e-04,
          -3.61502389e-05, 0., -1.31283770e-04, -1.40468810e-05, 0., 0.,
          2.34962485e-04, 1.66931117e-04, 0., 0., 0., 0.,
          -1.99405422e-05, -6.79341974e-05, -2.16199362e-04, 0., 0., 0.,
          -7.94548250e-05, -1.17146701e-04, -2.08897094e-04,
          -8.76078266e-05, 0., -1.31283770e-04, -1.31283770e-04, 0.,
          2.51621677e-04, 1.49596774e-04, 4.65241028e-05, 0., 0.,
          -3.55735119e-06, -1.51442102e-04, -1.91804211e-04,
          -7.24563070e-05, 0., 0., 0., 0., -4.73740693e-05,
          -1.33686277e-04, -1.97013986e-04, -9.15688870e-05, 0.,
          -2.01096955e-05, -1.31283770e-04, 2.25743235e-04,
          7.85357915e-05, 1.38462739e-04, 4.65241028e-05, 3.40142360e-05,
          -1.51442102e-04, -1.93597531e-04, -9.15688870e-05, 0., 0., 0.,
          0., 0., 0., -7.94548250e-05, -9.64276551e-05, -1.79731753e-04,
          -9.15688870e-05, -2.93681824e-05, 0., 1.51179091e-04,
          1.23737947e-04, 5.06961223e-05, 1.38462739e-04,
          -1.16225048e-04, -9.37252626e-05, -7.97920948e-05, 0., 0., 0.,
          0., 0., 0., 0., 0., -3.95307870e-06, -9.64276551e-05,
          -1.33601003e-04, -9.15688870e-05, -7.62816708e-05,
          1.10769812e-04, 4.77244685e-05, 6.92048998e-05,
          -4.83641372e-07, -1.11144152e-04, -4.07444277e-05,
          -6.40204380e-05, 4.65241028e-05, 3.41259401e-05, 0., 0., 0.,
          0., 0., 0., 0., -2.21922073e-05, -9.52240298e-05,
          -1.18623248e-04, -1.79667404e-05, 5.68898940e-05,
          1.61321041e-05, 1.58785697e-05, -1.09288041e-04,
          -3.36798294e-05, -5.61601191e-05, 1.02558151e-04,
          9.83408172e-05, 0., 4.65241028e-05, 4.65241028e-05, 0., 0., 0.,
          0., 0., 0., -7.94548250e-05, -7.89305122e-05, -1.18623248e-04,
          0., 9.86865489e-05, -7.05286948e-05, 1.16106430e-05,
          1.77248749e-05, 7.27971610e-06, 9.65269355e-05, 4.02845617e-05,
          4.01219149e-05, 1.38462739e-04, 4.25896287e-05, 0.,
          4.65241028e-05, 4.65241028e-05, 3.57790304e-05, 0., 0., 0., 0.,
          0., 0., -6.80992234e-05, -1.47169310e-04, -9.71698828e-05,
          3.01670134e-05, 5.58952997e-05, 1.61321041e-05, 4.96393222e-05,
          7.43574710e-05, 5.91952412e-05, 7.85776647e-05, 7.85776647e-05,
          5.89029805e-05, 9.94604416e-05, 1.38462739e-04, 7.59458853e-05,
          7.78979083e-05, 7.80923874e-05, 7.80923874e-05, 6.66168053e-05 ]
      - [ 0., 0., 0., 0., 0., 0., 0., 0., 0., 0., 1.04110759e-05,
          7.54424618e-05, 2.35010099e-04, 1.94927881e-04, 1.09826280e-04,
          1.24456536e-04, 6.33359596e-05, 1.80768999e-04, 3.73106712e-04,
          8.80711887e-05, 0., 0., 0., 0., 0., 0., 0., 5.42792041e-05,
          1.40748831e-04, 3.06811184e-04, 7.76144952e-05, 5.15077299e-05,
          -2.55492814e-05, 1.58994328e-04, 8.89966468e-05,
          1.10732319e-04, -2.80294153e-05, -7.34269197e-05,
          -2.36519874e-04, -1.91339186e-05, 0., 0., 0., 0., 0.,
          4.91705759e-05, 1.88216523e-04, 1.72873872e-04, 1.27778563e-04,
          7.96354725e-05, -7.20572789e-05, 7.90348058e-05,
          1.21425895e-04, 1.93843356e-04, -1.61729156e-04,
          -2.61341211e-05, -6.00192689e-05, -1.61876145e-04,
          -5.05698517e-05, 0., 0., 0., 0., 0., 1.88216523e-04,
          5.13912382e-05, 1.72873872e-04, 8.90514566e-05, 1.54163237e-04,
          6.73453951e-06, 3.41698069e-05, 1.52307461e-04,
          -1.30770059e-04, -1.51251341e-04, -1.33127440e-04,
          -6.78910146e-05, -1.09208115e-04, -1.73711218e-04, 0., 0., 0.,
          0., 0., 1.88216523e-04, 7.56877635e-05, 1.70737345e-04,
          1.11889065e-04, 1.78570030e-04, 2.35601168e-04, 1.06857384e-04,
          -2.81642948e-04, -7.30803513e-05, -2.49294622e-04,
          -1.37720626e-05, -1.18336036e-04, -1.05230742e-04,
          -6.18375707e-05, -5.95682468e-05, 0., 0., 0., 0.,
          1.88216523e-04, 1.72873872e-04, 2.10702405e-04, 6.09586423e-05,
          1.87741432e-04, 2.98270053e-04, -8.94560362e-05,
          -8.84836481e-05, -1.14497292e-04, -1.76476286e-04,
          -7.20840835e-05, -1.73925175e-04, -6.57894489e-05,
          -1.43636527e-04, -9.62179183e-05, 0., 0., 0., 0.,
          1.88216523e-04, 1.72873872e-04, 2.29378522e-04, 1.74073051e-04,
          1.26901796e-04, 2.72257923e-04, -1.59218598e-05,
          -1.38339441e-04, -1.50964363e-04, -1.46384540e-04,
          -8.05854361e-05, -7.07868021e-05, -9.39854872e-05,
          -1.40756994e-04, -1.10833062e-04, -6.25256725e-05, 0., 0., 0.,
          1.33937327e-04, 2.22818955e-04, 2.08310899e-04, 1.44179881e-04,
          1.94502238e-04, 1.51770349e-04, 0., -2.58492830e-04,
          -3.34351353e-05, -9.94306247e-05, -3.27643793e-05,
          -1.47138475e-04, -1.77151160e-04, -2.20967646e-04,
          -1.07350417e-04, -9.62179183e-05, 0., 0., 0., 0.,
          1.88216523e-04, 2.77896324e-04, 1.49769257e-04, 1.63173216e-04,
          9.33599440e-05, 0., -5.25953292e-05, -1.27658335e-04,
          -1.76448055e-04, -1.26752202e-04, -1.17129726e-04,
          -8.59052889e-05, -2.08041747e-04, -8.06799144e-05,
          -2.53379712e-05, -1.88178001e-05, 0., 0., 0., 0.,
          4.08311025e-04, 3.22952081e-04, 1.68746847e-04, 2.03632517e-04,
          0., 0., -2.85086513e-04, -1.74993373e-04, -7.40335818e-05,
          -1.37152019e-04, -1.22311132e-04, -3.24878725e-04,
          -9.95616065e-05, -1.33613881e-04, -9.62179183e-05, 0., 0., 0.,
          0., 0., 4.70321305e-04, 3.00394429e-04, 2.93770310e-04, 0., 0.,
          -2.10951766e-04, -1.12199938e-04, -1.16537529e-04,
          -9.93384238e-05, -2.21077673e-04, -2.57891923e-04,
          -2.79768050e-04, -4.01189209e-05, -7.21948236e-05,
          -3.61479615e-05, 0., 0., 0., 0., 0., 6.04914268e-04,
          3.68854206e-04, 0., 0., -4.51774649e-05, -1.05665829e-04,
          -1.89299462e-04, -6.42792729e-05, -8.66031332e-05,
          -1.05522719e-04, -1.35349968e-04, -1.47197250e-04,
          -1.10086628e-04, -6.36063050e-05, 0., 0., 0., 0., 0., 0.,
          4.37649665e-04, 3.98742122e-04, 0., 0., -2.96932529e-04,
          -1.27666528e-04, -5.76572638e-05, -4.32829656e-05,
          -1.47025508e-04, -1.82078700e-04, -8.71087250e-05,
          -3.26546688e-05, -9.35652643e-05, -5.25457799e-05, 0., 0., 0.,
          0., 0., 0., 5.60983433e-04, 2.99690786e-04, 1.21482626e-04,
          -2.19581823e-04, -1.83547876e-04, -1.72749860e-04,
          -1.18239688e-04, -1.11885143e-04, -1.14911163e-04,
          -9.05241395e-05, 0., -1.61095231e-05, -1.74129425e-04,
          -4.03667473e-05, 0., 0., 0., 0., 0., 0., 4.99895425e-04,
          1.06721796e-04, 1.87850310e-04, -4.01003053e-05,
          -1.01197649e-04, -1.21522993e-04, -8.42253285e-05,
          -9.89893015e-05, -7.78696412e-05, -1.00242403e-04,
          -1.50442414e-04, -1.21793921e-04, -7.47561426e-05,
          -8.63862297e-05, 0., 0., 0., 0., 0., -1.59218598e-05,
          2.30962745e-04, 1.79260896e-04, -1.98618742e-04,
          1.36070332e-04, -1.19744138e-04, 3.88149056e-05,
          -2.90364696e-05, -5.11545040e-05, -5.47445488e-05,
          -1.32107569e-04, -1.56579641e-04, -1.60856551e-04,
          -1.13689210e-04, -3.19680912e-05, -1.02875623e-04,
          -3.34351353e-05, -9.96498147e-06, -3.34351353e-05,
          -4.93569933e-05, -1.04267776e-04, 2.10541330e-05,
          -1.04853912e-04, 5.21102629e-06, -7.79193724e-05,
          4.06060644e-05, 1.44169026e-04, -4.18137824e-05,
          9.34532145e-05, 6.67380809e-05, -1.38169387e-04,
          -1.17131727e-04, -1.12688133e-04, -1.02921498e-04,
          -1.52535513e-05, 0., -6.94404880e-05, -6.94404880e-05,
          -8.53623496e-05, -8.52364028e-05, -2.91068100e-05,
          4.31478766e-05, -1.13863942e-04, -1.07485161e-04,
          2.94530728e-05, 4.14248025e-05, 1.80344025e-04, 1.50714230e-04,
          2.16812085e-04, -3.88226872e-05, 3.32646378e-05,
          8.37378902e-05, -9.10662420e-05, -3.27287707e-04,
          -8.63873793e-05, -5.65479895e-05, -4.18700911e-05,
          -7.18975425e-05, -5.51480807e-05, -5.54962826e-05,
          -8.20650748e-05, -3.62530001e-04, -6.42830710e-05,
          3.96659198e-05, 6.53345123e-05, 1.27593186e-04, 8.71420780e-05,
          8.45327158e-05, 8.63701789e-05, 1.80716524e-04, 2.67719064e-04,
          8.96135025e-05, -1.51192668e-04, -8.63056357e-06,
          -1.38388161e-04, -5.49690449e-05, -6.90719025e-05,
          -6.36725163e-05, -1.73689550e-05, -9.86408122e-05,
          -1.11050722e-04, -3.21942061e-04, -4.78347974e-05, 0., 0.,
          1.79677678e-04, 1.95901055e-04, 1.16496303e-04, 1.09116256e-04,
          1.10637280e-04, 6.68532448e-05, 1.52332883e-04, 1.29264197e-04,
          5.79004663e-05, 9.99390541e-05, 6.87916545e-05,
          -6.89400185e-05, 3.30223847e-05, 5.95365964e-05,
          -3.68175170e-05, 4.96410576e-05 ]
      - [ 1.80823234e-04, 4.34301968e-04, 4.71216714e-04, 2.88179464e-04,
          4.69422703e-05, 1.46505612e-04, 9.19469603e-05, 6.79147633e-05,
          8.96595666e-05, 1.70005696e-05, 5.13671112e-05, 1.45053011e-04,
          3.03747038e-06, -2.79539381e-05, 0., 0., 0., 0., 0., 0., 0.,
          0., 0., 2.75350903e-05, 1.87140511e-04, 3.39679740e-04,
